/*!
 * The following copyright notice may not be removed under any circumstances.
 * 
 * Copyright:
 * Copyright (c) 2011, Oriol Esparraguera Font (hi@parqink.com|www.parqink.com),
 * with Reserved Font Name Afta.
 * 
 * Full name:
 * Aftasans
 * 
 * Manufacturer:
 * Oriol Esparraguera Font
 * 
 * Designer:
 * par.qink
 * 
 * License information:
 * http://scripts.sil.org/OFL
 */
Cufon.registerFont({"w":1175,"face":{"font-family":"AftaSans","font-weight":400,"font-stretch":"normal","units-per-em":"2048","panose-1":"2 0 5 3 0 0 0 2 0 4","ascent":"1638","descent":"-410","x-height":"35","bbox":"8 -1923 2189 479","underline-thickness":"102.4","underline-position":"-307.2","unicode-range":"U+0020-U+00FC"},"glyphs":{" ":{"w":577},"!":{"d":"195,0r0,-176r174,0r0,176r-174,0xm346,-1063r-51,602r-43,0r-51,-602r0,-436r145,0r0,436","w":540},"\"":{"d":"670,-1010r-90,0r0,-485r90,0r0,485xm266,-1495r94,0r0,485r-94,0r0,-485","w":890},"#":{"d":"848,-938r-340,0r-74,418r340,0v37,-211,58,-318,74,-418xm414,-938r-267,0r0,-63r277,0r74,-451r94,0r-78,451r344,0r76,-451r96,0r-80,451r197,0r0,63r-207,0r-70,418r211,0r0,63r-217,0v-33,154,-55,307,-78,457r-94,0r76,-457r-344,0v-49,305,-58,385,-74,457r-94,0r76,-457r-238,0r0,-63r248,0"},"$":{"d":"674,-705r0,650v207,-57,325,-168,325,-301v0,-78,-20,-218,-325,-349xm610,-838r0,-612v-199,35,-327,135,-327,297v0,145,139,243,327,315xm674,-1679r0,141v236,14,366,57,438,96r0,103v-154,-74,-288,-103,-438,-113r0,623v229,82,487,188,487,473v0,256,-266,368,-487,395r0,205r-64,0r0,-203v-254,-10,-419,-74,-491,-123r0,-133v96,72,270,148,491,158r0,-658v-319,-96,-491,-217,-491,-440v0,-174,163,-350,491,-383r0,-141r64,0","w":1198},"%":{"d":"1628,-784v260,0,316,198,322,409v-6,362,-181,393,-320,393v-147,0,-328,-31,-334,-393v6,-260,96,-409,332,-409xm1628,-12v162,0,242,-91,242,-363v0,-285,-70,-373,-242,-373v-158,0,-248,92,-248,381v0,279,98,355,248,355xm1632,-1516r105,0r-1153,1555r-103,0xm539,-723v147,0,243,-80,243,-352v0,-289,-102,-365,-243,-365v-150,0,-246,76,-246,371v0,281,117,346,246,346xm539,-1487v262,0,319,197,325,412v-6,360,-196,395,-323,395v-117,0,-326,-35,-332,-395v6,-262,99,-412,330,-412","w":2048},"&":{"d":"836,-1491v199,2,323,62,323,234v0,23,-6,69,-16,135v285,49,405,190,405,495v0,207,-70,375,-256,512v98,55,179,62,226,62v141,0,235,-37,319,-84r0,108v-74,41,-168,62,-326,62v-109,0,-202,-16,-325,-92v-150,68,-319,96,-516,96v-424,0,-576,-205,-576,-557v0,-319,140,-453,457,-502v-27,-115,-45,-126,-45,-235v0,-195,166,-234,330,-234xm561,-969v-223,59,-332,113,-332,441v0,371,142,479,445,479v125,0,266,-23,426,-68v-254,-244,-418,-547,-539,-852xm1118,-1059v-55,162,-146,348,-250,520v135,207,184,265,303,363v158,-76,240,-213,240,-459v0,-289,-90,-352,-293,-424xm1061,-1225v0,-154,-104,-176,-225,-176v-139,0,-238,22,-238,176v0,147,144,436,238,598v121,-236,225,-438,225,-598","w":1554},"'":{"d":"358,-1010r-92,0r0,-485r92,0r0,485","w":585},"(":{"d":"545,-1542r73,0v-109,168,-335,590,-335,991v0,336,167,708,321,987r-59,0v-72,-82,-412,-504,-412,-987v0,-367,189,-735,412,-991","w":645},")":{"d":"45,-1542r74,0v231,285,413,633,413,991v0,487,-343,901,-411,987r-64,0v158,-305,326,-641,326,-987v0,-408,-236,-827,-338,-991","w":630},"*":{"d":"377,-1239v82,39,237,125,237,123r-16,51r-211,-147r0,266r-53,0r0,-266r-211,147r-17,-51v31,-18,60,-35,89,-49v49,-27,108,-56,149,-74v-76,-35,-170,-73,-238,-104v6,-23,13,-34,19,-48r209,111r0,-217r53,0r0,217r209,-111v6,14,12,25,18,48","w":673},"+":{"d":"586,-1042r92,0r0,481r483,0r0,86r-483,0r0,473r-92,0r0,-473r-465,0r0,-86r465,0r0,-481","w":1228},",":{"d":"217,0r0,-172r178,0v10,80,17,148,17,203v0,248,-109,336,-224,352r0,-72v154,-16,152,-170,152,-311r-123,0","w":569},"-":{"d":"137,-623r574,0r0,105r-574,0r0,-105","w":815},".":{"d":"217,2r0,-172r174,0r0,172r-174,0","w":555},"\/":{"d":"12,39r623,-1581r96,0r-622,1581r-97,0","w":710},"0":{"d":"702,-1389v-268,0,-448,167,-448,691v0,508,204,647,448,647v244,0,435,-179,435,-662v0,-502,-191,-676,-435,-676xm702,-1481v231,0,570,96,570,768v0,655,-365,746,-570,746v-207,0,-587,-91,-587,-746v0,-647,306,-768,587,-768","w":1331},"1":{"d":"354,-1487r168,0r0,1487r-135,0r0,-1380r-88,24v-43,14,-86,25,-86,23r0,-60v2,0,96,-61,141,-94","w":890},"2":{"d":"240,-98r833,0r0,98r-1003,0v10,-422,225,-567,553,-737r-2,0v197,-96,274,-224,274,-363v0,-145,-98,-281,-334,-291v-190,0,-287,105,-332,160v-39,-31,-63,-53,-102,-80v72,-92,235,-176,432,-176v322,0,467,178,467,387v0,197,-113,361,-367,484v-219,109,-409,264,-419,518","w":1189},"3":{"d":"637,-1391v-193,0,-401,97,-510,152r0,-111v129,-66,297,-139,510,-139v246,0,475,94,475,340v0,186,-76,310,-266,361v199,49,362,126,362,374v0,238,-231,449,-618,449v-287,0,-447,-53,-502,-80r0,-109v158,72,324,101,490,101v358,0,458,-242,458,-361v0,-147,-141,-317,-411,-317r-176,0r0,-98r176,0v264,0,331,-142,331,-289v0,-131,-90,-273,-319,-273","w":1269},"4":{"d":"143,-500r727,0r0,-880xm870,-412r-794,0r0,-127r805,-950r123,0r0,989r337,0r0,88r-337,0r0,412r-134,0r0,-412","w":1384},"5":{"d":"219,-1464r967,0v-6,33,-9,53,-15,80r-831,0r-59,471v72,-31,194,-76,335,-76v344,0,586,139,586,477v0,332,-250,512,-586,512v-303,0,-471,-76,-526,-109r0,-118v164,80,346,143,526,143v319,0,439,-246,439,-428v0,-197,-120,-393,-439,-393v-145,0,-317,63,-383,86r-110,-66v43,-285,68,-415,84,-501v2,-23,6,-53,12,-78","w":1269},"6":{"d":"272,-449v0,170,133,388,369,388v504,0,528,-752,57,-752v-205,0,-360,178,-426,364xm1161,-1350r-8,119v-96,-59,-272,-155,-465,-155v-422,0,-458,515,-442,802v33,-100,196,-327,452,-327v655,0,668,931,-55,931v-328,0,-537,-169,-537,-749v0,-563,263,-760,582,-760v193,0,332,69,473,139","w":1232},"7":{"d":"115,-1376r32,-76r1033,0v0,135,-52,174,-105,250v2,0,-141,182,-323,407v-80,115,-117,228,-117,367r0,428r-139,0r0,-428v0,-195,69,-314,141,-410r426,-538r-948,0","w":1255},"8":{"d":"715,-911v27,-6,266,-109,266,-269v0,-186,-189,-213,-336,-213v-139,0,-336,57,-336,213v0,147,297,236,406,269xm573,-823v-205,63,-335,211,-335,424v0,246,219,338,409,338v221,0,414,-127,414,-338v0,-260,-259,-408,-488,-424xm459,-852v-90,-37,-297,-143,-297,-309v0,-207,172,-326,485,-326v326,0,477,148,477,326v0,139,-106,239,-288,305v197,92,370,226,370,457v0,287,-242,434,-561,434v-301,0,-545,-102,-545,-434v0,-254,250,-410,359,-453","w":1255},":":{"d":"217,2r0,-172r174,0r0,172r-174,0xm391,-887r-174,0r0,-172r174,0r0,172","w":575},";":{"d":"340,0r-123,0r0,-172r178,0v10,80,17,148,17,203v0,248,-109,336,-224,352r0,-72v154,-16,152,-170,152,-311xm391,-887r-174,0r0,-172r174,0r0,172","w":587},"<":{"d":"1208,-1047r0,109r-1001,420r1020,418r0,104v-377,-152,-729,-333,-1106,-485r0,-80v358,-147,729,-339,1087,-486","w":1271},"=":{"d":"121,-346r1026,0r0,84r-1026,0r0,-84xm121,-774r1026,0r0,88r-1026,0r0,-88","w":1224},">":{"d":"117,-938r0,-109v358,147,729,339,1087,486r0,80v-377,152,-729,333,-1106,485r0,-104r1020,-418","w":1265},"?":{"d":"565,-457r-82,0v10,-223,144,-333,236,-409v98,-82,190,-148,190,-312v0,-150,-106,-256,-360,-256v-174,0,-315,64,-399,103r0,-142v104,-43,268,-65,399,-65v285,0,504,104,504,360v0,174,-119,275,-232,361v-117,90,-229,198,-256,360xm449,2r0,-172r172,0r0,172r-172,0","w":1189},"@":{"d":"1018,-711r18,-106v-18,-23,-118,-150,-198,-150v-88,0,-133,78,-133,234v0,117,53,172,141,172v72,0,162,-84,172,-150xm1651,-903v0,219,-93,473,-396,473v-145,0,-220,-86,-243,-141v-55,98,-148,114,-205,114v-125,0,-238,-62,-238,-291v0,-172,76,-329,246,-329v55,0,160,39,236,143v8,-55,22,-88,32,-127v4,0,-3,0,103,37v-16,121,-43,268,-43,383v0,84,41,125,125,125v156,0,227,-183,227,-404v0,-350,-309,-522,-610,-522v-98,0,-623,2,-623,690v0,717,545,695,707,695v215,0,459,-89,647,-195r0,174v-240,88,-483,115,-723,115v-543,0,-803,-322,-793,-787v0,-485,334,-790,791,-790v420,0,760,209,760,637","w":1673},"A":{"d":"963,-643r-261,-754r-290,754r551,0xm23,0r577,-1464r211,0r514,1464r-151,0r-185,-557r-598,0r-227,557r-141,0","w":1333,"k":{"y":37,"w":37,"v":37,"Y":152,"W":49,"V":94,"T":188}},"B":{"d":"324,-752r0,684r307,15v436,10,543,-140,543,-363v0,-213,-177,-336,-433,-336r-417,0xm324,-844r325,0v279,0,393,-74,393,-260v0,-166,-106,-270,-378,-270r-340,0r0,530xm190,-1462r472,0v403,0,534,159,534,358v0,176,-127,272,-297,295v238,39,436,160,436,410v0,221,-113,436,-594,426v-369,-6,-497,-19,-546,-25v0,-500,-5,-964,-5,-1464","w":1402},"C":{"d":"872,-1497v139,0,277,32,394,67r0,125v-125,-59,-253,-106,-394,-106v-33,0,-558,12,-583,684v8,678,528,666,583,666v166,0,299,-72,408,-160r0,141v-63,43,-209,123,-408,123v-485,0,-745,-346,-751,-768v0,-502,337,-772,751,-772","w":1392},"D":{"d":"322,-1362r0,1192v0,78,2,80,51,80r186,0v240,0,588,-148,588,-637v0,-469,-348,-651,-588,-651v-186,0,-237,2,-237,16xm188,-1466r369,0v547,0,754,444,754,739v0,297,-162,725,-752,725r-371,0r0,-1464","w":1396},"E":{"d":"193,0r0,-1462r849,0r0,86r-720,0r0,588r534,0r0,88r-534,0r0,612r770,0r0,88r-899,0","w":1163},"F":{"d":"193,0r0,-1462r946,0r0,90r-815,0r0,584r505,0r0,102r-505,0r0,686r-131,0","w":1185,"k":{"A":113,".":322,",":322}},"H":{"d":"1264,-780r0,-684r133,0r0,1464r-133,0r0,-688r-926,0r0,688r-148,0r0,-1464r148,0r0,684r926,0","w":1536},"I":{"d":"211,0r0,-1464r131,0r0,1464r-131,0","w":530},"J":{"d":"248,-1466r127,0r0,1511v0,291,-170,357,-250,373r0,-76v88,-88,123,-166,123,-297r0,-1511","w":557},"K":{"d":"309,-629r719,-835r139,0r-481,571r592,893r-160,0r-520,-786r-289,315r0,471r-131,0r0,-1464r131,0r0,835","w":1282},"L":{"d":"373,-92r714,0r0,92r-894,0r0,-1464r135,0r0,1319v0,55,-2,53,45,53","w":1095,"k":{"y":76,"Y":227,"W":113,"V":188,"T":188}},"M":{"d":"1061,-172r-152,0r-585,-1208v0,434,-7,907,-7,1380r-129,0r0,-1464r250,0r496,1097v37,80,80,47,100,0v426,-956,463,-1034,488,-1097r231,0r0,1464r-131,0r-2,-1382","w":1884},"N":{"d":"186,0r0,-1462r195,0r813,1306r0,-1306r135,0r0,1462r-153,0r-859,-1378r0,1378r-131,0","w":1456},"O":{"d":"256,-731v0,702,514,680,612,680v84,0,631,-2,631,-680v0,-688,-549,-676,-633,-676v-98,0,-610,4,-610,676xm868,-1497v535,8,768,266,768,768v0,434,-215,770,-768,770v-563,0,-766,-309,-772,-770v0,-502,283,-760,772,-768","w":1687},"P":{"d":"326,-1374r0,663r372,0v287,0,363,-233,363,-323v0,-143,-76,-340,-363,-340r-372,0xm195,-1462r503,-2v387,0,519,231,519,430v0,186,-124,418,-519,418r-372,0r0,618r-131,0r0,-1464","w":1261,"k":{"A":152,".":367,",":367}},"Q":{"d":"256,-725v0,702,514,680,612,680v84,0,629,-2,629,-680v0,-688,-545,-676,-631,-676v-98,0,-610,4,-610,676xm868,-1491v535,8,768,266,768,768v0,414,-197,731,-723,770r0,68v0,201,163,276,261,286r0,23v-330,-16,-365,-237,-365,-311r0,-66v-520,-39,-707,-346,-713,-770v0,-502,283,-760,772,-768","w":1681},"R":{"d":"317,-813r363,0v272,0,346,-162,346,-283v0,-129,-88,-278,-346,-278r-363,0r0,561xm188,-1464r492,0v332,0,485,149,485,350v0,229,-176,336,-317,352v141,33,182,130,225,236r211,526r-135,0v-164,-414,-224,-563,-234,-586v-41,-88,-94,-127,-186,-127r-412,0r0,713r-129,0r0,-1464","w":1355,"k":{"Y":76,"W":37,"V":37,"T":37}},"S":{"d":"1087,-1411r0,104v-190,-88,-314,-102,-464,-102v-186,0,-347,103,-347,283v0,172,117,246,320,301v227,70,537,166,537,477v0,322,-356,389,-553,389v-240,0,-393,-70,-465,-119r0,-135v102,76,277,156,465,156v223,0,397,-129,397,-291v0,-94,-19,-256,-375,-350r2,0v-311,-88,-489,-194,-489,-430v0,-190,176,-369,510,-369v266,0,384,47,462,86","w":1204},"T":{"d":"1272,-1466r0,88r-547,0r0,1378r-137,0r0,-1378r-563,0r0,-88r1247,0","w":1261,"k":{"y":227,"w":227,"u":188,"s":227,"r":188,"o":227,"e":227,"c":227,"a":227,"A":188,";":227,":":227,".":227,"-":264,",":227}},"U":{"d":"1188,-1464r129,0r0,837v0,221,6,654,-561,654v-575,0,-578,-434,-578,-670r0,-821r133,0r0,837v0,129,3,557,445,557v432,0,432,-424,432,-557r0,-837","w":1468},"V":{"d":"1331,-1464r-555,1464r-198,0r-535,-1464r143,0r492,1370r491,-1370r162,0","w":1398,"k":{"y":37,"u":76,"r":76,"o":113,"i":37,"e":113,"a":113,"A":94,";":94,":":94,".":264,"-":113,",":264}},"W":{"d":"37,-1464r151,0r496,1364r352,-1364r168,0r344,1368r486,-1368r155,0r-532,1464r-199,0r-338,-1391r-342,1391r-198,0","w":2170,"k":{"u":37,"r":37,"o":117,"e":117,"a":76,"A":49,";":37,":":37,".":152,",":152}},"X":{"d":"66,2r583,-756r-551,-710r160,0r459,610r463,-610r159,0r-538,710r569,756r-141,0r-512,-657r-508,657r-143,0","w":1398},"Y":{"d":"651,-549r-592,-915r150,0r512,811r518,-811r152,0r-592,915r0,551r-148,0r0,-551","w":1413,"k":{"v":113,"u":152,"q":188,"p":152,"o":227,"i":76,"e":227,"a":188,"A":152,";":188,":":188,".":285,"-":227,",":285}},"Z":{"d":"209,-102r1104,0r0,102r-1243,0r0,-137r1122,-1239r-1122,0r0,-88r1243,0r0,135","w":1341},"[":{"d":"662,-1536r0,92r-324,0r0,1790r324,0r0,90r-478,0r0,-1972r478,0","w":663},"]":{"d":"31,-1536r475,0r0,1970r-475,0r0,-94r323,0r0,-1784r-323,0r0,-92","w":663},"^":{"d":"254,-594r-104,2r460,-862r0,-2r74,0v131,283,326,596,467,881r-96,0r-408,-805v-201,430,-317,616,-393,786","w":1232},"_":{"d":"20,246r1027,0r0,39r-1027,0r0,-39","w":1024},"`":{"d":"8,-1538r160,0r102,229r-86,0","w":454},"a":{"d":"723,-201r4,-358v-123,31,-199,31,-291,31v-98,0,-223,-2,-223,227v0,158,102,227,231,227v90,0,191,-43,279,-127xm860,-678r0,678r-96,0r-68,-76v-94,49,-182,90,-350,90v-158,0,-268,-110,-268,-317v0,-164,76,-313,330,-313v209,0,256,-1,315,-56v0,-291,-60,-321,-238,-321v-141,0,-240,36,-303,61v-14,-39,-19,-55,-35,-90v96,-41,220,-70,351,-70v197,0,362,78,362,414","w":948},"b":{"d":"244,-494r0,365v88,47,194,70,282,70v283,0,326,-281,326,-504v0,-207,-35,-436,-223,-436v-262,0,-385,362,-385,505xm106,-51r-4,-1575r138,0r0,840v33,-127,184,-306,393,-306v205,0,360,130,360,529v0,410,-153,588,-499,588v-158,0,-300,-41,-388,-76","w":1052},"c":{"d":"662,-61v141,0,276,-50,356,-89v0,72,2,94,2,119v-125,39,-221,64,-358,64v-369,0,-553,-179,-553,-572v0,-416,209,-551,553,-551v137,0,253,44,337,91r0,108v-115,-51,-222,-104,-337,-104v-215,0,-416,71,-416,452v0,397,193,482,416,482","w":1042},"d":{"d":"866,-455r2,-463v-72,-33,-240,-88,-342,-88v-289,0,-282,371,-282,469v0,174,28,471,270,471v246,0,352,-137,352,-389xm868,-139v-63,96,-182,164,-354,164v-221,0,-408,-142,-408,-560v0,-410,201,-565,420,-565v72,0,197,19,342,74r0,-598r138,0r0,1632r-129,0v0,-27,-9,-41,-9,-147","w":1101},"e":{"d":"260,-625r629,-2v-2,-100,-27,-184,-68,-256v-47,-74,-116,-112,-231,-112v-238,0,-330,180,-330,370xm590,-51v166,0,270,-103,313,-166v63,49,76,62,90,72v-125,147,-272,178,-403,178v-365,0,-475,-209,-481,-539v0,-367,147,-584,481,-584v279,0,422,176,420,551r-766,-2v0,287,20,490,346,490","w":1067},"f":{"d":"864,-1532r2,105v-74,-39,-139,-62,-227,-62v-285,0,-277,141,-277,336r0,92r265,0r0,88r-265,0r0,973r-131,0r0,-973r-176,0r0,-88r176,0r0,-92v0,-346,146,-442,408,-442v113,0,186,38,225,63","w":659,"k":{"f":37}},"h":{"d":"905,0r0,-655v0,-213,-86,-334,-258,-334v-186,0,-350,147,-350,311r0,678r-135,0r0,-1628r135,0r0,786v55,-131,246,-250,412,-250v190,0,327,146,327,451r0,641r-131,0","w":1165},"i":{"d":"328,-1456r-174,0r0,-174r174,0r0,174xm188,0r0,-1061r140,0r0,1061r-140,0","w":468},"j":{"d":"330,-1061r0,1094v0,324,-181,389,-269,405v2,-39,2,-65,2,-92v84,-76,127,-178,127,-293r0,-1114r140,0xm330,-1630r0,174r-172,0r0,-174r172,0","w":473},"k":{"d":"731,-410r311,410r-161,0r-267,-348r-125,55r0,-108v172,-72,437,-226,437,-416v0,-123,-84,-205,-199,-205v-170,0,-406,203,-412,414r0,608r-139,0r0,-1626r139,0r0,784v115,-178,271,-284,451,-284v174,0,283,128,283,286v0,156,-121,299,-318,430","w":1101},"l":{"d":"324,0r-136,0r0,-1626r136,0r0,1626","w":468},"m":{"d":"1401,0r0,-676v0,-190,-25,-315,-191,-315v-207,0,-299,172,-299,336r0,655r-139,0r0,-655v0,-215,-39,-336,-186,-336v-207,0,-299,214,-299,370r0,621r-135,0r0,-1059r120,0r13,225v55,-166,182,-258,362,-258v117,0,197,76,246,258v59,-135,180,-258,381,-258v172,0,252,127,252,430r6,662r-131,0","w":1615},"n":{"d":"911,0r0,-655v0,-213,-86,-334,-258,-334v-186,0,-350,147,-350,311r0,678r-135,0r0,-1061r121,0r12,211v53,-129,248,-242,414,-242v195,0,327,146,327,451r0,641r-131,0","w":1150},"o":{"d":"242,-535v0,449,206,476,360,476v119,0,328,-3,328,-476v0,-459,-211,-462,-350,-462v-141,0,-338,-7,-338,462xm580,-1092v393,0,503,252,503,557v0,371,-106,570,-481,570v-375,0,-502,-267,-502,-570v0,-356,124,-557,480,-557","w":1153},"p":{"d":"672,-1004v-254,0,-379,248,-379,402r0,457v90,47,148,61,248,61v309,0,356,-233,356,-448v0,-215,-20,-472,-225,-472xm291,-23r0,459r-131,0r0,-1495r106,0r25,246v16,-76,168,-281,381,-281v262,0,356,216,356,562v0,385,-148,548,-500,548v-74,0,-153,-16,-237,-39","w":1114},"q":{"d":"465,-63v252,0,379,-248,379,-402r0,-457v-88,-47,-187,-79,-287,-79v-274,0,-319,253,-319,466v0,215,22,472,227,472xm977,432r-133,0r0,-655v-72,109,-189,248,-379,248v-262,0,-356,-216,-356,-560v0,-385,147,-548,497,-548v158,0,305,57,371,90r0,1425","w":1105},"r":{"d":"301,0r-141,0r0,-1059r112,0r29,234v55,-141,123,-265,297,-265v88,0,137,17,164,27r-8,113v-80,-25,-109,-33,-156,-33v-139,0,-297,121,-297,475r0,508","w":751,"k":{"g":57,"q":37,"o":37,"n":-37,"e":37,"d":37,"c":37,".":188,"-":113,",":188}},"s":{"d":"481,-1081v186,0,317,63,393,96v0,31,3,71,3,98v-133,-57,-257,-108,-396,-108v-109,0,-221,24,-221,182v0,131,76,158,240,201v289,72,430,163,430,329v0,197,-170,314,-420,314v-213,0,-369,-84,-420,-119v0,-47,2,-86,2,-133v125,74,264,149,418,149v145,0,276,-41,276,-211v0,-139,-175,-186,-380,-241v-225,-66,-291,-152,-291,-293v0,-98,61,-264,366,-264","w":966},"u":{"d":"299,-1061r0,676v0,211,49,328,229,328v182,0,383,-138,383,-361r0,-643r133,0r0,1061r-122,0r-11,-221v-63,164,-212,256,-415,256v-182,0,-336,-110,-336,-438r0,-658r139,0"},"v":{"d":"68,-1061r141,0r366,940v2,0,402,-936,394,-940r137,0r-463,1061r-129,0","w":1122,"k":{".":152,",":152}},"w":{"d":"55,-1061r129,0r258,959v2,0,363,-957,363,-959r110,0r334,961r226,-961r131,0r-267,1061r-168,0r-311,-977r-348,977r-158,0","w":1611,"k":{".":113,",":113}},"x":{"d":"537,-457r-340,455r-146,0r412,-553r-369,-506r160,0r281,406r288,-406r158,0r-367,506r406,553r-139,0","w":1046},"y":{"d":"526,106r-465,-1167r140,0r395,1061r344,-1061r139,0r-534,1495r-119,0","w":1095,"k":{".":152,",":152}},"z":{"d":"223,-109r676,0r0,109r-823,0r0,-109r682,-862r-682,0r0,-90r839,0r0,90","w":937},"{":{"d":"881,342r0,94r-140,0v-219,0,-428,-104,-428,-430r0,-313v0,-141,-123,-178,-178,-201r0,-94v88,-35,170,-94,178,-209r0,-317v0,-301,209,-414,428,-414r140,0r0,96r-119,0v-57,0,-307,0,-307,223r0,410v0,86,-37,203,-129,219r0,78v96,18,129,117,129,209r0,430v0,227,250,219,307,219r119,0","w":915},"|":{"d":"205,479r0,-2136r96,0r0,2136r-96,0","w":468},"}":{"d":"215,436r-139,0r0,-94r119,0v66,0,309,8,309,-219r0,-430v0,-96,33,-189,129,-207r0,-78v-98,-16,-129,-135,-129,-221r0,-410v0,-223,-243,-223,-309,-223r-119,0r0,-96r139,0v223,0,430,113,430,414r0,315v0,139,112,188,178,211r0,96v-82,33,-172,103,-178,199r0,313v0,326,-207,430,-430,430","w":909},"~":{"d":"424,-442v-72,0,-148,23,-203,39v0,-39,-4,-49,-4,-82v76,-35,137,-64,211,-64v195,0,219,57,430,57v80,0,148,-20,203,-45r0,93v-113,47,-162,57,-203,57v-203,0,-233,-55,-434,-55","w":1228},"G":{"d":"1384,-616r136,0r0,538v-131,43,-391,119,-627,119v-580,6,-784,-317,-784,-776v0,-459,278,-764,761,-764v272,0,478,53,537,76r0,137v-127,-45,-258,-123,-537,-123v-412,0,-608,303,-608,686v0,680,525,662,631,662v197,0,350,-29,491,-125r0,-430","w":1626},"9":{"d":"1012,-1020v0,-170,-133,-387,-369,-387v-504,0,-526,752,-57,752v205,0,360,-179,426,-365xm123,-119r8,-119v96,59,272,156,465,156v422,0,458,-516,442,-803v-33,100,-196,328,-452,328v-655,0,-668,-932,55,-932v328,0,537,170,537,750v0,563,-263,759,-582,759v-193,0,-332,-69,-473,-139","w":1232},"t":{"d":"51,-1061r207,0v14,-98,27,-213,41,-313r92,0r0,313r275,0r0,88r-275,0r0,688v0,182,17,209,121,209v57,0,111,-15,150,-33r0,103v-96,23,-154,31,-201,31v-129,0,-201,-41,-201,-238r0,-760r-209,0r0,-88","w":704},"\u00c1":{"d":"963,-643r-261,-754r-290,754r551,0xm23,0r577,-1464r211,0r514,1464r-151,0r-185,-557r-598,0r-227,557r-141,0xm608,-1923r209,0r-201,262r-124,0","w":1310},"\u00c9":{"d":"193,0r0,-1462r849,0r0,86r-720,0r0,588r534,0r0,88r-534,0r0,612r770,0r0,88r-899,0xm535,-1923r208,0r-200,262r-125,0","w":1163},"\u00cd":{"d":"211,0r0,-1464r131,0r0,1464r-131,0xm225,-1923r209,0r-201,262r-124,0","w":530},"\u00d3":{"d":"256,-731v0,702,514,680,612,680v84,0,631,-2,631,-680v0,-688,-549,-676,-633,-676v-98,0,-610,4,-610,676xm868,-1497v535,8,768,266,768,768v0,434,-215,770,-768,770v-563,0,-766,-309,-772,-770v0,-502,283,-760,772,-768xm797,-1923r209,0r-201,262r-125,0","w":1687},"\u00d6":{"d":"256,-731v0,702,514,680,612,680v84,0,631,-2,631,-680v0,-688,-549,-676,-633,-676v-98,0,-610,4,-610,676xm868,-1497v535,8,768,266,768,768v0,434,-215,770,-768,770v-563,0,-766,-309,-772,-770v0,-502,283,-760,772,-768xm958,-1851r172,0r0,200r-172,0r0,-200xm555,-1851r170,0r0,200r-170,0r0,-200xm958,-1851r172,0r0,200r-172,0r0,-200xm555,-1851r170,0r0,200r-170,0r0,-200","w":1687},"\u00da":{"d":"1188,-1464r129,0r0,837v0,221,6,654,-561,654v-575,0,-578,-434,-578,-670r0,-821r133,0r0,837v0,129,3,557,445,557v432,0,432,-424,432,-557r0,-837xm688,-1923r209,0r-201,262r-125,0","w":1468},"\u00dc":{"d":"1188,-1464r129,0r0,837v0,221,6,654,-561,654v-575,0,-578,-434,-578,-670r0,-821r133,0r0,837v0,129,3,557,445,557v432,0,432,-424,432,-557r0,-837xm850,-1851r172,0r0,200r-172,0r0,-200xm446,-1851r170,0r0,200r-170,0r0,-200xm850,-1851r172,0r0,200r-172,0r0,-200xm446,-1851r170,0r0,200r-170,0r0,-200","w":1468},"\u00e1":{"d":"723,-201r4,-358v-123,31,-199,31,-291,31v-98,0,-223,-2,-223,227v0,158,102,227,231,227v90,0,191,-43,279,-127xm860,-678r0,678r-96,0r-68,-76v-94,49,-182,90,-350,90v-158,0,-268,-110,-268,-317v0,-164,76,-313,330,-313v209,0,256,-1,315,-56v0,-291,-60,-321,-238,-321v-141,0,-240,36,-303,61v-14,-39,-19,-55,-35,-90v96,-41,220,-70,351,-70v197,0,362,78,362,414xm428,-1520r209,0r-201,263r-125,0","w":948},"\u00e9":{"d":"260,-625r629,-2v-2,-100,-27,-184,-68,-256v-47,-74,-116,-112,-231,-112v-238,0,-330,180,-330,370xm590,-51v166,0,270,-103,313,-166v63,49,76,62,90,72v-125,147,-272,178,-403,178v-365,0,-475,-209,-481,-539v0,-367,147,-584,481,-584v279,0,422,176,420,551r-766,-2v0,287,20,490,346,490xm487,-1520r209,0r-200,263r-125,0","w":1067},"\u00ed":{"d":"188,0r0,-1061r140,0r0,1061r-140,0xm207,-1520r209,0r-201,263r-125,0","w":493},"\u00f3":{"d":"242,-535v0,449,206,476,360,476v119,0,328,-3,328,-476v0,-459,-211,-462,-350,-462v-141,0,-338,-7,-338,462xm580,-1092v393,0,503,252,503,557v0,371,-106,570,-481,570v-375,0,-502,-267,-502,-570v0,-356,124,-557,480,-557xm530,-1520r209,0r-200,263r-125,0","w":1153},"\u00f6":{"d":"242,-535v0,449,206,476,360,476v119,0,328,-3,328,-476v0,-459,-211,-462,-350,-462v-141,0,-338,-7,-338,462xm580,-1092v393,0,503,252,503,557v0,371,-106,570,-481,570v-375,0,-502,-267,-502,-570v0,-356,124,-557,480,-557xm692,-1448r172,0r0,201r-172,0r0,-201xm289,-1448r170,0r0,201r-170,0r0,-201xm692,-1448r172,0r0,201r-172,0r0,-201xm289,-1448r170,0r0,201r-170,0r0,-201","w":1153},"\u00fa":{"d":"299,-1061r0,676v0,211,49,328,229,328v182,0,383,-138,383,-361r0,-643r133,0r0,1061r-122,0r-11,-221v-63,164,-212,256,-415,256v-182,0,-336,-110,-336,-438r0,-658r139,0xm541,-1520r209,0r-201,263r-125,0"},"\u00fc":{"d":"299,-1061r0,676v0,211,49,328,229,328v182,0,383,-138,383,-361r0,-643r133,0r0,1061r-122,0r-11,-221v-63,164,-212,256,-415,256v-182,0,-336,-110,-336,-438r0,-658r139,0xm702,-1448r172,0r0,201r-172,0r0,-201xm299,-1448r170,0r0,201r-170,0r0,-201xm702,-1448r172,0r0,201r-172,0r0,-201xm299,-1448r170,0r0,201r-170,0r0,-201"},"\\":{"d":"635,39r-623,-1581r97,0r622,1581r-96,0","w":710},"g":{"d":"963,-1061r92,0r0,1073v0,68,-3,445,-482,445v-182,0,-311,-72,-409,-187r82,-65v29,31,61,57,96,82v59,41,139,80,231,80v352,0,347,-287,347,-355r0,-133v-80,113,-162,160,-324,160v-371,0,-494,-277,-494,-578v0,-352,121,-553,473,-553v207,0,295,62,377,187xm240,-539v0,442,206,484,356,484v119,0,326,-17,326,-484v0,-451,-195,-456,-332,-456v-141,0,-350,-9,-350,456","w":1153},"\u00a0":{"w":577}}});
