/*!
 * The following copyright notice may not be removed under any circumstances.
 * 
 * Copyright:
 * Copyright (c) 2007, Stephen G. Hartke (lastname at gmail dot com). Licensed
 * under OFL 1.1 with Reserved Font Name Aurulent.
 * 
 * License information:
 * http://scripts.sil.org/ofl
 */
Cufon.registerFont({"w":1126,"face":{"font-family":"AurulentSans","font-weight":400,"font-stretch":"normal","units-per-em":"2048","panose-1":"2 0 5 3 0 0 0 0 0 0","ascent":"1638","descent":"-410","x-height":"25","bbox":"-154 -1958 1896 420","underline-thickness":"145.408","underline-position":"-2.048","stemh":"145","stemv":"195","unicode-range":"U+0020-U+0171"},"glyphs":{" ":{"w":512},"!":{"d":"356,-1157r-18,758r-156,0r-18,-758r0,-324r192,0r0,324xm356,0r-192,0r0,-195r192,0r0,195","w":522},"\"":{"d":"635,-1331r-29,246r-137,0r-29,-246r0,-246r195,0r0,246xm276,-1331r-28,246r-137,0r-29,-246r0,-246r194,0r0,246","w":716},"#":{"d":"803,-911r-250,0r-66,342r250,0xm1260,-1014r-19,103r-301,0r-66,342r302,0r-19,102r-303,0r-88,467r-137,0r90,-467r-252,0r-88,467r-137,0r90,-467r-301,0r18,-102r301,0r66,-342r-301,0r18,-103r303,0r88,-467r138,0r-91,467r252,0r88,-467r138,0r-91,467r302,0","w":1290},"$":{"d":"610,145r-108,0r0,-145v-136,-4,-287,-47,-420,-127r0,-158v136,81,287,135,420,139r0,-537r-66,-24v-143,-49,-354,-184,-354,-403v0,-203,183,-343,420,-367r0,-149r108,0r0,146v102,5,223,29,338,75r0,180v-111,-45,-226,-94,-338,-107r0,479v240,93,398,214,398,435v0,231,-173,381,-398,412r0,151xm502,-893r0,-440v-122,14,-226,80,-226,196v0,135,138,209,226,244xm610,-638r0,484v118,-25,203,-100,203,-227v0,-122,-79,-197,-203,-257","w":1089},"%":{"d":"1331,-362v0,-121,-37,-246,-141,-246v-104,0,-141,125,-141,246v0,121,37,245,141,245v104,0,141,-124,141,-245xm1487,-362v0,188,-121,362,-297,362v-178,0,-297,-174,-297,-362v0,-190,119,-363,297,-363v176,0,297,173,297,363xm520,-1118v0,-121,-37,-246,-141,-246v-104,0,-141,125,-141,246v0,121,37,246,141,246v104,0,141,-125,141,-246xm676,-1118v0,190,-119,362,-297,362v-176,0,-297,-172,-297,-362v0,-188,121,-363,297,-363v178,0,297,175,297,363xm1407,-1518r-1055,1555r-190,0r1055,-1555r190,0","w":1566},"&":{"d":"590,37v-263,0,-508,-155,-508,-455v0,-234,174,-407,328,-450v-61,-92,-95,-198,-95,-295v0,-205,148,-355,332,-355v178,0,328,141,328,334v0,185,-141,344,-282,404r269,408v47,-108,68,-239,68,-369r162,0v0,187,-46,370,-136,512r150,229r-190,0r-68,-99v-93,84,-213,136,-358,136xm591,-923v126,-61,189,-159,189,-267v0,-98,-53,-182,-135,-182v-86,0,-135,92,-135,201v0,83,29,172,81,248xm276,-416v0,223,161,307,322,307v112,0,200,-42,266,-111r-351,-509v-158,58,-237,170,-237,313","w":1290},"'":{"d":"274,-1307r-22,271r-148,0r-22,-271r0,-270r192,0r0,270","w":358},"(":{"d":"512,264r-166,0v-125,-295,-264,-622,-264,-909v0,-287,139,-614,264,-909r166,0v-125,291,-236,592,-236,909v0,317,111,618,236,909","w":512},")":{"d":"430,-645v0,287,-139,614,-264,909r-166,0v125,-291,236,-592,236,-909v0,-317,-111,-618,-236,-909r166,0v125,295,264,622,264,909","w":512},"*":{"d":"918,-578r-68,119r-35,-20v-96,-55,-180,-126,-272,-187v6,111,24,219,24,328r0,41r-135,0r0,-41v0,-109,19,-217,25,-328v-92,61,-177,132,-273,187r-34,20r-68,-119r35,-20v94,-55,199,-94,297,-141v-98,-49,-203,-89,-297,-144r-35,-20r68,-119r34,21v96,55,181,125,273,186v-6,-111,-25,-219,-25,-328r0,-41r135,0r0,41v0,109,-18,217,-24,328v92,-61,176,-131,272,-186r35,-21r68,119r-35,20v-94,55,-199,95,-297,142v98,49,203,88,297,143","w":999},"+":{"d":"1094,-530r-426,0r0,407r-160,0r0,-407r-426,0r0,-148r426,0r0,-407r160,0r0,407r426,0r0,148","w":1177},",":{"d":"356,-66r-145,357r-121,0r74,-357r0,-129r192,0r0,129","w":522},"-":{"d":"532,-530r-450,0r0,-148r450,0r0,148","w":614},".":{"d":"356,0r-192,0r0,-195r192,0r0,195","w":522},"\/":{"d":"571,-1554r-407,1818r-166,0r408,-1818r165,0","w":569},"0":{"d":"840,-743v0,-180,-3,-367,-101,-519v-41,-63,-102,-114,-176,-114v-74,0,-135,51,-176,114v-98,152,-100,339,-100,519v0,182,2,368,100,520v41,63,102,114,176,114v74,0,135,-51,176,-114v98,-152,101,-338,101,-520xm563,-1522v197,0,492,148,492,779v0,634,-295,780,-492,780v-197,0,-491,-146,-491,-780v0,-631,294,-779,491,-779"},"1":{"d":"1012,0r-795,0r0,-145r313,0r0,-1171r-313,122r0,-145r352,-154r156,0r0,1348r287,0r0,145"},"2":{"d":"82,-160v145,-431,686,-576,686,-944v0,-152,-124,-272,-276,-272v-131,0,-258,41,-373,104r0,-162v115,-63,244,-88,373,-88v252,0,471,176,471,418v0,219,-208,399,-390,555v-129,113,-248,244,-299,404r689,0r0,145r-881,0r0,-160"},"3":{"d":"670,-796v306,53,329,306,329,376v0,280,-198,457,-467,457v-125,0,-251,-15,-368,-62r0,-168v119,49,241,84,368,84v165,0,273,-125,273,-311v0,-76,-25,-149,-84,-196v-82,-63,-185,-97,-287,-97r-100,0r0,-145r100,0v174,0,334,-108,334,-270v0,-114,-48,-248,-236,-248v-115,0,-225,30,-331,73r0,-165v104,-41,218,-54,331,-54v273,0,431,162,431,394v0,166,-127,278,-293,332"},"4":{"d":"897,0r-195,0r0,-446r-682,0r0,-146r682,-893r195,0r0,893r137,0r0,146r-137,0r0,446xm215,-592r487,0r0,-638"},"5":{"d":"358,-936v536,15,641,292,641,487v0,194,-101,486,-616,486v-76,0,-151,-4,-223,-33r0,-164v72,29,145,51,223,51v224,0,422,-68,422,-340v0,-109,-43,-217,-137,-270v-111,-61,-244,-73,-378,-73v-31,0,-62,0,-93,1r0,-694r766,0r0,146r-605,0r0,403"},"6":{"d":"563,-109v225,0,287,-160,287,-352v0,-96,-21,-192,-80,-268v-43,-51,-102,-88,-168,-88v-176,0,-319,139,-319,315v0,199,100,393,280,393xm602,-950v257,0,442,179,442,489v0,398,-264,498,-481,498v-152,0,-290,-80,-366,-211v-100,-170,-115,-372,-115,-569v0,-203,26,-412,149,-574v104,-137,275,-205,447,-205v94,0,188,17,270,62r0,164v-84,-47,-174,-80,-270,-80v-161,0,-390,94,-402,575v78,-92,195,-149,326,-149"},"7":{"d":"889,-1311r-807,0r0,-174r962,0r0,174v-131,172,-234,363,-331,555v-120,238,-199,494,-244,756r-197,0v51,-287,163,-557,293,-815v89,-176,205,-338,324,-496"},"8":{"d":"811,-1176v0,-129,-115,-229,-248,-229v-133,0,-248,100,-248,229v0,147,156,226,299,277v115,-47,197,-152,197,-277xm850,-383v0,-182,-161,-311,-338,-375v-145,57,-236,211,-236,375v0,166,125,303,287,303v162,0,287,-137,287,-303xm1044,-383v0,244,-225,420,-481,420v-256,0,-481,-176,-481,-420v0,-195,142,-350,326,-422v-150,-80,-267,-205,-267,-371v0,-207,201,-346,422,-346v221,0,422,139,422,346v0,154,-119,267,-266,324v186,98,325,264,325,469"},"9":{"d":"563,-1376v-225,0,-287,160,-287,352v0,96,21,192,80,268v43,51,102,88,168,88v176,0,320,-139,320,-315v0,-199,-101,-393,-281,-393xm82,-1024v0,-398,264,-498,481,-498v152,0,291,80,367,211v100,170,114,373,114,568v0,205,-26,413,-149,575v-104,137,-274,205,-446,205v-94,0,-189,-17,-271,-62r0,-163v84,47,175,79,271,79v161,0,389,-94,401,-575v-78,92,-195,149,-326,149v-257,0,-442,-179,-442,-489"},":":{"d":"356,-891r-192,0r0,-194r192,0r0,194xm356,0r-192,0r0,-195r192,0r0,195","w":522},";":{"d":"356,-891r-192,0r0,-194r192,0r0,194xm356,-66r-145,357r-121,0r74,-357r0,-129r192,0r0,129","w":522},"<":{"d":"1040,-113r-958,-460r0,-62r958,-461r0,166r-663,326r663,325r0,166","w":1120},"=":{"d":"1094,-385r-1012,0r0,-145r1012,0r0,145xm1094,-678r-1012,0r0,-145r1012,0r0,145","w":1177},">":{"d":"1040,-573r-958,460r0,-166r663,-325r-663,-326r0,-166r958,461r0,62","w":1120},"?":{"d":"584,0r-195,0r0,-195r195,0r0,195xm1044,-1165v0,250,-314,307,-421,489v-35,59,-39,121,-39,180r0,97r-195,0r0,-97v0,-80,18,-158,53,-217v109,-184,408,-221,408,-432v0,-154,-158,-227,-332,-227v-129,0,-270,40,-399,108r0,-159v127,-66,270,-95,399,-95v274,0,526,130,526,353"},"@":{"d":"1159,-1063v-14,-112,-72,-285,-360,-285v-336,0,-539,234,-539,740v0,506,202,737,528,737v70,0,126,-11,181,-23r0,127v-53,14,-111,19,-162,19v-416,0,-709,-248,-709,-862v0,-612,293,-858,707,-858v160,0,295,36,389,120v133,119,133,293,133,467r0,748r-162,0r0,-106v-66,63,-147,106,-241,106v-160,0,-328,-123,-328,-455v0,-427,287,-497,436,-497v47,0,89,7,127,22xm1165,-974v-26,-10,-55,-15,-84,-15v-61,0,-139,24,-196,71v-72,57,-113,152,-113,304v0,244,104,335,219,335v66,0,128,-31,174,-82r0,-548r0,-65","w":1505},"A":{"d":"1327,0r-205,0r-155,-414r-625,0r-152,414r-170,0r543,-1485r205,0xm909,-567r-260,-689r-251,689r511,0","w":1347},"B":{"d":"794,-781v274,61,382,242,382,404v0,113,-46,209,-134,275v-136,102,-324,102,-510,102r-368,0r0,-1485r358,0v170,0,340,1,467,99v96,76,135,180,135,272v0,133,-93,280,-330,333xm369,-705r0,551r219,0v111,0,223,0,303,-61v53,-39,80,-96,80,-170v0,-88,-42,-167,-107,-225v-107,-94,-239,-95,-372,-95r-123,0xm369,-858r137,0v117,0,231,0,323,-76v55,-43,91,-106,91,-178v0,-55,-23,-117,-78,-162v-72,-57,-171,-57,-269,-57r-204,0r0,473","w":1259},"C":{"d":"72,-741v0,-487,263,-781,690,-781v143,0,299,33,446,88r0,174v-150,-57,-301,-108,-446,-108v-129,0,-240,39,-322,125v-122,127,-143,320,-143,502v0,180,21,372,143,499v82,86,193,125,310,125v164,0,313,-79,458,-159r0,190v-141,80,-298,123,-454,123v-413,0,-682,-292,-682,-778","w":1290},"D":{"d":"1122,-748v0,-152,-45,-306,-125,-417v-121,-166,-267,-166,-417,-166r-211,0r0,1177r147,0v166,0,332,0,467,-168v88,-111,139,-264,139,-426xm1327,-745v0,207,-76,393,-199,528v-199,217,-440,217,-684,217r-280,0r0,-1485r342,0v225,0,453,0,635,217v117,135,186,322,186,523","w":1406},"E":{"d":"1167,0r-1003,0r0,-1485r979,0r0,154r-774,0r0,459r624,0r0,153r-624,0r0,565r798,0r0,154","w":1224},"F":{"d":"1110,-1331r-741,0r0,459r598,0r0,153r-598,0r0,719r-205,0r0,-1485r946,0r0,154","w":1191},"G":{"d":"72,-741v0,-492,285,-781,721,-781v154,0,317,35,473,90r0,170v-158,-55,-319,-106,-473,-106v-135,0,-254,39,-342,125v-129,127,-154,318,-154,502v0,182,25,372,154,499v88,86,206,125,335,125v88,0,183,-18,275,-45r0,-391r-191,0r0,-154r396,0r0,648v-158,53,-320,96,-482,96v-429,0,-712,-294,-712,-778","w":1345},"H":{"d":"1290,0r-205,0r0,-666r-716,0r0,666r-205,0r0,-1485r205,0r0,666r716,0r0,-666r205,0r0,1485","w":1454},"I":{"d":"369,0r-205,0r0,-1485r205,0r0,1485","w":532},"J":{"d":"770,-555v0,176,-1,352,-115,471v-74,77,-182,121,-338,121v-96,0,-199,-16,-297,-49r0,-170v90,31,191,65,283,65v86,0,152,-29,195,-80v67,-80,67,-196,67,-315r0,-973r205,0r0,930","w":933},"K":{"d":"1212,0r-204,0r-559,-668r-80,90r0,578r-205,0r0,-1485r205,0r0,664r596,-664r217,0r-626,698","w":1259},"L":{"d":"1102,0r-938,0r0,-1485r205,0r0,1331r733,0r0,154","w":1122},"M":{"d":"1540,0r-205,0r0,-1255r-389,1151r-205,0r-407,-1150r0,1254r-170,0r0,-1485r293,0r402,1135r384,-1135r297,0r0,1485","w":1701},"N":{"d":"334,0r-170,0r0,-1485r205,0r751,1211r0,-1211r170,0r0,1485r-205,0r-751,-1211r0,1211","w":1454},"O":{"d":"1276,-743v0,-182,-27,-373,-156,-502v-88,-84,-211,-123,-334,-123v-123,0,-245,39,-333,123v-129,129,-156,320,-156,502v0,184,27,374,156,503v88,84,210,123,333,123v123,0,246,-39,334,-123v129,-129,156,-319,156,-503xm786,-1522v429,0,715,297,715,779v0,489,-290,780,-715,780v-432,0,-714,-298,-714,-780v0,-482,285,-779,714,-779","w":1570},"P":{"d":"1233,-1063v0,119,-44,252,-152,346v-143,125,-330,125,-518,125r-194,0r0,592r-205,0r0,-1485r397,0v195,0,389,1,529,111v102,80,143,196,143,311xm369,-745r247,0v115,0,232,0,320,-84v67,-64,92,-156,92,-230v0,-76,-25,-150,-88,-203v-86,-70,-205,-69,-326,-69r-245,0r0,586","w":1294},"Q":{"d":"1092,-215v145,-114,184,-316,184,-528v0,-182,-27,-373,-156,-502v-88,-84,-211,-123,-334,-123v-123,0,-245,39,-333,123v-129,129,-156,320,-156,502v0,184,27,374,156,503v88,84,210,123,333,123v59,0,118,-9,173,-27v-71,-127,-162,-198,-271,-227r39,-149v184,50,317,198,365,305xm786,-1522v429,0,715,297,715,779v0,306,-117,558,-337,685v85,147,197,222,327,222r0,153v-223,0,-402,-164,-467,-314v-76,23,-157,34,-238,34v-432,0,-714,-298,-714,-780v0,-482,285,-779,714,-779","w":1570},"R":{"d":"1163,-1051v0,88,-19,369,-374,439r493,612r-238,0r-479,-592v-35,1,-69,0,-104,0r-92,0r0,592r-205,0r0,-1485r346,0v190,0,379,0,514,113v100,84,139,202,139,321xm369,-745r145,0v129,0,258,0,350,-80v69,-60,94,-144,94,-226v0,-76,-23,-154,-84,-209v-82,-72,-196,-71,-311,-71r-194,0r0,586","w":1288},"S":{"d":"1151,-408v0,291,-258,445,-573,445v-147,0,-334,-33,-496,-123r0,-190v166,92,346,159,522,159v174,0,342,-67,342,-241v0,-143,-113,-225,-338,-297r-92,-31v-339,-113,-434,-211,-434,-391v0,-299,260,-445,549,-445v133,0,281,33,418,88r0,174v-139,-55,-283,-108,-435,-108v-158,0,-327,57,-327,233v0,135,100,172,342,252r94,29v311,102,428,251,428,446","w":1232},"T":{"d":"1184,-1331r-479,0r0,1331r-205,0r0,-1331r-480,0r0,-154r1164,0r0,154","w":1202},"U":{"d":"1290,-567v0,176,0,352,-145,475v-109,94,-264,129,-418,129v-154,0,-309,-35,-418,-127v-145,-125,-145,-301,-145,-477r0,-918r205,0r0,955v0,119,0,239,94,325v68,61,166,88,264,88v98,0,196,-27,266,-88v92,-86,92,-206,92,-325r0,-955r205,0r0,918","w":1454},"V":{"d":"688,-233r449,-1252r170,0r-533,1485r-205,0r-549,-1485r205,0","w":1327},"W":{"d":"1896,-1485r-354,1485r-254,0r-335,-1173r-304,1173r-258,0r-371,-1485r205,0r314,1256r325,-1256r205,0r358,1254r299,-1254r170,0","w":1916},"X":{"d":"1321,0r-234,0r-432,-600r-446,600r-207,0r553,-739r-539,-746r234,0r422,586r436,-586r205,0r-539,725","w":1327},"Y":{"d":"764,0r-205,0r0,-594r-539,-891r205,0r453,748r438,-748r170,0r-522,891r0,594","w":1306},"Z":{"d":"1176,0r-1094,0r0,-190r884,-1141r-851,0r0,-154r1061,0r0,191r-885,1140r885,0r0,154","w":1255},"[":{"d":"528,264r-446,0r0,-1818r446,0r0,147r-252,0r0,1524r252,0r0,147","w":548},"\\":{"d":"571,264r-165,0r-408,-1818r166,0","w":569},"]":{"d":"467,-1554r0,1818r-447,0r0,-147r252,0r0,-1524r-252,0r0,-147r447,0","w":548},"^":{"d":"1026,-741r-182,0r-318,-576r-317,576r-182,0r409,-740r180,0","w":1054},"_":{"d":"1024,145r-1024,0r0,-145r1024,0r0,145","w":1024},"`":{"d":"348,-1214r-121,2r-147,-269r0,-96r194,-2r0,98","w":454},"a":{"d":"543,-1110v391,0,393,214,393,428r0,682r-195,0r0,-143v-99,98,-220,168,-356,168v-182,0,-299,-125,-299,-299v0,-123,60,-205,150,-261v138,-85,317,-96,505,-98r0,-82v0,-132,-6,-250,-225,-250v-119,0,-241,31,-358,80r0,-149v123,-53,254,-76,385,-76xm741,-279r0,-237v-134,0,-265,3,-362,63v-59,39,-98,94,-98,168v0,98,68,164,174,164v111,0,204,-69,286,-158","w":1069},"b":{"d":"1034,-621v0,299,-114,646,-569,646v-84,0,-205,-11,-311,-60r0,-1542r194,0r0,644v79,-106,194,-177,334,-177v158,0,352,90,352,489xm473,-121v277,0,346,-229,346,-473v0,-285,-90,-371,-207,-371v-119,0,-218,87,-264,201r0,628v41,10,83,15,125,15","w":1110},"c":{"d":"281,-543v0,259,101,422,331,422v102,0,215,-32,326,-65r0,157v-111,33,-226,54,-326,54v-325,0,-526,-200,-526,-568v0,-368,199,-567,528,-567v98,0,213,16,324,45r0,154v-111,-27,-226,-54,-322,-54v-234,0,-335,161,-335,422","w":1021},"d":{"d":"76,-510v0,-480,307,-600,569,-600v32,0,73,1,117,7r0,-474r194,0r0,1577r-194,0r0,-134v-71,95,-176,159,-299,159v-182,0,-387,-138,-387,-535xm643,-965v-211,0,-352,123,-352,441v0,285,108,403,239,403v108,0,195,-82,232,-189r0,-640v-38,-9,-78,-15,-119,-15","w":1110},"e":{"d":"301,-666r508,0v-16,-199,-111,-299,-240,-299v-123,0,-234,91,-268,299xm291,-520v2,314,140,399,350,399v102,0,223,-18,342,-53r0,145v-119,35,-239,54,-350,54v-162,0,-298,-40,-400,-140v-88,-84,-157,-219,-157,-436v0,-424,268,-559,483,-559v222,0,449,140,449,517v0,23,0,48,-2,73r-715,0","w":1093},"f":{"d":"195,-1085v5,-338,67,-517,348,-517v70,0,123,13,174,29r0,150v-45,-14,-97,-33,-152,-33v-174,0,-176,176,-176,371r195,0r0,145r-195,0r0,940r-194,0r0,-940r-146,0r0,-145r146,0","w":696},"g":{"d":"516,-473v191,0,227,-110,227,-246v0,-141,-45,-246,-227,-246v-199,0,-225,133,-225,246v0,141,41,246,225,246xm76,-719v0,-159,107,-391,440,-391v81,0,161,13,232,48v68,-73,157,-122,258,-122r0,148v-59,0,-118,11,-167,37v76,73,117,175,117,280v0,183,-127,393,-440,393v-48,0,-96,-5,-142,-17v-22,21,-36,48,-36,75v0,76,88,95,201,118r190,37v121,24,295,65,295,246v0,212,-271,265,-540,265v-95,0,-250,-8,-398,-48r0,-170v170,47,344,70,500,70v128,0,246,-16,246,-102v0,-83,-122,-99,-156,-105r-193,-37v-116,-22,-302,-62,-302,-233v0,-63,30,-121,78,-163v-121,-72,-183,-203,-183,-329","w":1054},"h":{"d":"811,-711v0,-142,-5,-254,-152,-254v-134,0,-240,98,-311,223r0,742r-194,0r0,-1577r194,0r0,664v99,-118,230,-197,385,-197v275,0,273,248,273,436r0,674r-195,0r0,-711","w":1157},"i":{"d":"348,-1290r-194,0r0,-195r194,0r0,195xm348,0r-194,0r0,-1085r194,0r0,1085","w":501},"j":{"d":"346,-1290r-194,0r0,-195r194,0r0,195xm2,274v150,0,150,-142,150,-299r0,-1060r194,0r0,1003v0,262,0,502,-315,502v-76,0,-132,-15,-185,-33r0,-151v47,18,101,38,156,38","w":501},"k":{"d":"977,0r-197,0r-370,-465r-62,73r0,392r-194,0r0,-1577r194,0r0,944r375,-452r203,0r-401,481","w":1007},"l":{"d":"348,0r-194,0r0,-1577r194,0r0,1577","w":501},"m":{"d":"1352,-709v0,-118,-1,-256,-152,-256v-115,0,-200,84,-253,192v1,33,1,67,1,101r0,672r-192,0r0,-709v0,-76,0,-151,-39,-204v-29,-37,-70,-52,-115,-52v-115,0,-200,83,-254,192r0,773r-194,0r0,-1085r194,0r0,131v82,-95,192,-156,322,-156v106,0,214,40,256,183v84,-110,201,-183,342,-183v284,0,278,268,278,438r0,672r-194,0r0,-709","w":1699},"n":{"d":"811,-711v0,-142,-5,-254,-152,-254v-134,0,-240,98,-311,223r0,742r-194,0r0,-1085r194,0r0,172v99,-118,230,-197,385,-197v275,0,273,248,273,436r0,674r-195,0r0,-711","w":1157},"o":{"d":"852,-543v0,-123,-8,-254,-94,-344v-47,-51,-117,-78,-187,-78v-70,0,-139,27,-186,78v-86,90,-94,221,-94,344v0,123,8,254,94,344v47,51,116,78,186,78v70,0,140,-27,187,-78v86,-90,94,-221,94,-344xm571,-1110v297,0,496,222,496,567v0,343,-196,568,-496,568v-297,0,-495,-223,-495,-568v0,-343,195,-567,495,-567","w":1144},"p":{"d":"1034,-621v0,299,-114,646,-569,646v-34,0,-74,-2,-117,-7r0,377r-194,0r0,-1480r194,0r0,152v79,-106,194,-177,334,-177v158,0,352,90,352,489xm473,-121v277,0,346,-229,346,-473v0,-285,-90,-371,-207,-371v-119,0,-218,87,-264,201r0,628v41,10,83,15,125,15","w":1110},"q":{"d":"76,-510v0,-480,307,-600,569,-600v78,0,200,10,311,59r0,1446r-194,0r0,-529v-71,95,-176,159,-299,159v-182,0,-387,-138,-387,-535xm643,-965v-211,0,-352,123,-352,441v0,285,108,403,239,403v108,0,195,-82,232,-189r0,-640v-38,-9,-78,-15,-119,-15","w":1110},"r":{"d":"815,-922v-39,-8,-78,-14,-115,-14v-167,0,-302,112,-352,264r0,672r-194,0r0,-1085r194,0r0,206v76,-137,202,-231,371,-231v18,0,57,0,96,8r0,180","w":839},"s":{"d":"909,-326v0,207,-178,351,-452,351v-68,0,-209,-7,-336,-64r0,-158v127,55,266,76,356,76v147,0,238,-64,238,-164v0,-102,-96,-137,-178,-164r-156,-51v-143,-45,-260,-152,-260,-297v0,-188,195,-313,426,-313v84,0,189,16,291,45r0,156v-102,-29,-205,-56,-297,-56v-119,0,-228,44,-228,136v0,84,94,116,174,143r158,51v139,45,264,135,264,309","w":993},"t":{"d":"389,-354v0,129,3,233,131,233v39,0,96,-8,139,-16r0,145v-63,10,-127,17,-182,17v-274,0,-282,-158,-282,-416r0,-549r-146,0r0,-145r146,0r0,-246r194,0r0,246r270,0r0,145r-270,0r0,586","w":684},"u":{"d":"348,-379v0,127,2,258,154,258v132,0,238,-97,309,-222r0,-742r195,0r0,1085r-195,0r0,-172v-99,117,-228,197,-379,197v-284,0,-278,-270,-278,-441r0,-669r194,0r0,706","w":1157},"v":{"d":"530,-226r299,-859r162,0r-379,1085r-194,0r-398,-1085r195,0","w":1013},"w":{"d":"1454,-1085r-270,1085r-223,0r-212,-790r-221,790r-215,0r-293,-1085r175,0r234,868r241,-868r174,0r232,867r216,-867r162,0","w":1474},"x":{"d":"991,0r-194,0r-303,-428r-297,428r-191,0r392,-563r-369,-522r194,0r295,416r289,-416r190,0r-384,551","w":1013},"y":{"d":"991,-1085r-518,1480r-162,0r121,-344r-412,-1136r195,0r315,855r299,-855r162,0","w":1013},"z":{"d":"938,0r-852,0r0,-164r639,-776r-614,0r0,-145r827,0r0,163r-639,777r639,0r0,145","w":1021},"{":{"d":"231,-645v49,39,107,116,107,168r0,418v0,96,74,176,170,176r61,0r0,147r-61,0v-182,0,-330,-145,-330,-323r0,-406v-29,-63,-88,-106,-158,-106r0,-148v70,0,129,-43,158,-106r0,-406v0,-178,148,-323,330,-323r61,0r0,147r-61,0v-96,0,-170,80,-170,176r0,418v0,50,-55,127,-107,168","w":587},"|":{"d":"324,264r-160,0r0,-1818r160,0r0,1818","w":487},"}":{"d":"358,-645v-49,-39,-106,-116,-106,-168r0,-418v0,-96,-74,-176,-170,-176r-62,0r0,-147r62,0v182,0,330,145,330,323r0,406v29,63,87,106,157,106r0,148v-70,0,-128,43,-157,106r0,406v0,178,-148,323,-330,323r-62,0r0,-147r62,0v96,0,170,-80,170,-176r0,-418v0,-50,54,-127,106,-168","w":587},"~":{"d":"367,-786v194,0,296,219,430,219v86,0,102,-99,102,-183r195,0v0,178,-125,328,-285,328v-194,0,-296,-219,-430,-219v-86,0,-103,98,-103,182r-194,0v0,-178,125,-327,285,-327","w":1177},"\u00c1":{"d":"881,-1958r-234,328r-117,0r156,-328r195,0xm1327,0r-205,0r-155,-414r-625,0r-152,414r-170,0r543,-1485r205,0xm909,-567r-260,-689r-251,689r511,0","w":1347},"\u00c9":{"d":"887,-1958r-234,328r-116,0r155,-328r195,0xm1167,0r-1003,0r0,-1485r979,0r0,154r-774,0r0,459r624,0r0,153r-624,0r0,565r798,0r0,154","w":1224},"\u00cd":{"d":"500,-1958r-234,328r-116,0r155,-328r195,0xm369,0r-205,0r0,-1485r205,0r0,1485","w":532},"\u00d3":{"d":"1020,-1958r-234,328r-116,0r155,-328r195,0xm1276,-743v0,-182,-27,-373,-156,-502v-88,-84,-211,-123,-334,-123v-123,0,-245,39,-333,123v-129,129,-156,320,-156,502v0,184,27,374,156,503v88,84,210,123,333,123v123,0,246,-39,334,-123v129,-129,156,-319,156,-503xm786,-1522v429,0,715,297,715,779v0,489,-290,780,-715,780v-432,0,-714,-298,-714,-780v0,-482,285,-779,714,-779","w":1570},"\u00d6":{"d":"1077,-1690r-194,0r0,-194r194,0r0,194xm690,-1690r-194,0r0,-194r194,0r0,194xm1276,-743v0,-182,-27,-373,-156,-502v-88,-84,-211,-123,-334,-123v-123,0,-245,39,-333,123v-129,129,-156,320,-156,502v0,184,27,374,156,503v88,84,210,123,333,123v123,0,246,-39,334,-123v129,-129,156,-319,156,-503xm786,-1522v429,0,715,297,715,779v0,489,-290,780,-715,780v-432,0,-714,-298,-714,-780v0,-482,285,-779,714,-779","w":1570},"\u00da":{"d":"961,-1958r-234,328r-117,0r156,-328r195,0xm1290,-567v0,176,0,352,-145,475v-109,94,-264,129,-418,129v-154,0,-309,-35,-418,-127v-145,-125,-145,-301,-145,-477r0,-918r205,0r0,955v0,119,0,239,94,325v68,61,166,88,264,88v98,0,196,-27,266,-88v92,-86,92,-206,92,-325r0,-955r205,0r0,918","w":1454},"\u00dc":{"d":"1018,-1690r-195,0r0,-194r195,0r0,194xm631,-1690r-195,0r0,-194r195,0r0,194xm1290,-567v0,176,0,352,-145,475v-109,94,-264,129,-418,129v-154,0,-309,-35,-418,-127v-145,-125,-145,-301,-145,-477r0,-918r205,0r0,955v0,119,0,239,94,325v68,61,166,88,264,88v98,0,196,-27,266,-88v92,-86,92,-206,92,-325r0,-955r205,0r0,918","w":1454},"\u00e1":{"d":"766,-1559r-234,328r-116,0r155,-328r195,0xm543,-1110v391,0,393,214,393,428r0,682r-195,0r0,-143v-99,98,-220,168,-356,168v-182,0,-299,-125,-299,-299v0,-123,60,-205,150,-261v138,-85,317,-96,505,-98r0,-82v0,-132,-6,-250,-225,-250v-119,0,-241,31,-358,80r0,-149v123,-53,254,-76,385,-76xm741,-279r0,-237v-134,0,-265,3,-362,63v-59,39,-98,94,-98,168v0,98,68,164,174,164v111,0,204,-69,286,-158","w":1069},"\u00e9":{"d":"817,-1559r-233,328r-117,0r156,-328r194,0xm301,-666r508,0v-16,-199,-111,-299,-240,-299v-123,0,-234,91,-268,299xm291,-520v2,314,140,399,350,399v102,0,223,-18,342,-53r0,145v-119,35,-239,54,-350,54v-162,0,-298,-40,-400,-140v-88,-84,-157,-219,-157,-436v0,-424,268,-559,483,-559v222,0,449,140,449,517v0,23,0,48,-2,73r-715,0","w":1093},"\u00ed":{"d":"483,-1559r-233,328r-117,0r156,-328r194,0xm348,0r-194,0r0,-1085r194,0r0,1085","w":501},"\u00f3":{"d":"805,-1559r-234,328r-116,0r155,-328r195,0xm852,-543v0,-123,-8,-254,-94,-344v-47,-51,-117,-78,-187,-78v-70,0,-139,27,-186,78v-86,90,-94,221,-94,344v0,123,8,254,94,344v47,51,116,78,186,78v70,0,140,-27,187,-78v86,-90,94,-221,94,-344xm571,-1110v297,0,496,222,496,567v0,343,-196,568,-496,568v-297,0,-495,-223,-495,-568v0,-343,195,-567,495,-567","w":1144},"\u00f6":{"d":"862,-1290r-194,0r0,-195r194,0r0,195xm475,-1290r-194,0r0,-195r194,0r0,195xm852,-543v0,-123,-8,-254,-94,-344v-47,-51,-117,-78,-187,-78v-70,0,-139,27,-186,78v-86,90,-94,221,-94,344v0,123,8,254,94,344v47,51,116,78,186,78v70,0,140,-27,187,-78v86,-90,94,-221,94,-344xm571,-1110v297,0,496,222,496,567v0,343,-196,568,-496,568v-297,0,-495,-223,-495,-568v0,-343,195,-567,495,-567","w":1144},"\u00fa":{"d":"813,-1559r-233,328r-117,0r155,-328r195,0xm348,-379v0,127,2,258,154,258v132,0,238,-97,309,-222r0,-742r195,0r0,1085r-195,0r0,-172v-99,117,-228,197,-379,197v-284,0,-278,-270,-278,-441r0,-669r194,0r0,706","w":1157},"\u00fc":{"d":"870,-1290r-194,0r0,-195r194,0r0,195xm483,-1290r-194,0r0,-195r194,0r0,195xm348,-379v0,127,2,258,154,258v132,0,238,-97,309,-222r0,-742r195,0r0,1085r-195,0r0,-172v-99,117,-228,197,-379,197v-284,0,-278,-270,-278,-441r0,-669r194,0r0,706","w":1157},"\u0150":{"d":"836,-1958r-234,328r-117,0r156,-328r195,0xm1176,-1958r-234,328r-117,0r156,-328r195,0xm1276,-743v0,-182,-27,-373,-156,-502v-88,-84,-211,-123,-334,-123v-123,0,-245,39,-333,123v-129,129,-156,320,-156,502v0,184,27,374,156,503v88,84,210,123,333,123v123,0,246,-39,334,-123v129,-129,156,-319,156,-503xm786,-1522v429,0,715,297,715,779v0,489,-290,780,-715,780v-432,0,-714,-298,-714,-780v0,-482,285,-779,714,-779","w":1570},"\u0151":{"d":"621,-1559r-234,328r-117,0r156,-328r195,0xm961,-1559r-234,328r-117,0r156,-328r195,0xm852,-543v0,-123,-8,-254,-94,-344v-47,-51,-117,-78,-187,-78v-70,0,-139,27,-186,78v-86,90,-94,221,-94,344v0,123,8,254,94,344v47,51,116,78,186,78v70,0,140,-27,187,-78v86,-90,94,-221,94,-344xm571,-1110v297,0,496,222,496,567v0,343,-196,568,-496,568v-297,0,-495,-223,-495,-568v0,-343,195,-567,495,-567","w":1144},"\u0170":{"d":"776,-1958r-233,328r-117,0r156,-328r194,0xm1116,-1958r-233,328r-117,0r156,-328r194,0xm1290,-567v0,176,0,352,-145,475v-109,94,-264,129,-418,129v-154,0,-309,-35,-418,-127v-145,-125,-145,-301,-145,-477r0,-918r205,0r0,955v0,119,0,239,94,325v68,61,166,88,264,88v98,0,196,-27,266,-88v92,-86,92,-206,92,-325r0,-955r205,0r0,918","w":1454},"\u0171":{"d":"627,-1559r-234,328r-117,0r156,-328r195,0xm967,-1559r-234,328r-117,0r156,-328r195,0xm348,-379v0,127,2,258,154,258v132,0,238,-97,309,-222r0,-742r195,0r0,1085r-195,0r0,-172v-99,117,-228,197,-379,197v-284,0,-278,-270,-278,-441r0,-669r194,0r0,706","w":1157},"\u00a0":{"w":512}}});
