/*!
 * The following copyright notice may not be removed under any circumstances.
 * 
 * Copyright:
 * Copyright (c) 2011, Sol Matas (www.huertatipografica.com.ar), with Reserved
 * Font Name "Bitter"
 * 
 * Trademark:
 * Bitter is a trademark of Sol Matas (www.huertatipografica.com.ar).
 * 
 * Manufacturer:
 * Sol Matas
 * 
 * Designer:
 * Sol Matas
 * 
 * Vendor URL:
 * www.huertatipografica.com.ar
 * 
 * License information:
 * http://scripts.sil.org/OFL
 */
Cufon.registerFont({"w":1167,"face":{"font-family":"Bitter","font-weight":400,"font-stretch":"normal","units-per-em":"2048","panose-1":"2 0 0 0 0 0 0 0 0 0","ascent":"1638","descent":"-410","x-height":"20","bbox":"-82 -1915 2109 512","underline-thickness":"102.4","underline-position":"-102.4","unicode-range":"U+0020-U+00FC"},"glyphs":{" ":{"w":471},"!":{"d":"451,-1536r-31,1024r-174,10r-31,-1034r236,0xm230,-17v-24,-25,-35,-61,-35,-105v0,-44,12,-79,37,-105v25,-26,58,-39,98,-39v40,0,71,13,95,38v24,25,36,60,36,104v0,44,-13,80,-38,106v-25,26,-57,38,-97,38v-40,0,-72,-12,-96,-37","w":655},"\"":{"d":"682,-1577r-43,512r-154,0r0,-512r197,0xm328,-1577r-41,512r-154,0r0,-512r195,0","w":794},"#":{"d":"184,-778r0,-133r244,0r43,-318r164,0r-43,318r297,0r43,-318r164,0r-43,318r227,0r0,133r-246,0r-39,297r234,0r0,133r-252,0r-45,348r-164,0r45,-348r-297,0r-45,348r-164,0r45,-348r-219,0r0,-133r238,0r39,-297r-226,0xm573,-778r-38,297r296,0r39,-297r-297,0","w":1413},"$":{"d":"645,287r-153,0r0,-267v-57,-1,-117,-7,-177,-19v-60,-12,-105,-23,-135,-34r-47,-18r0,-328r143,0r41,189v49,27,114,40,194,40v80,0,148,-16,205,-48v57,-32,85,-79,85,-140v0,-44,-16,-82,-49,-113v-33,-31,-74,-55,-122,-71v-48,-16,-101,-36,-158,-59v-57,-23,-110,-45,-158,-70v-48,-25,-88,-62,-121,-112v-33,-50,-50,-109,-50,-179v0,-104,33,-186,98,-245v65,-59,149,-96,251,-111r0,-238r153,0r0,231v104,8,198,29,283,60r45,16r-10,307r-123,0r-52,-184v-61,-27,-128,-41,-201,-41v-73,0,-131,17,-174,50v-43,33,-65,75,-65,125v0,50,23,92,68,127v45,35,100,63,164,85v64,22,128,46,192,72v64,26,119,65,164,117v45,52,68,116,68,192v0,108,-34,194,-100,260v-66,66,-153,108,-259,127r0,279","w":1116},"%":{"d":"317,0r830,-1434r184,0r-829,1434r-185,0xm178,-823v-57,-57,-86,-144,-86,-260v0,-116,31,-207,94,-273v63,-66,143,-98,241,-98v98,0,175,30,233,89v58,59,88,147,88,263v0,116,-32,206,-94,269v-62,63,-142,96,-241,96v-99,0,-178,-29,-235,-86xm246,-1096v0,150,58,226,174,226v116,0,174,-76,174,-226v0,-150,-58,-225,-174,-225v-116,0,-174,75,-174,225xm987,-66v-57,-57,-86,-144,-86,-260v0,-116,31,-206,94,-272v63,-66,143,-98,241,-98v98,0,175,30,233,89v58,59,87,147,87,263v0,116,-31,206,-93,269v-62,63,-142,95,-241,95v-99,0,-178,-29,-235,-86xm1055,-338v0,150,58,225,174,225v116,0,174,-75,174,-225v0,-150,-58,-225,-174,-225v-116,0,-174,75,-174,225","w":1669},"&":{"d":"1126,-676r0,246v0,142,-45,253,-134,332v-89,79,-213,118,-372,118v-159,0,-279,-37,-358,-112v-79,-75,-119,-177,-119,-307v0,-46,10,-91,29,-133v19,-42,43,-78,70,-107v53,-57,103,-98,149,-123r29,-16v-19,-4,-45,-16,-77,-34v-32,-18,-59,-38,-80,-59v-21,-21,-40,-52,-58,-90v-18,-38,-27,-79,-27,-124v0,-123,42,-216,126,-277v84,-61,201,-92,351,-92v53,0,113,6,178,20v65,14,116,27,154,41r57,21r-10,287r-131,0r-43,-164v-55,-20,-126,-31,-214,-31v-88,0,-152,18,-194,55v-42,37,-63,89,-63,155v0,66,26,121,78,165v52,44,114,65,188,65r635,0r0,123xm922,-420r0,-256r-277,0v-78,0,-145,26,-202,77v-57,51,-85,117,-85,197v0,80,25,141,76,184v51,43,120,64,209,64v89,0,158,-22,206,-68v48,-46,73,-112,73,-198","w":1372},"'":{"d":"328,-1577r-41,512r-154,0r0,-512r195,0","w":440},"(":{"d":"492,-1577r184,0v-98,150,-177,313,-234,488v-57,175,-86,349,-86,519v0,170,28,350,84,542v56,192,134,358,234,499r-182,0v-119,-165,-206,-330,-260,-494v-54,-164,-80,-344,-80,-542v0,-198,26,-374,80,-526v54,-152,141,-314,260,-486","w":675},")":{"d":"-2,-1577r184,0v119,172,205,334,259,486v54,152,81,328,81,526v0,198,-27,378,-81,542v-54,164,-140,329,-259,494r-182,0v100,-141,177,-307,233,-499v56,-192,84,-372,84,-542v0,-170,-29,-344,-86,-519v-57,-175,-135,-338,-233,-488","w":675},"*":{"d":"401,-1200r-53,-47r-26,-254r149,-4r-14,260r235,-101r51,144r-256,59r172,203r-118,90r-142,-231r19,-70r69,8r-59,-39r29,-63xm348,-1247r27,65r-62,35r72,-4r14,70r-133,231r-123,-86r170,-211r-262,-51r49,-143","w":825},"+":{"d":"102,-461r0,-164r447,0r0,-460r174,0r0,460r444,0r0,164r-444,0r0,461r-174,0r0,-461r-447,0","w":1269},",":{"d":"167,-43v-16,-31,-24,-63,-24,-96v0,-33,12,-62,37,-88v25,-26,56,-39,96,-39v89,0,134,50,134,151v0,119,-79,262,-236,430r-92,-77v72,-96,108,-169,108,-218v0,-11,-7,-32,-23,-63","w":542},"-":{"d":"123,-471r0,-174r532,0r0,174r-532,0","w":768},".":{"d":"169,-17v-24,-25,-36,-61,-36,-105v0,-44,13,-79,38,-105v25,-26,57,-39,97,-39v40,0,72,13,96,38v24,25,35,60,35,104v0,44,-13,80,-38,106v-25,26,-57,38,-97,38v-40,0,-71,-12,-95,-37","w":532},"\/":{"d":"82,0r678,-1434r215,0r-678,1434r-215,0","w":1036},"0":{"d":"686,-1454v187,0,319,59,396,177v77,118,116,298,116,540v0,505,-177,757,-532,757v-348,0,-523,-245,-523,-737v0,-492,181,-737,543,-737xm906,-1147v-44,-89,-121,-133,-231,-133v-110,0,-189,45,-236,136v-47,91,-70,233,-70,427v0,375,102,563,307,563v105,0,181,-47,227,-141v46,-94,70,-237,70,-430v0,-193,-23,-333,-67,-422","w":1320},"1":{"d":"997,-174r0,174r-837,0r0,-174r315,0r0,-1024r-348,225r-86,-147r477,-314r172,0r0,1260r307,0","w":1048},"2":{"d":"92,0r0,-174v270,-242,456,-421,556,-538v100,-117,151,-227,151,-332v0,-72,-25,-131,-74,-173v-49,-42,-117,-63,-203,-63v-67,0,-129,11,-186,31r-29,10r-20,195r-164,0r-10,-328v150,-55,298,-82,443,-82v145,0,260,30,343,91v83,61,125,158,125,290v0,132,-49,264,-147,394v-98,130,-265,299,-498,505r686,0r0,174r-973,0"},"3":{"d":"287,-829r164,0v94,0,169,-21,224,-63v55,-42,83,-98,83,-169v0,-71,-24,-125,-72,-163v-48,-38,-112,-56,-194,-56v-74,0,-140,11,-197,31r-29,10r-20,184r-164,0r-10,-317v150,-55,296,-82,437,-82v141,0,254,29,338,87v84,58,126,148,126,271v0,183,-89,297,-266,342v91,19,164,59,217,120v53,61,80,130,80,208v0,78,-17,147,-50,208v-33,61,-76,107,-131,140v-106,66,-227,98,-362,98v-79,0,-153,-8,-223,-25v-70,-17,-121,-34,-152,-52r-45,-25r61,-164v116,61,239,92,369,92v94,0,169,-22,224,-68v55,-46,83,-110,83,-191v0,-81,-30,-143,-91,-187v-61,-44,-143,-66,-247,-66r-153,0r0,-163","w":1126},"4":{"d":"41,-492r655,-972r236,30r0,922r235,0r0,174r-235,0r0,338r-211,0r0,-338r-660,0xm721,-1188r-455,676r455,0r0,-676","w":1249},"5":{"d":"926,-1434r-6,174r-578,0r-18,390r65,0v184,0,329,38,435,117v106,79,159,183,159,313v0,97,-26,182,-78,254v-98,138,-243,206,-434,206v-79,0,-154,-8,-226,-25v-72,-17,-124,-34,-155,-52r-49,-25r61,-164v109,61,229,92,359,92v82,0,152,-24,210,-72v58,-48,87,-117,87,-206v0,-89,-38,-157,-112,-204v-74,-47,-177,-71,-308,-71r-215,0r27,-727r776,0","w":1085},"6":{"d":"870,-1454v61,0,113,6,154,20r-10,164v-41,-7,-94,-10,-157,-10v-63,0,-122,10,-176,28v-54,18,-98,42,-133,71v-35,29,-65,63,-91,99v-26,36,-46,72,-60,107v-26,74,-41,130,-45,168r-4,29v33,-25,84,-48,154,-70v70,-22,134,-33,194,-33v124,0,229,39,314,116v85,77,127,184,127,320v0,136,-48,247,-144,334v-96,87,-211,131,-348,131v-172,0,-302,-57,-390,-171v-88,-114,-132,-265,-132,-453v0,-255,63,-461,191,-617v128,-156,313,-233,556,-233xm338,-614r0,61v0,135,29,235,87,301v58,66,130,98,216,98v86,0,154,-24,205,-73v51,-49,76,-117,76,-203v0,-184,-96,-277,-287,-277v-49,0,-99,8,-148,24v-49,16,-85,31,-110,46","w":1228},"7":{"d":"10,-1434r983,0r0,154r-547,1280r-235,0r543,-1249r-549,0r-41,194r-154,0r0,-379","w":1028},"8":{"d":"1085,-1085v0,48,-9,92,-28,132v-19,40,-44,72,-74,97v-53,44,-107,76,-162,96v89,37,158,82,209,136v51,54,76,125,76,214v0,126,-47,229,-141,310v-94,81,-220,120,-377,120v-157,0,-278,-37,-361,-113v-83,-76,-125,-174,-125,-296v0,-53,11,-103,34,-148v23,-45,52,-81,89,-110v66,-53,119,-89,160,-105v-76,-38,-136,-82,-178,-131v-42,-49,-64,-113,-64,-192v0,-124,44,-219,131,-283v87,-64,206,-96,355,-96v149,0,262,33,340,101v78,68,116,157,116,268xm881,-399v0,-100,-73,-180,-219,-240r-99,-39v-157,72,-235,166,-235,279v0,76,24,136,72,179v48,43,117,64,204,64v87,0,156,-21,204,-64v48,-43,73,-103,73,-179xm651,-819v146,-59,219,-144,219,-256v0,-63,-22,-113,-67,-150v-45,-37,-108,-55,-189,-55v-81,0,-143,18,-188,55v-45,37,-68,87,-68,150v0,70,32,124,93,164v55,34,121,65,200,92","w":1208},"9":{"d":"369,20v-60,0,-115,-6,-164,-20r10,-164v48,7,104,10,168,10v64,0,123,-9,178,-28v55,-19,99,-44,132,-74v33,-30,63,-63,89,-99v26,-36,46,-73,58,-108v23,-75,36,-133,39,-174r2,-29v-33,25,-84,48,-154,70v-70,22,-135,33,-195,33v-124,0,-228,-37,-313,-111v-85,-74,-127,-179,-127,-317v0,-138,47,-250,142,-335v95,-85,212,-128,350,-128v172,0,302,57,390,171v88,114,132,266,132,454v0,257,-62,462,-187,617v-125,155,-308,232,-550,232xm891,-829r0,-62v0,-131,-29,-229,-87,-293v-58,-64,-130,-96,-216,-96v-86,0,-154,25,-205,74v-51,49,-76,116,-76,202v0,177,96,267,287,267v49,0,98,-8,147,-23v49,-15,86,-31,111,-47","w":1228},":":{"d":"189,-17v-24,-25,-35,-61,-35,-105v0,-44,12,-79,37,-105v25,-26,58,-39,98,-39v40,0,71,13,95,38v24,25,36,60,36,104v0,44,-13,80,-38,106v-25,26,-57,38,-97,38v-40,0,-72,-12,-96,-37xm154,-788v0,-45,12,-81,37,-106v25,-25,58,-38,98,-38v40,0,71,13,95,38v24,25,36,61,36,106v0,45,-13,80,-38,105v-25,25,-57,38,-97,38v-40,0,-72,-13,-96,-38v-24,-25,-35,-60,-35,-105","w":573},";":{"d":"184,315v157,-168,236,-311,236,-430v0,-101,-44,-151,-133,-151v-40,0,-72,13,-97,39v-25,26,-36,55,-36,88v0,33,7,65,23,96v16,31,24,56,24,72v0,16,-9,43,-27,79v-18,36,-36,67,-55,93r-27,37xm152,-788v0,-45,12,-81,38,-106v26,-25,59,-38,98,-38v39,0,70,13,94,38v24,25,36,61,36,106v0,45,-13,80,-39,105v-26,25,-58,38,-97,38v-39,0,-71,-13,-95,-38v-24,-25,-35,-60,-35,-105","w":573},"<":{"d":"328,-543r819,379r0,174r-1045,-481r0,-143r1045,-471r0,174","w":1249},"=":{"d":"113,-276r0,-164r1003,0r0,164r-1003,0xm113,-676r0,-164r1003,0r0,164r-1003,0","w":1228},">":{"d":"102,-164r820,-379r-820,-368r0,-174r1045,471r0,143r-1045,481r0,-174","w":1249},"?":{"d":"304,-17v-24,-25,-36,-61,-36,-105v0,-44,13,-79,38,-105v25,-26,57,-39,97,-39v40,0,72,13,96,38v24,25,36,60,36,104v0,44,-13,80,-38,106v-25,26,-58,38,-98,38v-40,0,-71,-12,-95,-37xm477,-479r-184,12v-12,-93,-19,-158,-19,-195v0,-37,12,-72,37,-105v25,-33,55,-65,90,-96r107,-93v86,-74,129,-151,129,-232v0,-109,-72,-164,-215,-164v-67,0,-128,7,-184,21r-31,6r-33,-154v90,-31,176,-47,258,-47v123,0,223,25,302,74v79,49,118,131,118,244v0,70,-19,135,-59,197v-40,62,-83,113,-129,151v-127,102,-191,187,-191,254","w":985},"@":{"d":"1137,-61v-96,55,-208,81,-338,81v-214,0,-379,-62,-494,-187v-115,-125,-172,-302,-172,-532v0,-230,67,-413,200,-550v133,-137,308,-205,524,-205v216,0,387,64,512,192v125,128,187,304,187,525v0,130,-31,232,-93,307v-62,75,-147,113,-253,113v-86,0,-152,-30,-198,-89v-10,-12,-18,-28,-25,-47v-27,33,-65,62,-113,88v-48,26,-91,39,-129,39v-74,0,-129,-19,-168,-58v-39,-39,-59,-96,-59,-171v0,-152,111,-227,332,-227r111,0r0,-99v0,-75,-47,-112,-140,-112v-46,0,-104,10,-174,30r-35,11r-37,-117v102,-42,198,-64,287,-64v175,0,262,79,262,236r0,367v0,29,9,50,26,66v17,16,41,24,71,24v53,0,95,-26,126,-77v31,-51,46,-121,46,-210v0,-176,-49,-316,-147,-419v-98,-103,-230,-154,-399,-154v-169,0,-303,51,-402,155v-99,104,-148,247,-148,430v0,183,45,326,135,428v90,102,216,154,377,154v75,0,147,-13,215,-39r31,-12xm961,-672r-99,0v-67,0,-114,9,-142,27v-28,18,-42,45,-42,80v0,70,35,104,106,104v29,0,58,-7,87,-22v29,-15,52,-30,67,-45r23,-25r0,-119","w":1679},"A":{"d":"10,0r0,-123r168,-39r467,-1261r205,-11r455,1272r170,39r0,123r-594,0r0,-123r190,-39r-78,-227r-532,0r-80,227r192,39r0,123r-563,0xm731,-1169r-215,616r422,0","w":1484,"k":{"V":102,"U":102,"T":82,"S":31,"Q":31,"N":41,"M":41,"J":61,"H":31,"G":41,"C":82,"B":31,"A":82}},"B":{"d":"82,0r0,-123r174,-41r0,-1106r-174,-41r0,-112r379,-11r235,0v134,0,241,31,321,91v80,60,120,149,120,268v0,176,-90,287,-267,332v105,25,185,65,238,122v53,57,80,128,80,211v0,273,-174,410,-522,410r-584,0xm461,-666r0,502r215,0v198,0,297,-78,297,-235v0,-98,-30,-167,-89,-207v-59,-40,-150,-60,-270,-60r-153,0xm461,-1270r0,451r153,0v96,0,171,-20,226,-59v55,-39,82,-96,82,-170v0,-74,-22,-129,-66,-166v-44,-37,-100,-56,-170,-56r-225,0","w":1290,"k":{"A":61}},"C":{"d":"1065,-1006r-55,-233v-72,-27,-160,-41,-262,-41v-138,0,-245,51,-319,151v-74,100,-112,241,-112,424v0,183,40,319,120,408v80,89,187,133,321,133v64,0,130,-14,198,-41v68,-27,121,-55,158,-82r53,-41r82,133v-90,90,-203,154,-340,191v-57,16,-115,24,-172,24v-208,0,-368,-60,-483,-182v-115,-122,-172,-298,-172,-529v0,-231,61,-416,185,-555v124,-139,291,-208,501,-208v67,0,139,9,215,26v76,17,136,34,180,52r66,24r-10,346r-154,0","w":1320,"k":{"A":113}},"D":{"d":"512,-164r236,0v134,0,239,-46,315,-140v76,-94,115,-234,115,-420v0,-186,-37,-324,-111,-413v-74,-89,-177,-133,-309,-133r-246,0r0,1106xm123,0r0,-123r174,-41r0,-1106r-174,-41r0,-112r389,-11r256,0v202,0,360,61,474,182v114,121,171,293,171,517v0,224,-61,402,-184,535v-123,133,-287,200,-492,200r-614,0","w":1495,"k":{"A":102}},"E":{"d":"952,-1270r-440,0r0,441r471,0r0,163r-471,0r0,502r471,0r41,-205r133,0r0,369r-1034,0r0,-123r174,-41r0,-1106r-174,-41r0,-112r389,-11r625,0r0,349r-133,0","w":1280},"F":{"d":"911,-1270r-440,0r0,461r471,0r0,164r-471,0r0,481r205,41r0,123r-594,0r0,-123r174,-41r0,-1106r-174,-41r0,-112r389,-11r625,0r0,338r-133,0","k":{"A":133}},"G":{"d":"1300,-541r0,439v-16,10,-39,20,-68,34v-29,14,-90,32,-181,55v-91,23,-183,33,-273,33v-208,0,-368,-60,-483,-182v-115,-122,-172,-298,-172,-529v0,-231,61,-416,185,-555v124,-139,291,-208,501,-208v67,0,139,9,215,26v76,17,136,34,180,52r66,24r-10,338r-134,0r-61,-225v-82,-27,-175,-41,-277,-41v-138,0,-244,51,-318,151v-74,100,-112,242,-112,426v0,184,41,321,122,412v81,91,191,137,329,137v81,0,163,-13,248,-39r39,-12r0,-336r-174,-41r0,-112r532,-11r0,123","w":1538,"k":{"A":102}},"H":{"d":"666,-123r0,123r-584,0r0,-123r174,-41r0,-1106r-174,-41r0,-112r584,-11r0,123r-195,41r0,451r686,0r0,-451r-194,-41r0,-112r583,-11r0,123r-174,41r0,1106r174,41r0,123r-583,0r0,-123r194,-41r0,-491r-686,0r0,491","w":1628,"k":{"A":31}},"I":{"d":"645,-123r0,123r-563,0r0,-123r174,-41r0,-1106r-174,-41r0,-112r563,-11r0,123r-174,41r0,1106","w":727},"J":{"d":"90,-1423r563,-11r0,123r-174,41r0,1178v0,124,-34,222,-103,293v-69,71,-164,106,-286,106r-131,-10r18,-154r103,0v123,0,184,-64,184,-194r0,-1219r-174,-41r0,-112","w":735,"k":{"A":82}},"K":{"d":"666,-123r0,123r-584,0r0,-123r174,-41r0,-1106r-174,-41r0,-112r584,-11r0,123r-195,41r0,451r188,0r355,-604r338,-11r0,123r-203,41r-311,518r422,588r174,41r0,123r-584,0r0,-123r174,-41r-352,-491r-201,0r0,491","w":1454,"k":{"A":123}},"L":{"d":"461,-1270r0,1106r420,0r41,-235r143,0r0,399r-993,0r0,-123r174,-41r0,-1106r-174,-41r0,-112r563,-11r0,123","w":1085},"M":{"d":"1157,0r0,-123r195,-41r0,-1024r-62,154r-317,645r-164,10r-317,-665r-52,-144r0,1024r195,41r0,123r-553,0r0,-123r174,-41r0,-1106r-174,-41r0,-112r461,-11r370,820r387,-809r431,-11r0,123r-175,41r0,1106r175,41r0,123r-574,0","w":1792,"k":{"A":41}},"N":{"d":"1116,0r-676,-1128r0,964r195,41r0,123r-553,0r0,-123r174,-41r0,-1106r-174,-41r0,-112r430,-11r676,1145r0,-981r-174,-41r0,-112r532,-11r0,123r-174,41r0,1270r-256,0","w":1617,"k":{"V":20,"A":51}},"O":{"d":"303,-1250v120,-136,280,-204,481,-204v201,0,357,64,470,192v113,128,169,305,169,528v0,223,-62,405,-188,545v-126,140,-289,209,-489,209v-200,0,-353,-62,-461,-187v-108,-125,-162,-302,-162,-533v0,-231,60,-414,180,-550xm778,-1280v-280,0,-420,188,-420,563v0,375,134,563,400,563v137,0,242,-48,317,-144v75,-96,113,-239,113,-429v0,-369,-137,-553,-410,-553","w":1546,"k":{"V":31}},"P":{"d":"82,0r0,-123r174,-41r0,-1106r-174,-41r0,-112r389,-11r215,0v152,0,268,38,349,113v81,75,122,177,122,307v0,157,-48,277,-144,359v-96,82,-233,123,-409,123r-133,0r0,368r174,41r0,123r-563,0xm471,-1270r0,574r133,0v225,0,338,-96,338,-287v0,-85,-24,-154,-70,-207v-46,-53,-111,-80,-196,-80r-205,0","w":1208,"k":{"A":82}},"Q":{"d":"1608,133r82,123v-137,82,-243,123,-318,123v-52,0,-140,-38,-266,-113r-408,-250v-184,-14,-326,-81,-426,-205v-100,-124,-149,-298,-149,-521v0,-223,63,-402,189,-539v126,-137,292,-205,495,-205v203,0,360,63,471,191v111,128,166,303,166,526v0,184,-42,341,-125,469v-83,128,-197,214,-342,258r221,133v94,55,166,82,215,82v40,0,94,-18,162,-53xm799,-1280v-146,0,-258,47,-335,141v-77,94,-116,234,-116,418v0,184,37,325,109,422v72,97,179,145,322,145v143,0,252,-48,327,-145v75,-97,113,-240,113,-428v0,-369,-140,-553,-420,-553","w":1515},"R":{"d":"82,0r0,-123r174,-41r0,-1106r-174,-41r0,-112r389,-11r225,0v145,0,258,33,339,99v81,66,122,155,122,270v0,201,-89,333,-266,399v33,29,74,91,123,185r162,325r145,33r0,123r-307,0r-174,-379v-48,-102,-89,-169,-124,-200v-35,-31,-86,-46,-153,-46r-92,0r0,461r174,41r0,123r-563,0xm471,-1270r0,492r154,0v100,0,177,-23,233,-68v56,-45,84,-105,84,-179v0,-74,-24,-134,-72,-178v-48,-44,-109,-67,-184,-67r-215,0","w":1331},"S":{"d":"307,-420r41,215v23,14,57,26,101,37v44,11,84,15,124,14v83,-1,158,-21,221,-59v63,-38,94,-92,93,-160v-1,-49,-21,-91,-57,-126v-36,-35,-81,-61,-136,-79v-55,-18,-113,-39,-176,-64v-63,-25,-121,-52,-176,-80v-55,-28,-100,-70,-137,-125v-37,-55,-57,-122,-58,-200v-1,-135,45,-236,136,-303v138,-100,319,-128,544,-86v72,14,130,28,172,43r66,21r-10,348r-133,0r-70,-219v-74,-25,-150,-37,-229,-36v-79,1,-143,20,-191,58v-48,38,-71,82,-70,130v1,48,17,88,44,119v27,31,62,56,105,76v43,20,90,38,142,56v52,18,104,38,156,60v52,22,99,46,142,74v43,28,79,66,106,113v27,47,42,102,43,165v3,145,-47,256,-149,332v-102,76,-230,116,-386,119v-64,0,-131,-7,-201,-21v-70,-14,-125,-28,-163,-43r-58,-20r0,-359r164,0","w":1224,"k":{"A":82}},"T":{"d":"891,-123r0,123r-625,0r0,-123r205,-41r0,-1106r-266,0r-51,205r-134,0r0,-369r1117,0r0,369r-133,0r-52,-205r-266,0r0,1106","w":1157,"k":{"A":82}},"U":{"d":"1362,-1270r0,686v0,201,-42,352,-127,453v-85,101,-227,151,-428,151v-201,0,-343,-46,-426,-140v-83,-94,-125,-238,-125,-433r0,-717r-174,-41r0,-112r584,-11r0,123r-195,41r0,717v0,150,26,254,78,312v52,58,140,87,264,87v124,0,211,-32,260,-95v49,-63,74,-175,74,-335r0,-686r-195,-41r0,-112r584,-11r0,123","w":1617,"k":{"A":102}},"V":{"d":"604,0r-436,-1270r-158,-41r0,-112r574,-11r0,123r-187,39r322,996r342,-994r-191,-41r0,-112r553,-11r0,123r-159,41r-455,1270r-205,0","w":1433,"k":{"O":31,"N":20,"A":113}},"W":{"d":"512,0r-342,-1270r-160,-41r0,-112r574,-11r0,123r-178,41r219,928r338,-1081r194,-11r332,1115r254,-951r-187,-41r0,-112r553,-11r0,123r-161,41r-361,1270r-225,0r-305,-1163r-64,231r-276,932r-205,0","w":2119},"X":{"d":"20,0r0,-123r134,-31r430,-573r-379,-543r-154,-41r0,-112r543,-11r0,123r-133,41r266,389r266,-389r-143,-41r0,-112r543,-11r0,123r-185,41r-368,533r399,573r174,41r0,123r-553,0r0,-123r123,-31r-287,-419r-307,409r174,41r0,123r-543,0","w":1433},"Y":{"d":"379,0r0,-123r174,-41r0,-366r-395,-742r-138,-39r0,-112r512,-11r0,123r-139,41r273,574r301,-574r-158,-41r0,-112r491,-11r0,123r-126,37r-406,739r0,371r174,41r0,123r-563,0","w":1320},"Z":{"d":"143,-1434r1035,0r0,144r-820,1126r635,0r41,-205r133,0r0,369r-1085,0r0,-143r819,-1127r-573,0r-52,205r-133,0r0,-369","w":1259},"[":{"d":"625,328r0,133r-441,10r0,-2048r441,10r0,133r-246,23r0,1716","w":706},"\\":{"d":"276,-1434r678,1434r-215,0r-678,-1434r215,0","w":1036},"]":{"d":"522,471r-440,-10r0,-133r246,-23r0,-1716r-246,-23r0,-133r440,-10r0,2048","w":706},"^":{"d":"578,-1229r-281,574r-174,0r389,-779r143,0r389,779r-178,0"},"_":{"d":"0,307r0,-143r1024,0r0,143r-1024,0","w":1024},"`":{"d":"594,-1300r-399,-256r102,-154r379,297","w":860},"a":{"d":"154,-1024v150,-55,285,-82,405,-82v120,0,213,25,277,74v64,49,96,131,96,244r0,624r164,41r0,113r-318,10r-43,-143v-109,109,-216,163,-322,163v-106,0,-186,-26,-240,-80v-54,-54,-81,-130,-81,-227v0,-212,157,-317,471,-317r164,0r0,-164v0,-123,-65,-184,-195,-184v-76,0,-137,7,-182,22r-24,8r-29,154r-133,0xm727,-471r-143,0v-102,0,-175,14,-218,41v-43,27,-65,68,-65,122v0,54,13,95,40,123v27,28,63,42,109,42v46,0,92,-14,138,-41v46,-27,81,-55,104,-82r35,-41r0,-164","w":1157},"b":{"d":"369,-1577r0,590v101,-79,203,-119,307,-119v143,0,250,47,322,142v72,95,108,229,108,401v0,172,-49,312,-147,421v-98,109,-236,162,-416,162v-137,0,-248,-11,-334,-36r-45,-15r0,-1382r-164,-41r0,-113xm369,-164v35,14,107,21,213,21v106,0,184,-38,234,-113v50,-75,75,-173,75,-295v0,-122,-21,-217,-63,-287v-42,-70,-106,-104,-193,-104v-71,0,-129,15,-174,45v-40,27,-70,57,-92,88r0,645","w":1198},"c":{"d":"952,-748r-133,0r-31,-174v-55,-14,-116,-20,-184,-20v-98,0,-174,32,-227,95v-53,63,-80,161,-80,292v0,131,28,232,84,304v56,72,133,108,233,108v57,0,113,-11,166,-31v53,-20,92,-42,117,-62r35,-30r72,123v-5,4,-13,9,-22,17v-9,8,-28,21,-57,40v-29,19,-59,35,-89,49v-79,38,-160,57,-242,57v-167,0,-294,-49,-381,-148v-87,-99,-131,-235,-131,-407v0,-172,48,-310,145,-414v97,-104,226,-157,387,-157v55,0,111,7,169,21v58,14,104,27,135,41r45,20","w":1044},"d":{"d":"1034,-1577r0,1413r174,41r0,113r-348,10r-16,-117v-91,91,-204,137,-337,137v-133,0,-235,-47,-307,-142v-72,-95,-108,-229,-108,-402v0,-173,46,-314,137,-421v91,-107,227,-161,406,-161v67,0,131,11,194,33r0,-340r-174,-41r0,-113xm829,-297r0,-604v-48,-27,-119,-41,-215,-41v-205,0,-307,137,-307,410v0,120,21,214,63,284v42,70,106,105,193,105v67,0,124,-19,170,-54v44,-35,76,-69,96,-100","w":1259},"e":{"d":"1004,-516r-707,4v0,112,27,201,82,268v55,67,126,101,215,101v60,0,119,-10,176,-29v57,-19,100,-38,127,-57r41,-27r72,106v-14,12,-34,29,-60,48v-26,19,-77,44,-153,75v-76,31,-152,47,-224,47v-161,0,-283,-48,-366,-146v-83,-98,-125,-231,-125,-400v0,-169,46,-308,140,-417v94,-109,215,-163,362,-163v287,0,430,160,430,481xm305,-666r492,0v0,-83,-19,-150,-54,-202v-35,-52,-92,-78,-171,-78v-79,0,-141,27,-187,80v-46,53,-73,119,-80,200","w":1085},"f":{"d":"143,-1055r185,-20r0,-123v0,-124,32,-222,98,-293v66,-71,159,-106,281,-106v57,0,111,5,162,17v51,12,88,24,110,36r35,18r0,256r-144,0r-30,-164v-34,-7,-81,-10,-140,-10v-112,0,-168,68,-168,205r0,164r271,0r-6,153r-265,0r0,758r199,51r0,113r-577,0r0,-113r174,-51r0,-758r-185,0r0,-133","w":901},"g":{"d":"553,-328v-60,0,-112,-6,-154,-18r-10,192r318,0v134,0,235,25,305,76v70,51,104,130,104,236v0,106,-45,192,-135,257v-90,65,-222,97,-397,97v-328,0,-492,-99,-492,-297v0,-86,46,-159,137,-219v22,-14,41,-24,56,-29r22,-8v-10,-1,-21,-3,-35,-6v-14,-3,-31,-14,-54,-34v-23,-20,-34,-43,-34,-69v0,-45,27,-110,80,-196r27,-43v-12,-4,-29,-17,-50,-37v-21,-20,-39,-41,-53,-61v-37,-57,-55,-131,-55,-220v0,-130,41,-229,122,-297v81,-68,191,-102,329,-102v76,0,137,10,182,29r22,10r359,-8r0,112r-199,29v37,49,56,118,56,207v0,134,-40,234,-121,300v-81,66,-191,99,-330,99xm655,0r-225,0v-7,3,-20,12,-40,26v-20,14,-35,28,-46,40v-31,35,-47,74,-47,118v0,67,26,113,79,138v53,25,132,36,238,36v205,0,308,-64,308,-194v0,-63,-23,-106,-67,-129v-44,-23,-111,-35,-200,-35xm573,-963v-157,0,-235,82,-235,246v0,75,19,135,57,179v38,44,96,67,174,67v78,0,135,-19,173,-58v38,-39,57,-102,57,-188v0,-164,-76,-246,-226,-246","w":1198},"h":{"d":"430,-1577r0,619v117,-98,234,-148,349,-148v115,0,200,32,255,97v55,65,82,156,82,272r0,573r154,51r0,113r-492,0r0,-113r133,-49r0,-555v0,-74,-14,-128,-41,-163v-27,-35,-70,-52,-128,-52v-58,0,-111,14,-162,41v-51,27,-88,55,-113,82r-37,41r0,604r133,51r0,113r-512,0r0,-113r174,-51r0,-1249r-174,-41r0,-113","w":1331},"i":{"d":"215,-1423v0,-45,13,-81,38,-106v25,-25,57,-38,95,-38v89,0,133,48,133,144v0,44,-14,78,-41,104v-27,26,-59,39,-97,39v-38,0,-68,-13,-92,-38v-24,-25,-36,-60,-36,-105xm461,-1085r0,921r153,51r0,113r-532,0r0,-113r174,-51r0,-758r-174,-41r0,-112","w":686},"j":{"d":"428,-1085r0,1177v0,124,-32,222,-98,293v-66,71,-159,107,-281,107r-131,-11r19,-143r102,0v68,0,116,-17,143,-52v27,-35,41,-86,41,-153r0,-1055r-174,-41r0,-112xm172,-1423v0,-45,13,-81,39,-106v26,-25,57,-38,94,-38v89,0,133,48,133,144v0,44,-14,78,-41,104v-27,26,-59,39,-97,39v-38,0,-68,-13,-92,-38v-24,-25,-36,-60,-36,-105","w":591},"k":{"d":"430,-1577r0,901r174,0r154,-258r-92,-29r0,-112r450,-10r0,122r-145,25r-2,0r-211,313r264,461r2,0r154,51r0,113r-277,0r-293,-522r-178,0r0,358r133,51r0,113r-512,0r0,-113r174,-51r0,-1249r-174,-41r0,-113","w":1198},"l":{"d":"434,-1577r0,1413r205,51r0,113r-588,0r0,-113r174,-51r0,-1249r-174,-41r0,-113","w":649},"m":{"d":"420,-1085r18,145v38,-37,92,-74,160,-111v68,-37,139,-55,211,-55v138,0,233,59,285,176v51,-51,112,-93,186,-126v74,-33,139,-50,195,-50v212,0,317,123,317,369r0,573r154,51r0,113r-492,0r0,-113r133,-51r0,-553v0,-75,-13,-130,-39,-164v-26,-34,-68,-51,-126,-51v-58,0,-110,14,-158,41v-48,27,-83,55,-105,82r-33,41r0,604r134,51r0,113r-472,0r0,-113r134,-51r0,-553v0,-75,-13,-130,-39,-164v-26,-34,-68,-51,-126,-51v-58,0,-111,14,-159,41v-48,27,-82,55,-104,82r-33,41r0,604r133,51r0,113r-512,0r0,-113r174,-51r0,-758r-174,-41r0,-112","w":2007},"n":{"d":"420,-1085r18,145v25,-20,53,-42,84,-64v31,-22,76,-44,133,-67v57,-23,112,-35,164,-35v109,0,191,32,246,97v55,65,82,156,82,272r0,573r153,51r0,113r-491,0r0,-113r133,-51r0,-553v0,-74,-14,-128,-43,-163v-29,-35,-72,-52,-131,-52v-59,0,-113,14,-162,41v-49,27,-85,55,-110,82r-35,41r0,604r133,51r0,113r-512,0r0,-113r174,-51r0,-758r-174,-41r0,-112","w":1361},"o":{"d":"227,-949v97,-104,222,-157,375,-157v153,0,271,49,356,147v85,98,127,231,127,402v0,171,-47,310,-141,417v-94,107,-219,160,-373,160v-154,0,-274,-46,-360,-140v-86,-94,-129,-229,-129,-406v0,-177,48,-319,145,-423xm594,-942v-198,0,-297,133,-297,399v0,266,96,400,287,400v100,0,172,-35,218,-103v46,-68,68,-170,68,-307v0,-259,-92,-389,-276,-389"},"p":{"d":"399,-1085r17,114v97,-90,200,-135,311,-135v145,0,255,47,329,143v74,96,111,230,111,403v0,173,-46,313,-139,420v-93,107,-231,160,-414,160v-59,0,-120,-9,-184,-28r0,325r215,41r0,113r-584,0r0,-113r164,-41r0,-1239r-174,-41r0,-112xm430,-799r0,615v41,27,113,41,215,41v205,0,307,-137,307,-410v0,-119,-22,-214,-66,-284v-44,-70,-111,-105,-200,-105v-87,0,-160,31,-219,94v-14,14,-26,30,-37,49","w":1259},"q":{"d":"625,471r0,-113r204,-41r0,-415v-101,79,-203,118,-307,118v-287,0,-430,-177,-430,-532v0,-179,49,-322,147,-431v98,-109,236,-163,416,-163v132,0,244,11,334,31r45,10r0,1382r164,41r0,113r-573,0xm829,-922v-41,-14,-113,-20,-217,-20v-104,0,-180,38,-230,113v-50,75,-75,172,-75,294v0,122,21,217,63,287v42,70,106,105,193,105v71,0,129,-15,174,-45v40,-27,70,-57,92,-88r0,-646","w":1187},"r":{"d":"420,-1085r18,149v101,-113,205,-170,310,-170v56,0,109,9,161,25r23,6r-10,297r-134,0r-30,-154v-117,0,-216,54,-297,160r0,608r205,51r0,113r-584,0r0,-113r174,-51r0,-758r-174,-41r0,-112","w":952},"s":{"d":"94,-328r144,0r22,176v0,0,0,1,25,7v44,11,95,15,155,12v154,-5,230,-60,226,-162v-1,-41,-22,-74,-62,-100v-40,-26,-87,-48,-142,-64v-55,-16,-111,-35,-166,-56v-55,-21,-102,-54,-141,-98v-39,-44,-60,-101,-61,-169v-1,-104,33,-183,102,-238v69,-55,160,-83,273,-86v97,0,197,15,299,45r51,17r-6,276r-133,0r-33,-160v-15,-5,-41,-11,-79,-17v-38,-6,-76,-8,-116,-6v-40,2,-77,13,-108,33v-31,20,-46,54,-45,98v1,44,21,79,61,106v40,27,88,49,143,66v55,17,111,36,166,57v55,21,102,53,141,96v39,43,59,97,60,161v1,112,-38,198,-120,258v-116,86,-275,115,-476,88v-56,-7,-100,-14,-131,-24r-47,-13","w":964},"t":{"d":"451,-1374r0,299r297,0r0,153r-297,0r0,658v0,83,34,125,102,125v44,0,97,-17,160,-51r55,108v-93,68,-189,102,-287,102v-70,0,-126,-22,-170,-68v-44,-46,-65,-122,-65,-228r0,-646r-205,0r0,-133r205,-20r0,-258","w":808},"u":{"d":"1106,-1085r0,921r174,41r0,113r-338,10r-20,-143v-57,51,-123,90,-195,119v-72,29,-133,44,-184,44v-109,0,-191,-32,-246,-96v-55,-64,-82,-154,-82,-270r0,-576r-174,-41r0,-112r379,-10r0,718v0,72,14,126,43,161v29,35,72,52,131,52v59,0,113,-14,162,-41v49,-27,85,-53,108,-79r37,-41r0,-607r-174,-41r0,-112","w":1331},"v":{"d":"471,-1085r0,122r-143,21r243,758r246,-748r-141,-31r0,-112r459,-10r0,122r-113,21r-348,942r-225,0r-336,-932r-103,-31r0,-112","w":1144},"w":{"d":"471,-1085r0,122r-154,21r175,758r268,-891r194,-31r254,922r164,-748r-143,-31r0,-112r461,-10r0,122r-119,21r-250,942r-236,0r-194,-635r-49,-196r-43,196r-195,635r-235,0r-256,-932r-103,-31r0,-112","w":1699},"x":{"d":"498,-1085r0,122r-72,13r158,264r245,-389r297,-10r0,122r-174,31r-256,379r262,393r189,47r0,113r-500,0r0,-113r82,-24r-168,-271r-254,408r-297,0r0,-113r180,-47r261,-383r-263,-391r-157,-29r0,-112","w":1157},"y":{"d":"502,-1085r0,122r-144,21r246,717r225,-707r-143,-31r0,-112r485,-10r0,122r-133,21r-290,811v-68,179,-119,297,-152,356v-102,176,-236,266,-401,267r-132,-11r19,-143r102,0v67,0,125,-28,175,-84v50,-56,100,-139,151,-250r-367,-936r-123,-31r0,-112","w":1181},"z":{"d":"963,-1085r0,153r-601,778r418,0r29,-163r143,0r0,317r-819,0r0,-154r598,-778r-385,0r-29,154r-143,0r0,-307r789,0","w":1034},"{":{"d":"696,-1587r0,133v-97,0,-163,15,-198,46v-35,31,-54,87,-54,169r0,350v0,142,-63,237,-190,285v127,48,190,143,190,285r0,432v0,82,19,138,54,169v35,31,101,46,198,46r0,133r-92,0v-124,0,-213,-26,-267,-79v-54,-53,-81,-142,-81,-269r0,-432v0,-68,-14,-121,-43,-158v-29,-37,-80,-55,-152,-55r0,-144v72,0,123,-18,152,-55v29,-37,43,-90,43,-158r0,-350v0,-127,27,-216,81,-269v54,-53,143,-79,267,-79r92,0","w":757},"|":{"d":"369,-1546r0,2017r-164,0r0,-2017r164,0","w":573},"}":{"d":"82,-1587r92,0v124,0,213,26,267,79v54,53,81,142,81,269r0,350v0,68,14,121,43,158v29,37,80,55,152,55r0,144v-72,0,-123,18,-152,55v-29,37,-43,90,-43,158r0,432v0,127,-27,216,-81,269v-54,53,-143,79,-267,79r-92,0r0,-133v97,0,164,-15,199,-46v35,-31,53,-87,53,-169r0,-432v0,-142,63,-237,190,-285v-127,-48,-190,-143,-190,-285r0,-350v0,-82,-18,-138,-53,-169v-35,-31,-102,-46,-199,-46r0,-133","w":768},"~":{"d":"217,-428r-94,-74v0,0,0,1,12,-22v4,-10,16,-26,35,-49v19,-23,39,-44,60,-62v21,-18,50,-34,87,-49v37,-15,82,-23,135,-23v53,0,123,24,211,72v88,48,153,72,195,72v42,0,80,-11,112,-31v32,-20,55,-41,70,-61r25,-31r94,74v-7,15,-22,37,-45,66v-23,29,-45,54,-66,73v-21,19,-49,36,-83,51v-34,15,-69,23,-103,23v-66,0,-145,-24,-241,-72v-96,-48,-164,-72,-206,-72v-42,0,-78,10,-109,29v-31,19,-53,38,-68,57","w":1282},"\u00c1":{"d":"10,0r0,-123r168,-39r467,-1261r205,-11r455,1272r170,39r0,123r-594,0r0,-123r190,-39r-78,-227r-532,0r-80,227r192,39r0,123r-563,0xm731,-1169r-215,616r422,0xm1116,-1761r-399,256r-82,-113r379,-297","w":1484},"\u00c9":{"d":"870,-1915r103,154r-400,256r-81,-113xm1137,-1434r0,349r-133,0r-52,-185r-440,0r0,441r471,0r0,163r-471,0r0,502r471,0r41,-205r133,0r0,369r-1034,0r0,-123r174,-41r0,-1106r-174,-41r0,-112r389,-11r625,0","w":1280},"\u00cd":{"d":"645,-123r0,123r-563,0r0,-123r174,-41r0,-1106r-174,-41r0,-112r563,-11r0,123r-174,41r0,1106xm676,-1761r-400,256r-81,-113r378,-297","w":727},"\u00d3":{"d":"303,-1250v120,-136,280,-204,481,-204v201,0,357,64,470,192v113,128,169,305,169,528v0,223,-62,405,-188,545v-126,140,-289,209,-489,209v-200,0,-353,-62,-461,-187v-108,-125,-162,-302,-162,-533v0,-231,60,-414,180,-550xm778,-1280v-280,0,-420,188,-420,563v0,375,134,563,400,563v137,0,242,-48,317,-144v75,-96,113,-239,113,-429v0,-369,-137,-553,-410,-553xm1044,-1761r-399,256r-82,-113r379,-297","w":1546},"\u00d6":{"d":"303,-1250v120,-136,280,-204,481,-204v201,0,357,64,470,192v113,128,169,305,169,528v0,223,-62,405,-188,545v-126,140,-289,209,-489,209v-200,0,-353,-62,-461,-187v-108,-125,-162,-302,-162,-533v0,-231,60,-414,180,-550xm778,-1280v-280,0,-420,188,-420,563v0,375,134,563,400,563v137,0,242,-48,317,-144v75,-96,113,-239,113,-429v0,-369,-137,-553,-410,-553xm451,-1690v0,-38,10,-68,32,-90v22,-22,50,-32,83,-32v33,0,60,10,80,32v20,22,30,52,30,90v0,38,-11,69,-33,91v-22,22,-50,32,-83,32v-33,0,-60,-10,-80,-32v-20,-22,-29,-53,-29,-91xm870,-1690v0,-38,11,-68,33,-90v22,-22,50,-32,83,-32v33,0,60,10,80,32v20,22,30,52,30,90v0,38,-11,69,-33,91v-22,22,-50,32,-83,32v-33,0,-60,-10,-80,-32v-20,-22,-30,-53,-30,-91","w":1546},"\u00da":{"d":"1362,-1270r0,686v0,201,-42,352,-127,453v-85,101,-227,151,-428,151v-201,0,-343,-46,-426,-140v-83,-94,-125,-238,-125,-433r0,-717r-174,-41r0,-112r584,-11r0,123r-195,41r0,717v0,150,26,254,78,312v52,58,140,87,264,87v124,0,211,-32,260,-95v49,-63,74,-175,74,-335r0,-686r-195,-41r0,-112r584,-11r0,123xm1135,-1761r-400,256r-82,-113r379,-297","w":1617},"\u00dc":{"d":"666,-1434r0,123r-195,41r0,717v0,150,26,254,78,312v52,58,140,87,264,87v124,0,211,-32,260,-95v49,-63,74,-175,74,-335r0,-686r-195,-41r0,-112r584,-11r0,123r-174,41r0,686v0,201,-42,352,-127,453v-85,101,-227,151,-428,151v-201,0,-343,-46,-426,-140v-83,-94,-125,-238,-125,-433r0,-717r-174,-41r0,-112xm471,-1690v0,-38,11,-68,33,-90v22,-22,50,-32,83,-32v33,0,60,10,80,32v20,22,29,52,29,90v0,38,-10,69,-32,91v-22,22,-50,32,-83,32v-33,0,-60,-10,-80,-32v-20,-22,-30,-53,-30,-91xm891,-1690v0,-38,11,-68,33,-90v22,-22,50,-32,83,-32v33,0,59,10,79,32v20,22,30,52,30,90v0,38,-11,69,-33,91v-22,22,-50,32,-83,32v-33,0,-59,-10,-79,-32v-20,-22,-30,-53,-30,-91","w":1617},"\u00e1":{"d":"1096,-10r-318,10r-43,-143v-109,109,-216,163,-322,163v-106,0,-186,-26,-240,-80v-54,-54,-81,-130,-81,-227v0,-212,157,-317,471,-317r164,0r0,-164v0,-123,-65,-184,-195,-184v-76,0,-137,7,-182,22r-24,8r-29,154r-133,0r-10,-256v150,-55,285,-82,405,-82v120,0,213,25,277,74v64,49,96,131,96,244r0,624r164,41r0,113xm366,-430v-43,27,-65,68,-65,122v0,54,13,95,40,123v27,28,63,42,109,42v46,0,92,-14,138,-41v46,-27,81,-55,104,-82r35,-41r0,-164r-143,0v-102,0,-175,14,-218,41xm829,-1485r-430,266r-71,-102r399,-317","w":1157},"\u00e9":{"d":"1004,-516r-707,4v0,112,27,201,82,268v55,67,126,101,215,101v60,0,119,-10,176,-29v57,-19,100,-38,127,-57r41,-27r72,106v-14,12,-34,29,-60,48v-26,19,-77,44,-153,75v-76,31,-152,47,-224,47v-161,0,-283,-48,-366,-146v-83,-98,-125,-231,-125,-400v0,-169,46,-308,140,-417v94,-109,215,-163,362,-163v287,0,430,160,430,481xm305,-666r492,0v0,-83,-19,-150,-54,-202v-35,-52,-92,-78,-171,-78v-79,0,-141,27,-187,80v-46,53,-73,119,-80,200xm860,-1485r-430,266r-72,-102r400,-317","w":1085},"\u00ed":{"d":"461,-1085r0,921r153,51r0,113r-532,0r0,-113r174,-51r0,-758r-174,-41r0,-112xm635,-1505r-430,266r-72,-102r399,-318","w":686},"\u00f3":{"d":"227,-949v97,-104,222,-157,375,-157v153,0,271,49,356,147v85,98,127,231,127,402v0,171,-47,310,-141,417v-94,107,-219,160,-373,160v-154,0,-274,-46,-360,-140v-86,-94,-129,-229,-129,-406v0,-177,48,-319,145,-423xm594,-942v-198,0,-297,133,-297,399v0,266,96,400,287,400v100,0,172,-35,218,-103v46,-68,68,-170,68,-307v0,-259,-92,-389,-276,-389xm870,-1485r-430,266r-71,-102r399,-317"},"\u00f6":{"d":"227,-949v97,-104,222,-157,375,-157v153,0,271,49,356,147v85,98,127,231,127,402v0,171,-47,310,-141,417v-94,107,-219,160,-373,160v-154,0,-274,-46,-360,-140v-86,-94,-129,-229,-129,-406v0,-177,48,-319,145,-423xm594,-942v-198,0,-297,133,-297,399v0,266,96,400,287,400v100,0,172,-35,218,-103v46,-68,68,-170,68,-307v0,-259,-92,-389,-276,-389xm256,-1434v0,-38,11,-68,33,-90v22,-22,50,-32,83,-32v33,0,60,10,80,32v20,22,29,52,29,90v0,38,-10,69,-32,91v-22,22,-50,32,-83,32v-33,0,-60,-10,-80,-32v-20,-22,-30,-53,-30,-91xm676,-1434v0,-38,11,-68,33,-90v22,-22,50,-32,83,-32v33,0,59,10,79,32v20,22,30,52,30,90v0,38,-11,69,-33,91v-22,22,-50,32,-83,32v-33,0,-59,-10,-79,-32v-20,-22,-30,-53,-30,-91"},"\u00fa":{"d":"1106,-1085r0,921r174,41r0,113r-338,10r-20,-143v-57,51,-123,90,-195,119v-72,29,-133,44,-184,44v-109,0,-191,-32,-246,-96v-55,-64,-82,-154,-82,-270r0,-576r-174,-41r0,-112r379,-10r0,718v0,72,14,126,43,161v29,35,72,52,131,52v59,0,113,-14,162,-41v49,-27,85,-53,108,-79r37,-41r0,-607r-174,-41r0,-112xm942,-1485r-430,266r-72,-102r400,-317","w":1331},"\u00fc":{"d":"1106,-1085r0,921r174,41r0,113r-338,10r-20,-143v-57,51,-123,90,-195,119v-72,29,-133,44,-184,44v-109,0,-191,-32,-246,-96v-55,-64,-82,-154,-82,-270r0,-576r-174,-41r0,-112r379,-10r0,718v0,72,14,126,43,161v29,35,72,52,131,52v59,0,113,-14,162,-41v49,-27,85,-53,108,-79r37,-41r0,-607r-174,-41r0,-112xm317,-1434v0,-38,11,-68,33,-90v22,-22,50,-32,83,-32v33,0,60,10,80,32v20,22,30,52,30,90v0,38,-11,69,-33,91v-22,22,-50,32,-83,32v-33,0,-60,-10,-80,-32v-20,-22,-30,-53,-30,-91xm737,-1434v0,-38,11,-68,33,-90v22,-22,50,-32,83,-32v33,0,60,10,80,32v20,22,30,52,30,90v0,38,-11,69,-33,91v-22,22,-50,32,-83,32v-33,0,-60,-10,-80,-32v-20,-22,-30,-53,-30,-91","w":1331},"\u00a0":{"w":471}}});
