/*!
 * The following copyright notice may not be removed under any circumstances.
 * 
 * Copyright:
 * Copyright (C) 2006  Barry Schwartz.
 * 
 * This font/program is free software; you can redistribute it and/or
 * modify it under the terms of the GNU General Public License as
 * published by the Free Software Foundation; either version 2 of the
 * License, or (at your option) any later version.
 * 
 * In the special case where you are embedding or similarly including the font in
 * a document, the document with the font included in it need not be subject to the
 * terms of the GNU General Public License.
 * 
 * This font/program is distributed in the hope that it will be useful,
 * but WITHOUT ANY WARRANTY; without even the implied warranty of
 * MERCHANTABILITY or FITNESS FOR A PARTICULAR PURPOSE.  See the GNU
 * General Public License for more details.
 * 
 * You should have received a copy of the GNU General Public License
 * along with this program; if not, write to the Free Software
 * Foundation, Inc., 59 Temple Place, Suite 330, Boston, MA 02111-1307
 * USA
 */
Cufon.registerFont({"w":1421,"face":{"font-family":"BonvenoCF","font-weight":200,"font-stretch":"normal","units-per-em":"2048","panose-1":"2 0 3 3 0 0 0 0 0 0","ascent":"1638","descent":"-410","x-height":"27","bbox":"0 -2013 2214 457","underline-thickness":"102.4","underline-position":"-153.6","stemh":"102","stemv":"102","unicode-range":"U+0020-U+0171"},"glyphs":{" ":{"w":819},"!":{"d":"385,-340r-78,0r-16,-1151r110,0xm246,-90v0,-53,45,-98,98,-98v53,0,98,45,98,98v0,53,-45,98,-98,98v-53,0,-98,-45,-98,-98","w":688},"\"":{"d":"240,-1491r-21,418r-96,0r-21,-418r138,0xm555,-1491r-20,418r-97,0r-20,-418r137,0","w":657},"#":{"d":"713,-453r39,-219r-224,0r-39,219r224,0xm799,-350r-49,280r-101,-18r45,-262r-221,0r-49,280r-102,-18r47,-262r-267,0r0,-103r285,0r39,-219r-266,0r0,-102r282,0r50,-281r102,19r-47,262r223,0r49,-281r101,19r-46,262r267,0r0,102r-285,0r-39,219r266,0r0,103r-284,0","w":1241},"$":{"d":"508,213r-102,0r0,-256v-98,-16,-224,-84,-242,-297r102,-4v14,162,109,203,195,203v141,0,207,-117,207,-199v0,-92,-113,-139,-224,-164v-242,-53,-264,-178,-264,-229v0,-182,122,-269,226,-289r0,-256r102,0r0,252v152,20,244,142,250,285r-103,4v-2,-80,-53,-189,-192,-189v-94,0,-180,70,-180,191v0,53,55,104,182,131v291,63,305,211,305,264v0,121,-84,274,-262,297r0,256","w":933},"%":{"d":"1063,-203v0,152,-115,219,-203,219v-152,0,-219,-114,-219,-202v0,-152,115,-220,203,-220v152,0,219,115,219,203xm743,-188v0,43,33,102,115,102v43,0,103,-33,103,-113v0,-45,-33,-104,-113,-104v-45,0,-105,33,-105,115xm123,-872v0,-152,115,-220,203,-220v152,0,219,115,219,203v0,154,-115,219,-203,219v-152,0,-219,-114,-219,-202xm442,-885v0,-45,-32,-104,-112,-104v-45,0,-105,35,-105,115v0,43,33,102,115,102v43,0,102,-33,102,-113xm297,-23r500,-1073r94,43r-502,1076","w":1185},"&":{"d":"1118,-459v0,307,-242,484,-471,484v-305,0,-483,-242,-483,-471v0,-217,120,-369,276,-441v-94,-63,-149,-172,-149,-278v0,-223,172,-353,340,-353v221,0,350,172,350,338r-102,0v0,-119,-92,-235,-248,-235v-117,0,-238,92,-238,248v0,117,92,237,244,237r0,103v-195,0,-371,151,-371,378v0,184,143,371,379,371v184,0,371,-143,371,-381r0,-368r-103,0r0,-103r103,0r0,-102r102,0r0,102r273,0r0,103r-273,0r0,368","w":1431},"'":{"d":"240,-1491r-21,418r-96,0r-21,-418r138,0","w":342},"(":{"d":"694,385r-73,72v-272,-276,-437,-655,-437,-1061v0,-430,171,-807,443,-1077r71,71v-252,252,-411,603,-411,1006v0,379,151,731,407,989","w":759},")":{"d":"66,385v254,-258,407,-610,407,-989v0,-403,-160,-754,-412,-1006r72,-71v270,270,442,647,442,1077v0,406,-164,785,-438,1061","w":759},"*":{"d":"444,-1161r-280,-144r45,-77r266,165r-10,-313r90,0r-16,313r268,-165r43,79r-281,142r281,143r-43,78r-268,-166r16,313r-90,0r10,-311r-266,166r-45,-80","w":1013},"+":{"d":"561,-1020r103,0r0,459r458,0r0,102r-458,0r0,459r-103,0r0,-459r-459,0r0,-102r459,0r0,-459","w":1224},",":{"d":"254,-289r123,41r-168,418r-86,-31","w":497},"-":{"d":"649,-680r17,100r-586,105r-19,-100","w":727},".":{"d":"205,-90v0,-53,45,-98,98,-98v53,0,98,45,98,98v0,53,-45,98,-98,98v-53,0,-98,-45,-98,-98","w":606},"\/":{"d":"219,301r-96,-35r700,-1925r97,35","w":919},"0":{"d":"215,-530v0,-371,250,-572,471,-572v289,0,481,268,481,559v0,371,-250,572,-471,572v-289,0,-481,-268,-481,-559xm1065,-543v0,-236,-152,-456,-379,-456v-195,0,-369,190,-369,469v0,236,150,456,377,456v197,0,371,-190,371,-469","w":1382},"1":{"d":"348,-1073r0,1073r-102,0r0,-1073r102,0","w":593},"2":{"d":"102,-999v63,-68,154,-103,240,-103v221,0,344,172,344,332v0,55,-10,121,-47,182r-274,486r450,0r0,102r-625,0r359,-639v20,-33,35,-78,35,-129v0,-109,-84,-231,-240,-231v-59,0,-123,24,-168,73","w":915},"3":{"d":"668,-774v0,49,-12,107,-41,166v166,102,266,284,266,477v0,344,-270,573,-561,573v-109,0,-209,-28,-291,-75r51,-88v68,39,150,61,240,61v238,0,459,-188,459,-469v0,-199,-127,-383,-332,-442v61,-41,106,-115,106,-193v0,-109,-85,-231,-241,-231v-57,0,-123,24,-168,73r-74,-71v66,-68,154,-105,240,-105v217,0,346,172,346,324","w":974},"4":{"d":"844,-848r-625,746r625,0r0,-746xm946,-1128r0,1026r150,0r0,102r-150,0r0,319r-102,0r0,-319r-844,0","w":1198},"5":{"d":"205,-457r53,-616r705,0r0,102r-611,0r-28,344v66,-66,134,-65,204,-65v344,0,574,270,574,561v0,344,-270,573,-561,573v-111,0,-209,-28,-291,-75r51,-88v68,39,148,61,238,61v240,0,460,-188,460,-469v0,-240,-188,-461,-469,-461v-115,0,-233,43,-325,133","w":1224},"6":{"d":"422,-897v55,-20,115,-33,172,-33v305,0,483,242,483,471v0,305,-242,484,-471,484v-305,0,-483,-242,-483,-471v0,-76,14,-164,65,-250r480,-832r90,51xm596,-827v-184,0,-371,142,-371,378v0,184,143,371,379,371v184,0,371,-143,371,-379v0,-184,-143,-370,-379,-370","w":1169},"7":{"d":"1049,-1073r-877,1517r-90,-51r788,-1364r-809,0r0,-102r988,0","w":1048},"8":{"d":"246,-449v0,184,143,371,379,371v184,0,370,-143,370,-379v0,-182,-139,-370,-372,-370v-213,0,-377,161,-377,378xm143,-446v0,-315,248,-441,330,-443v-23,-4,-199,-69,-199,-276v0,-223,179,-355,347,-355v221,0,344,176,344,342v0,109,-35,160,-80,215v-20,23,-94,68,-117,74v39,2,158,41,238,152v59,82,92,182,92,278v0,305,-242,484,-471,484v-305,0,-484,-242,-484,-471xm621,-930v119,0,241,-92,241,-246v0,-119,-87,-239,-241,-239v-119,0,-244,92,-244,248v0,111,84,237,244,237","w":1241},"9":{"d":"750,-184v-57,23,-118,32,-175,32v-305,0,-483,-242,-483,-471v0,-303,242,-483,471,-483v305,0,484,244,484,471v0,76,-15,164,-64,250r-481,831r-88,-49xm573,-254v184,0,371,-141,371,-379v0,-184,-143,-371,-379,-371v-184,0,-370,143,-370,381v0,182,142,369,378,369","w":1169},":":{"d":"225,-90v0,-53,46,-98,99,-98v53,0,98,45,98,98v0,53,-45,98,-98,98v-53,0,-99,-45,-99,-98xm225,-985v0,-53,46,-98,99,-98v53,0,98,45,98,98v0,55,-45,98,-98,98v-53,0,-99,-43,-99,-98","w":647},";":{"d":"287,-985v0,-53,45,-98,98,-98v55,0,98,45,98,98v0,55,-43,98,-98,98v-53,0,-98,-43,-98,-98xm356,-289r123,41r-168,418r-86,-31","w":708},"<":{"d":"1061,-53r-51,88r-949,-547r947,-547r51,88r-793,459","w":1204},"=":{"d":"1225,-610r-1020,0r0,-103r1020,0r0,103xm1225,-307r-1020,0r0,-103r1020,0r0,103","w":1429},">":{"d":"143,-971r52,-88r948,545r-946,549r-52,-88r793,-461","w":1204},"?":{"d":"102,-1399v82,-84,197,-125,297,-125v299,0,437,232,437,416v0,139,-49,243,-123,315v-70,70,-160,107,-246,119r-12,330r-78,0r-17,-436r111,2v57,-12,121,-39,170,-88v53,-53,92,-131,92,-242v0,-113,-74,-274,-262,-307v-23,-4,-45,-6,-72,-6v-12,0,-25,0,-39,2v-61,8,-131,39,-186,94xm315,-90v0,-53,46,-98,99,-98v55,0,98,45,98,98v0,53,-43,98,-98,98v-53,0,-99,-45,-99,-98","w":958},"@":{"d":"1145,-233v-119,0,-129,-71,-129,-132r0,-32v-55,82,-139,129,-250,129v-240,0,-401,-191,-401,-394v0,-242,190,-401,393,-401v123,0,207,49,258,125r0,-100r71,0v0,0,-4,188,-4,395r0,182v0,141,7,156,62,156v145,0,315,-152,315,-363v0,-373,-291,-641,-641,-641v-350,0,-635,272,-635,639v0,352,274,637,641,637v193,0,324,-82,385,-129r43,58v-70,51,-213,143,-428,143v-408,0,-712,-318,-712,-709v0,-406,317,-710,708,-710v387,0,711,298,711,712v0,233,-184,435,-387,435xm1016,-870v-57,-72,-147,-121,-258,-121v-166,0,-322,130,-322,329v0,166,131,322,330,322v96,0,189,-45,250,-121r0,-409","w":1634},"A":{"d":"102,-23r709,-1515r707,1515r-101,48r-258,-553r-698,0r-258,553xm1108,-639r-299,-639r-297,639r596,0","w":1619},"B":{"d":"801,-823v63,6,291,135,291,393v0,268,-209,430,-416,430r-430,0r0,-1491r372,0v244,0,388,191,388,373v0,131,-49,192,-74,219v-23,23,-98,70,-131,76xm674,-111v152,0,307,-118,307,-317v0,-143,-105,-305,-281,-305r-344,0r0,622r318,0xm356,-844r318,0v115,-20,221,-120,221,-272v0,-131,-107,-264,-277,-264r-262,0r0,536","w":1286},"C":{"d":"223,-743v0,358,287,669,678,669v174,0,344,-69,471,-192r78,78v-145,143,-342,225,-547,225v-467,0,-790,-370,-790,-778v0,-467,370,-791,778,-791v229,0,426,91,565,232r-78,77v-119,-121,-286,-198,-487,-198v-356,0,-668,287,-668,678","w":1650},"D":{"d":"618,-1491v414,0,750,329,750,743v0,414,-336,748,-750,748r-372,0r0,-1491r372,0xm618,-1380r-262,0r0,1269r262,0v352,0,637,-285,637,-637v0,-352,-285,-632,-637,-632","w":1480},"E":{"d":"807,-844r0,111r-451,0r0,622r643,0r0,111r-753,0r0,-1491r676,0r0,111r-566,0r0,536r451,0","w":1204},"F":{"d":"246,-1491r753,0r0,111r-643,0r0,536r451,0r0,111r-451,0r0,733r-110,0r0,-1491","w":1122},"G":{"d":"223,-743v0,358,287,669,678,669v160,0,317,-60,438,-164r0,-290r-438,0r0,-111r549,0r0,451v-145,143,-342,225,-547,225v-467,0,-790,-370,-790,-778v0,-467,370,-791,778,-791v229,0,426,91,565,232r-78,77v-119,-121,-286,-198,-487,-198v-356,0,-668,287,-668,678","w":1650},"H":{"d":"246,0r0,-1491r110,0r0,647r791,0r0,-647r110,0r0,1491r-110,0r0,-733r-791,0r0,733r-110,0","w":1503},"I":{"d":"356,0r-110,0r0,-1491r110,0r0,1491","w":602},"J":{"d":"109,-242v31,152,159,297,368,297v174,0,365,-132,365,-370r0,-1176r110,0r0,553v0,487,2,547,2,608v0,311,-242,496,-475,496v-270,0,-438,-188,-479,-389","w":1198},"K":{"d":"545,-791r747,748r-78,78r-825,-826r729,-729r78,78xm356,0r-110,0r0,-1491r110,0r0,1491","w":1415},"L":{"d":"246,0r0,-1491r110,0r0,1380r787,0r0,111r-897,0","w":1214},"M":{"d":"977,-670r729,-870r0,1540r-111,0r0,-1237r-618,739r-621,-739r0,1237r-110,0r0,-1540","w":1951},"N":{"d":"246,-1540r1079,1286r0,-1237r111,0r0,1540r-1080,-1286r0,1237r-110,0r0,-1540","w":1681},"O":{"d":"113,-741v0,-467,370,-791,778,-791v467,0,790,370,790,778v0,467,-370,791,-778,791v-467,0,-790,-370,-790,-778xm1571,-748v0,-369,-289,-673,-680,-673v-342,0,-668,270,-668,678v0,342,270,669,678,669v344,0,670,-271,670,-674","w":1794},"P":{"d":"356,0r-110,0r0,-1491r456,0v301,0,476,244,476,475v0,295,-227,488,-469,488r-353,0r0,528xm356,-639r351,0v174,0,360,-137,360,-377v0,-172,-132,-364,-365,-364r-346,0r0,741","w":1300},"Q":{"d":"1681,-754v0,201,-71,408,-231,566r223,223r-78,78r-229,-230v-133,98,-295,154,-463,154v-467,0,-790,-370,-790,-778v0,-469,370,-791,778,-791v467,0,790,370,790,778xm901,-74v342,0,670,-271,670,-674v0,-369,-289,-673,-680,-673v-342,0,-668,270,-668,678v0,342,270,669,678,669","w":1845},"R":{"d":"1178,-1016v0,258,-189,469,-408,469v-51,0,-117,-12,-129,-16r520,522r-78,78r-675,-676r299,0v174,0,360,-137,360,-377v0,-172,-132,-364,-365,-364r-346,0r0,1380r-110,0r0,-1491r456,0v301,0,476,244,476,475","w":1351},"S":{"d":"1061,-420v0,217,-177,465,-486,465v-156,0,-431,-76,-462,-471r110,-6v25,307,224,366,355,366v236,0,372,-190,372,-354v0,-133,-61,-219,-401,-307v-190,-51,-371,-156,-371,-383v0,-295,238,-408,404,-408v252,0,409,185,419,408r-110,6v-8,-168,-123,-303,-307,-303v-133,0,-295,88,-295,293v0,168,133,239,289,278v397,104,483,236,483,416","w":1214},"T":{"d":"664,0r-111,0r0,-1380r-512,0r0,-111r1126,0r0,111r-503,0r0,1380","w":1208},"U":{"d":"1372,-539v0,352,-281,570,-557,570v-352,0,-569,-279,-569,-555r0,-967r110,0r0,963v0,223,174,448,459,448v221,0,447,-176,447,-459r0,-952r110,0r0,952","w":1617},"V":{"d":"20,-1464r101,-47r606,1302r608,-1302r101,47r-709,1515","w":1454},"W":{"d":"799,-1464r100,-47r606,1302r609,-1302r100,47r-709,1515r-389,-833r-389,833r-707,-1515r101,-47r606,1302r330,-704","w":2232},"X":{"d":"1491,-35r-84,72r-621,-739r-618,737r-86,-70r633,-753r-561,-670r84,-70r555,660r555,-662r84,72r-568,676","w":1572},"Y":{"d":"664,0r-111,0r0,-453r-471,-1011r100,-47r426,917r428,-917r101,47r-473,1013r0,451","w":1218},"Z":{"d":"279,-111r1196,0r0,111r-1434,0r1159,-1380r-1003,0r0,-111r1239,0","w":1515},"[":{"d":"266,410r0,-2048r477,0r0,102r-374,0r0,1843r374,0r0,103r-477,0","w":743},"\\":{"d":"700,301r-700,-1925r96,-35r701,1925","w":919},"]":{"d":"475,410r-475,0r0,-103r373,0r0,-1843r-373,0r0,-102r475,0r0,2048","w":741},"^":{"d":"723,-918r-244,-524r-243,524r-93,-43r336,-722r336,722","w":958},"_":{"d":"1024,154r0,102r-1024,0r0,-102r1024,0","w":1024},"`":{"d":"102,-1491r91,-92r307,328r-64,65","w":602},"a":{"d":"143,-535v0,-344,271,-573,562,-573v176,0,294,72,368,178r0,-143r103,0r0,1073r-103,0r0,-156v-78,115,-198,183,-356,183v-344,0,-574,-271,-574,-562xm1073,-834v-82,-102,-210,-172,-366,-172v-240,0,-461,188,-461,469v0,240,188,461,469,461v139,0,272,-63,358,-172r0,-586"},"b":{"d":"1278,-535v0,291,-229,562,-573,562v-158,0,-279,-68,-357,-183r0,156r-102,0r0,-1638r102,0r0,708v74,-106,193,-178,369,-178v291,0,561,229,561,573xm348,-834r0,586v86,109,220,172,359,172v281,0,469,-221,469,-461v0,-281,-221,-469,-461,-469v-156,0,-285,70,-367,172"},"c":{"d":"246,-537v0,240,188,461,469,461v127,0,248,-53,334,-143r73,72v-104,111,-253,174,-405,174v-344,0,-574,-271,-574,-562v0,-344,271,-573,562,-573v174,0,317,70,417,174r-73,74v-82,-88,-201,-146,-342,-146v-240,0,-461,188,-461,469","w":1245},"d":{"d":"143,-535v0,-344,271,-573,562,-573v176,0,294,72,368,178r0,-708r103,0r0,1638r-103,0r0,-156v-78,115,-200,183,-356,183v-344,0,-574,-271,-574,-562xm1073,-834v-82,-102,-210,-172,-366,-172v-240,0,-461,188,-461,469v0,240,188,461,469,461v139,0,270,-63,358,-172r0,-586"},"e":{"d":"246,-537v0,240,188,461,471,461v82,0,163,-22,233,-63r51,88v-86,51,-184,78,-284,78v-344,0,-574,-271,-574,-562v0,-344,273,-573,564,-573v274,0,476,172,546,395xm258,-641r848,-150v-80,-127,-221,-215,-399,-215v-207,0,-402,142,-449,365","w":1345},"f":{"d":"831,-1073r0,102r-483,0r0,971r-102,0r0,-971r-103,0r0,-102r103,0v4,-340,272,-565,561,-565r147,0r0,102r-147,0v-236,0,-455,184,-459,463r483,0","w":851},"g":{"d":"1075,-1038r103,0r0,780r0,102v-6,340,-275,566,-562,566r-147,0r0,-103r147,0v236,0,455,-184,459,-463v-74,109,-194,185,-368,185v-291,0,-564,-230,-564,-574v0,-291,230,-563,574,-563v158,0,278,67,358,184r0,-114xm1075,-246r0,-588v-88,-109,-221,-172,-358,-172v-283,0,-471,223,-471,461v0,283,223,471,461,471v158,0,284,-70,368,-172","w":1423},"h":{"d":"997,0r0,-733v0,-135,-106,-273,-280,-273v-158,0,-285,70,-369,172r0,834r-102,0r0,-1638r102,0r0,708v76,-106,195,-178,369,-178v242,0,383,189,383,373r0,735r-103,0","w":1345},"i":{"d":"397,0r-102,0r0,-1073r102,0r0,1073xm246,-1348v0,-53,45,-98,98,-98v53,0,98,45,98,98v0,53,-45,99,-98,99v-53,0,-98,-46,-98,-99","w":688},"j":{"d":"246,336v82,-82,135,-199,135,-336r0,-1073r102,0r0,1071r0,2v0,168,-66,310,-166,408xm332,-1348v0,-53,45,-98,98,-98v55,0,98,45,98,98v0,53,-43,99,-98,99v-53,0,-98,-46,-98,-99","w":774},"k":{"d":"348,0r-102,0r0,-1638r102,0r0,1638xm1022,-1040r-500,499r502,502r-72,72r-573,-574r571,-571","w":1167},"l":{"d":"348,0r-102,0r0,-1638r102,0r0,1638","w":593},"m":{"d":"1096,-950v76,-109,194,-158,368,-158v242,0,383,189,383,373r0,735r-102,0r0,-733v0,-135,-105,-273,-281,-273v-158,0,-284,70,-368,172r0,54v2,14,4,29,4,45r0,735r-103,0r0,-733v0,-135,-106,-273,-282,-273v-156,0,-285,70,-367,172r0,834r-102,0r0,-1073r102,0r0,143v74,-106,193,-178,369,-178v166,0,287,90,344,207","w":2093},"n":{"d":"821,-1108v240,0,381,189,381,373r0,735r-102,0r0,-733v0,-135,-105,-273,-281,-273v-283,0,-471,221,-471,461r0,545r-102,0r0,-1073r102,0r0,272v29,-131,266,-307,473,-307","w":1447},"o":{"d":"143,-535v0,-344,271,-573,562,-573v344,0,573,270,573,561v0,344,-270,574,-561,574v-344,0,-574,-271,-574,-562xm1176,-545v0,-240,-188,-461,-469,-461v-240,0,-461,188,-461,469v0,240,188,461,469,461v240,0,461,-188,461,-469"},"p":{"d":"1278,-545v0,344,-270,574,-561,574v-176,0,-295,-72,-369,-181r0,562r-102,0r0,-1489r102,0r0,155v78,-117,199,-184,357,-184v344,0,573,272,573,563xm348,-246v82,102,211,172,367,172v240,0,461,-188,461,-471v0,-238,-188,-461,-469,-461v-139,0,-273,63,-359,172r0,588"},"q":{"d":"143,-545v0,-291,230,-563,574,-563v158,0,278,67,356,184r0,-155r103,0r0,1489r-103,0r0,-562v-74,109,-192,181,-368,181v-291,0,-562,-230,-562,-574xm1073,-246r0,-588v-86,-109,-219,-172,-358,-172v-281,0,-469,223,-469,461v0,283,221,471,461,471v156,0,284,-70,366,-172"},"r":{"d":"348,-801v29,-131,266,-307,473,-307r0,102v-283,0,-473,221,-473,461r0,545r-102,0r0,-1073r102,0r0,272","w":903},"s":{"d":"440,-797v0,164,371,211,371,451v0,18,-4,31,-10,51v-82,274,-596,316,-651,320r-7,-103v307,-20,566,-143,566,-272v0,-156,-371,-214,-371,-447r0,-4v0,-16,0,-23,4,-37v66,-256,516,-268,543,-272r6,102v-31,0,-451,33,-451,211","w":1093},"t":{"d":"631,23v-240,0,-385,-189,-385,-373r0,-621r-103,0r0,-102r103,0r0,-303r102,0r0,303r483,0r0,102r-483,0r0,619v0,135,107,272,281,272v49,0,98,-14,141,-39r51,88v-57,35,-124,54,-190,54","w":954},"u":{"d":"627,27v-240,0,-381,-189,-381,-373r0,-727r102,0r0,725v0,135,105,272,281,272v283,0,471,-221,471,-461r0,-536r102,0r0,1073r-102,0r0,-281v-29,131,-266,308,-473,308","w":1447},"v":{"d":"184,-1108r426,911r426,-911r92,43r-518,1110r-518,-1110","w":1218},"w":{"d":"776,-1106r426,913r426,-913r92,45r-518,1110r-297,-637r-295,633r-518,-1110r92,-43r426,911r240,-512r-166,-354","w":1812},"x":{"d":"1145,-20r-78,65r-444,-528r-443,528r-78,-65r455,-541r-405,-486r77,-65r400,475r399,-475r78,65r-412,490","w":1245},"y":{"d":"334,395r219,-471r-461,-989r92,-43r426,911r426,-911r92,43r-702,1505","w":1220},"z":{"d":"322,-102r854,0r0,102r-1074,0r816,-971r-725,0r0,-102r944,0","w":1277},"{":{"d":"246,-666v88,0,200,-65,200,-208r0,-510v0,-172,129,-254,240,-254r236,0r0,102r-232,0v-61,0,-141,46,-141,150r0,509v0,43,-6,179,-135,263v129,84,135,219,135,262r0,510v0,104,80,149,141,149r232,0r0,103r-236,0v-111,0,-240,-82,-240,-254r0,-510v0,-143,-112,-209,-200,-209r0,-103","w":921},"|":{"d":"348,410r-102,0r0,-2048r102,0r0,2048","w":593},"}":{"d":"676,-666r0,103v-88,0,-201,66,-201,209r0,510v0,172,-126,254,-239,254r-236,0r0,-103r231,0v61,0,142,-45,142,-149r0,-510v0,-43,6,-178,135,-262v-129,-84,-135,-220,-135,-263r0,-509v0,-104,-81,-150,-142,-150r-231,0r0,-102r236,0v113,0,239,82,239,254r0,510v0,143,113,208,201,208","w":921},"~":{"d":"1145,-473v-129,104,-152,141,-287,141v-121,0,-174,-55,-285,-139v-115,-86,-135,-119,-237,-119v-82,0,-100,29,-211,117r-64,-80v100,-80,148,-139,275,-139v141,0,178,49,297,139v94,70,137,119,227,119v92,0,98,-21,221,-119","w":1206},"\u00c1":{"d":"1145,-1921r-334,301r-63,-66r307,-327xm102,-23r709,-1515r707,1515r-101,48r-258,-553r-698,0r-258,553xm1108,-639r-299,-639r-297,639r596,0","w":1619},"\u00c9":{"d":"918,-1915r-334,301r-64,-65r307,-328xm807,-844r0,111r-451,0r0,622r643,0r0,111r-753,0r0,-1491r676,0r0,111r-566,0r0,536r451,0","w":1204},"\u00cd":{"d":"635,-1915r-334,301r-63,-65r307,-328xm356,0r-110,0r0,-1491r110,0r0,1491","w":602},"\u00d3":{"d":"1225,-1915r-334,301r-64,-65r308,-328xm113,-741v0,-467,370,-791,778,-791v467,0,790,370,790,778v0,467,-370,791,-778,791v-467,0,-790,-370,-790,-778xm1571,-748v0,-369,-289,-673,-680,-673v-342,0,-668,270,-668,678v0,342,270,669,678,669v344,0,670,-271,670,-674","w":1794},"\u00d6":{"d":"590,-1712v0,-55,45,-98,98,-98v55,0,98,43,98,98v0,53,-43,98,-98,98v-53,0,-98,-45,-98,-98xm993,-1712v0,-55,46,-98,99,-98v55,0,98,43,98,98v0,53,-43,98,-98,98v-53,0,-99,-45,-99,-98xm113,-741v0,-467,370,-791,778,-791v467,0,790,370,790,778v0,467,-370,791,-778,791v-467,0,-790,-370,-790,-778xm1571,-748v0,-369,-289,-673,-680,-673v-342,0,-668,270,-668,678v0,342,270,669,678,669v344,0,670,-271,670,-674","w":1794},"\u00da":{"d":"1143,-1915r-334,301r-64,-65r308,-328xm1372,-539v0,352,-281,570,-557,570v-352,0,-569,-279,-569,-555r0,-967r110,0r0,963v0,223,174,448,459,448v221,0,447,-176,447,-459r0,-952r110,0r0,952","w":1617},"\u00dc":{"d":"508,-1712v0,-55,45,-98,98,-98v55,0,99,43,99,98v0,53,-44,98,-99,98v-53,0,-98,-45,-98,-98xm911,-1712v0,-55,46,-98,99,-98v55,0,98,43,98,98v0,53,-43,98,-98,98v-53,0,-99,-45,-99,-98xm1372,-539v0,352,-281,570,-557,570v-352,0,-569,-279,-569,-555r0,-967r110,0r0,963v0,223,174,448,459,448v221,0,447,-176,447,-459r0,-952r110,0r0,952","w":1617},"\u00e1":{"d":"1038,-1491r-333,301r-64,-65r307,-328xm143,-535v0,-344,271,-573,562,-573v176,0,294,72,368,178r0,-143r103,0r0,1073r-103,0r0,-156v-78,115,-198,183,-356,183v-344,0,-574,-271,-574,-562xm1073,-834v-82,-102,-210,-172,-366,-172v-240,0,-461,188,-461,469v0,240,188,461,469,461v139,0,272,-63,358,-172r0,-586"},"\u00e9":{"d":"1040,-1491r-333,301r-64,-65r307,-328xm246,-537v0,240,188,461,471,461v82,0,163,-22,233,-63r51,88v-86,51,-184,78,-284,78v-344,0,-574,-271,-574,-562v0,-344,273,-573,564,-573v274,0,476,172,546,395xm258,-641r848,-150v-80,-127,-221,-215,-399,-215v-207,0,-402,142,-449,365","w":1345},"\u00ed":{"d":"680,-1491r-334,301r-63,-65r307,-328xm397,0r-102,0r0,-1073r102,0r0,1073","w":688},"\u00f3":{"d":"1038,-1491r-333,301r-64,-65r307,-328xm143,-535v0,-344,271,-573,562,-573v344,0,573,270,573,561v0,344,-270,574,-561,574v-344,0,-574,-271,-574,-562xm1176,-545v0,-240,-188,-461,-469,-461v-240,0,-461,188,-461,469v0,240,188,461,469,461v240,0,461,-188,461,-469"},"\u00f6":{"d":"406,-1288v0,-53,43,-98,98,-98v53,0,98,45,98,98v0,53,-45,98,-98,98v-55,0,-98,-45,-98,-98xm809,-1288v0,-53,43,-98,98,-98v53,0,99,45,99,98v0,53,-46,98,-99,98v-55,0,-98,-45,-98,-98xm143,-535v0,-344,271,-573,562,-573v344,0,573,270,573,561v0,344,-270,574,-561,574v-344,0,-574,-271,-574,-562xm1176,-545v0,-240,-188,-461,-469,-461v-240,0,-461,188,-461,469v0,240,188,461,469,461v240,0,461,-188,461,-469"},"\u00fa":{"d":"1059,-1491r-336,301r-64,-65r308,-328xm627,27v-240,0,-381,-189,-381,-373r0,-727r102,0r0,725v0,135,105,272,281,272v283,0,471,-221,471,-461r0,-536r102,0r0,1073r-102,0r0,-281v-29,131,-266,308,-473,308","w":1447},"\u00fc":{"d":"424,-1288v0,-53,43,-98,98,-98v53,0,99,45,99,98v0,53,-46,98,-99,98v-55,0,-98,-45,-98,-98xm827,-1288v0,-53,44,-98,99,-98v53,0,98,45,98,98v0,53,-45,98,-98,98v-55,0,-99,-45,-99,-98xm627,27v-240,0,-381,-189,-381,-373r0,-727r102,0r0,725v0,135,105,272,281,272v283,0,471,-221,471,-461r0,-536r102,0r0,1073r-102,0r0,-281v-29,131,-266,308,-473,308","w":1447},"\u0150":{"d":"1022,-1915r-334,301r-63,-65r307,-328xm1427,-1915r-333,301r-64,-65r307,-328xm113,-741v0,-467,370,-791,778,-791v467,0,790,370,790,778v0,467,-370,791,-778,791v-467,0,-790,-370,-790,-778xm1571,-748v0,-369,-289,-673,-680,-673v-342,0,-668,270,-668,678v0,342,270,669,678,669v344,0,670,-271,670,-674","w":1794},"\u0151":{"d":"836,-1491r-334,301r-64,-65r307,-328xm1241,-1491r-334,301r-63,-65r307,-328xm143,-535v0,-344,271,-573,562,-573v344,0,573,270,573,561v0,344,-270,574,-561,574v-344,0,-574,-271,-574,-562xm1176,-545v0,-240,-188,-461,-469,-461v-240,0,-461,188,-461,469v0,240,188,461,469,461v240,0,461,-188,461,-469"},"\u0170":{"d":"940,-1915r-334,301r-63,-65r307,-328xm1346,-1915r-334,301r-64,-65r307,-328xm1372,-539v0,352,-281,570,-557,570v-352,0,-569,-279,-569,-555r0,-967r110,0r0,963v0,223,174,448,459,448v221,0,447,-176,447,-459r0,-952r110,0r0,952","w":1617},"\u0171":{"d":"854,-1491r-334,301r-63,-65r307,-328xm1262,-1491r-336,301r-64,-65r309,-328xm627,27v-240,0,-381,-189,-381,-373r0,-727r102,0r0,725v0,135,105,272,281,272v283,0,471,-221,471,-461r0,-536r102,0r0,1073r-102,0r0,-281v-29,131,-266,308,-473,308","w":1447},"\u00a0":{"w":819}}});
