/*!
 * The following copyright notice may not be removed under any circumstances.
 * 
 * Copyright:
 * Enigmatic ©2003 by Starving-4 Entertainment, dart@puzzlers.org This font is
 * licensed under the terms of the Design Science Licence:
 * http://dsl.org/copyleft/dsl.txt
 * 
 * Description:
 * I created this font in FCP's thirty day trial. Since then it's undergone a
 * number of renovations, and it's looking pretty good.
 * 
 * Manufacturer:
 * Starving-4 Entertainment
 * 
 * Designer:
 * Darren Rigby
 * 
 * Vendor URL:
 * http://dartcanada.tripod.com/Objets
 */
Cufon.registerFont({"w":1194,"face":{"font-family":"Enigmatic","font-weight":400,"font-stretch":"normal","units-per-em":"2048","panose-1":"2 0 0 0 0 0 0 0 0 0","ascent":"1638","descent":"-410","x-height":"21","bbox":"-154 -1877 1758 405","underline-thickness":"40.96","underline-position":"-119.467","unicode-range":"U+0020-U+00FC"},"glyphs":{" ":{"w":512},"!":{"d":"192,-320r21,-1216r-213,0r30,1216r162,0xm107,0v71,0,106,-36,106,-107v0,-71,-35,-106,-106,-106v-71,0,-107,35,-107,106v0,71,36,107,107,107","w":384},"\"":{"d":"427,-1280r42,0v46,-85,75,-156,86,-213v0,-85,-36,-128,-107,-128v-71,0,-107,43,-107,128v11,57,40,128,86,213xm85,-1280r43,0v46,-85,74,-156,85,-213v0,-85,-35,-128,-106,-128v-71,0,-107,43,-107,128v11,57,39,128,85,213","w":725},"#":{"d":"85,0r214,0r76,-341r299,0r-77,341r214,0r76,-341r180,0r0,-128r-154,0r137,-598r187,0r0,-128r-162,0r77,-341r-213,0r-77,341r-299,0r77,-341r-213,0r-77,341r-179,0r0,128r149,0r-128,598r-192,0r0,128r162,0xm405,-469r128,-598r299,0r-132,598r-295,0","w":1408},"$":{"d":"627,-905r0,-396v156,0,235,49,235,149r0,85r213,0r0,-128v0,-185,-149,-277,-448,-277r0,-107r-128,0r0,107v-299,0,-448,92,-448,277r0,192v0,142,137,235,410,278r38,6r0,420v-156,0,-234,-49,-234,-149r0,-85r-214,0r0,128v0,185,149,277,448,277r0,149r128,0r0,-149v299,0,448,-92,448,-277r0,-171v0,-171,-136,-277,-409,-320xm265,-1088r0,-64v0,-100,78,-149,234,-149r0,379r-38,-6v-131,-22,-196,-75,-196,-160xm627,-700r26,6v134,22,199,76,196,161r0,85v0,100,-74,149,-222,149r0,-401"},"%":{"d":"1365,-555v0,-128,-107,-192,-320,-192v-213,0,-320,64,-320,192r0,384v0,128,107,192,320,192v213,0,320,-64,320,-192r0,-384xm1216,-213v0,71,-57,106,-171,106v-114,0,-170,-35,-170,-106r0,-299v0,-71,56,-107,170,-107v114,0,171,36,171,107r0,299xm1131,-1536r-1131,1536r235,0r1130,-1536r-234,0xm640,-1365v0,-128,-107,-192,-320,-192v-213,0,-320,64,-320,192r0,384v0,128,107,192,320,192v213,0,320,-64,320,-192r0,-384xm491,-1024v0,71,-57,107,-171,107v-114,0,-171,-36,-171,-107r0,-299v0,-71,57,-106,171,-106v114,0,171,35,171,106r0,299","w":1536},"&":{"d":"585,-1387v-191,0,-286,48,-286,145r0,26v0,42,21,91,63,148r675,765v19,-32,29,-74,30,-124r0,-213r213,0r0,299v-1,80,-28,147,-80,204r108,137r-264,0r-23,-27v-97,41,-239,57,-424,48v-398,0,-597,-135,-597,-405r0,-384v0,-128,64,-192,192,-192v-71,-69,-107,-148,-107,-235r0,-85v0,-185,163,-277,489,-277v357,0,535,92,535,277r0,213r-213,0r0,-170v0,-100,-103,-150,-311,-150xm213,-427v0,185,128,278,384,278v117,0,211,-13,282,-39r-538,-601v-85,-43,-128,-8,-128,106r0,256","w":1450},"'":{"d":"107,-1323v0,43,-36,64,-107,64r0,64v142,0,213,-78,213,-234v0,-71,-35,-107,-106,-107v-71,0,-107,36,-107,107v0,71,36,106,107,106","w":384},"(":{"d":"533,-1707v-356,57,-533,370,-533,939v0,569,177,882,533,939r0,-171v-213,-85,-320,-341,-320,-768v0,-427,107,-683,320,-768r0,-171","w":704},")":{"d":"0,171v356,-57,533,-370,533,-939v0,-569,-177,-882,-533,-939r0,171v213,85,320,341,320,768v0,427,-107,683,-320,768r0,171","w":704},"*":{"d":"288,-1221r-160,-111r29,-89r195,4r56,-186r93,0r56,187r195,-4r29,89r-161,111r64,184r-75,55r-155,-119r-154,118r-76,-55","w":907},"+":{"d":"341,-341r0,-342r-341,0r0,-170r341,0r0,-342r171,0r0,342r341,0r0,170r-341,0r0,342r-171,0","w":1024},",":{"d":"107,0v0,100,-36,149,-107,149r0,64v142,0,213,-107,213,-320v0,-71,-35,-106,-106,-106v-71,0,-107,35,-107,106v0,71,36,107,107,107","w":384},"-":{"d":"853,-683r0,-170r-853,0r0,170r853,0","w":1024},"\u2010":{"d":"853,-683r0,-170r-853,0r0,170r853,0","w":1024},".":{"d":"232,3v70,0,105,-36,105,-108v0,-73,-35,-109,-105,-109v-70,0,-105,36,-105,109v0,72,35,108,105,108","w":465},"\/":{"d":"1024,-1579r-896,1622r-213,0r896,-1622r213,0","w":937},"0":{"d":"759,-299v0,100,-82,150,-247,150v-165,0,-247,-50,-247,-150r0,-938v0,-100,82,-150,247,-150v165,0,247,50,247,150r0,938xm973,-1280v0,-185,-154,-277,-461,-277v-307,0,-461,92,-461,277r0,1024v0,185,154,277,461,277v307,0,461,-92,461,-277r0,-1024"},"1":{"d":"282,-1408r0,171r247,0r0,1237r213,0r0,-1536r-213,0v0,85,-82,128,-247,128"},"2":{"d":"811,-1067r0,-170v0,-100,-101,-150,-301,-150v-198,0,-297,50,-297,150r0,170r-213,0r0,-213v0,-185,171,-277,512,-277v341,0,512,92,512,277r0,256v0,142,-137,234,-410,277r-204,32v-131,22,-197,75,-197,160r0,384r811,0r0,171r-1024,0r0,-597v0,-142,137,-235,410,-278r204,-31v131,-22,197,-76,197,-161"},"3":{"d":"512,-1387v199,0,299,50,299,150r0,213v0,85,-57,128,-171,128r-299,0r0,171r299,0v114,0,171,43,171,128r0,298v0,100,-100,150,-299,150v-199,0,-299,-50,-299,-150r0,-170r-213,0r0,213v0,185,171,277,512,277v341,0,512,-92,512,-277r0,-299v0,-171,-71,-256,-213,-256v142,0,213,-85,213,-256r0,-213v0,-185,-171,-277,-512,-277v-341,0,-512,92,-512,277r0,213r213,0r0,-170v0,-100,100,-150,299,-150"},"4":{"d":"1024,-469r-94,0r0,-1067r-213,0r-717,1067r0,170r717,0r0,299r213,0r0,-299r94,0r0,-170xm205,-469r512,-756r0,756r-512,0"},"5":{"d":"0,-1536r0,811r213,0r0,-86v0,-100,100,-149,299,-149v199,0,299,49,299,149r0,512v0,100,-100,150,-299,150v-199,0,-299,-50,-299,-150r0,-170r-213,0r0,213v0,185,171,277,512,277v341,0,512,-92,512,-277r0,-597v0,-185,-135,-278,-405,-278v-270,0,-406,57,-406,171r0,-405r811,0r0,-171r-1024,0"},"6":{"d":"0,-256r0,-1024v0,-185,171,-277,512,-277v341,0,512,92,512,277r0,213r-213,0r0,-170v0,-100,-100,-150,-299,-150v-199,0,-299,50,-299,150r0,448v0,-114,136,-171,406,-171v270,0,405,92,405,277r0,427v0,185,-171,277,-512,277v-341,0,-512,-92,-512,-277xm213,-640r0,341v0,100,100,150,299,150v199,0,299,-50,299,-150r0,-341v0,-100,-100,-149,-299,-149v-199,0,-299,49,-299,149"},"7":{"d":"43,-1536r0,171r778,0v-228,166,-380,355,-457,568v-77,213,-145,479,-204,797r215,0v23,-166,75,-384,155,-655v80,-271,231,-496,451,-676r0,-205r-938,0"},"8":{"d":"213,-811v-142,0,-213,85,-213,256r0,299v0,185,171,277,512,277v341,0,512,-92,512,-277r0,-299v0,-171,-71,-256,-213,-256v142,0,213,-85,213,-256r0,-213v0,-185,-171,-277,-512,-277v-341,0,-512,92,-512,277r0,213v0,171,71,256,213,256xm213,-1024r0,-213v0,-100,100,-150,299,-150v199,0,299,50,299,150r0,213v0,85,-100,128,-299,128v-199,0,-299,-43,-299,-128xm811,-597r0,298v0,100,-100,150,-299,150v-199,0,-299,-50,-299,-150r0,-298v0,-85,100,-128,299,-128v199,0,299,43,299,128"},"9":{"d":"1024,-1280r0,1024v0,185,-171,277,-512,277v-341,0,-512,-92,-512,-277r0,-213r213,0r0,170v0,100,100,150,299,150v199,0,299,-50,299,-150r0,-448v0,114,-136,171,-406,171v-270,0,-405,-92,-405,-277r0,-427v0,-185,171,-277,512,-277v341,0,512,92,512,277xm811,-896r0,-341v0,-100,-100,-150,-299,-150v-199,0,-299,50,-299,150r0,341v0,100,100,149,299,149v199,0,299,-49,299,-149"},":":{"d":"107,-640v71,0,106,-36,106,-107v0,-71,-35,-106,-106,-106v-71,0,-107,35,-107,106v0,71,36,107,107,107xm107,0v71,0,106,-36,106,-107v0,-71,-35,-106,-106,-106v-71,0,-107,35,-107,106v0,71,36,107,107,107","w":384},";":{"d":"107,-640v71,0,106,-36,106,-107v0,-71,-35,-106,-106,-106v-71,0,-107,35,-107,106v0,71,36,107,107,107xm107,0v0,100,-36,149,-107,149r0,64v142,0,213,-107,213,-320v0,-71,-35,-106,-106,-106v-71,0,-107,35,-107,106v0,71,36,107,107,107","w":384},"<":{"d":"683,-213r170,-86r-597,-469r597,-469r-170,-86r-683,555","w":1024},"=":{"d":"1024,-512r0,-171r-896,0r0,171r896,0xm1024,-853r0,-171r-896,0r0,171r896,0","w":1152},">":{"d":"171,-1323r-171,86r597,469r-597,469r171,86r682,-555","w":1024},"?":{"d":"811,-1003r0,-234v0,-100,-103,-150,-307,-150v-194,0,-291,50,-291,150r0,170r-213,0r0,-213v0,-185,169,-277,506,-277v345,0,518,92,518,277r0,299v0,139,-69,222,-207,249r-185,56v-52,15,-77,41,-77,79r0,128r-214,0r0,-160v3,-107,58,-175,164,-205r190,-49v77,-31,116,-72,116,-120xm448,0v71,0,107,-36,107,-107v0,-71,-36,-106,-107,-106v-71,0,-107,35,-107,106v0,71,36,107,107,107"},"@":{"d":"631,-320v-222,0,-332,-92,-332,-277r0,-34v0,-176,128,-265,384,-265v114,0,170,-34,170,-102v0,-74,-56,-111,-170,-111v-114,0,-171,49,-171,149r-213,0r0,-43v0,-185,128,-277,384,-277v256,0,384,92,384,277r0,470v0,43,14,64,42,64v28,0,43,-21,43,-64r0,-534v0,-213,-156,-320,-469,-320v-313,0,-470,107,-470,320r0,598v0,199,157,298,470,298r469,0r0,171r-469,0v-455,0,-683,-143,-683,-427r0,-682v0,-299,228,-448,683,-448v455,0,682,149,682,448r0,597v0,123,-85,187,-256,192v-171,-14,-256,-71,-256,-171v0,114,-74,171,-222,171xm683,-725v-114,0,-171,35,-171,106v0,85,57,128,171,128v114,0,170,-67,170,-201r0,-110v0,51,-56,77,-170,77","w":1536},"A":{"d":"521,-1536r238,0r521,1536r-256,0r-137,-427r-494,0r-137,427r-256,0xm832,-597r-192,-615r-192,615r384,0","w":1382,"k":{"W":427}},"B":{"d":"0,0r725,0v199,0,299,-85,299,-256r0,-299v0,-171,-85,-256,-256,-256v171,0,256,-71,256,-213r0,-256v0,-171,-100,-256,-299,-256r-725,0r0,1536xm213,-896r0,-469r427,0v114,0,171,43,171,128r0,213v0,85,-57,128,-171,128r-427,0xm811,-597r0,298v0,85,-57,128,-171,128r-427,0r0,-554r427,0v114,0,171,43,171,128"},"C":{"d":"1024,-469r-213,0r0,170v0,100,-100,150,-299,150v-199,0,-299,-50,-299,-150r0,-938v0,-100,100,-150,299,-150v199,0,299,50,299,150r0,170r213,0r0,-213v0,-185,-171,-277,-512,-277v-341,0,-512,92,-512,277r0,1024v0,185,171,277,512,277v341,0,512,-92,512,-277r0,-213"},"D":{"d":"0,0r725,0v199,0,299,-85,299,-256r0,-1024v0,-171,-100,-256,-299,-256r-725,0r0,1536xm213,-171r0,-1194r427,0v114,0,171,43,171,128r0,938v0,85,-57,128,-171,128r-427,0"},"E":{"d":"213,-1365r0,490r534,0r0,171r-534,0r0,533r640,0r0,171r-853,0r0,-1536r853,0r0,171r-640,0","w":1024},"F":{"d":"853,-1365r0,-171r-853,0r0,1536r213,0r0,-704r534,0r0,-171r-534,0r0,-490r640,0","w":1024},"G":{"d":"1024,-853r-633,0r0,170r420,0r0,384v0,100,-100,150,-299,150v-199,0,-299,-50,-299,-150r0,-938v0,-100,100,-150,299,-150v199,0,299,50,299,150r0,170r213,0r0,-213v0,-185,-171,-277,-512,-277v-341,0,-512,92,-512,277r0,1024v0,185,171,277,512,277v199,0,315,-56,349,-170r67,149r96,0r0,-853"},"H":{"d":"0,-1536r0,1536r213,0r0,-683r512,0r0,683r214,0r0,-1536r-214,0r0,683r-512,0r0,-683r-213,0","w":1109},"I":{"d":"0,0r0,-171r85,0r0,-1194r-85,0r0,-171r384,0r0,171r-85,0r0,1194r85,0r0,171r-384,0","w":554},"J":{"d":"896,-1536r-213,0r0,1237v0,100,-79,150,-235,150v-156,0,-235,-50,-235,-150r0,-170r-213,0r0,213v0,185,149,277,448,277v299,0,448,-92,448,-277r0,-1280","w":1066},"K":{"d":"213,0r0,-538r150,-203r371,741r252,0r-484,-919r442,-617r-247,0r-484,643r0,-643r-213,0r0,1536r213,0","w":1109},"L":{"d":"853,0r0,-171r-640,0r0,-1365r-213,0r0,1536r853,0","w":1024,"k":{"T":427}},"M":{"d":"1408,-1536r-299,0r-405,1215r-405,-1215r-299,0r0,1536r213,0r0,-1067r363,1067r256,0r363,-1067r0,1067r213,0r0,-1536","w":1578},"N":{"d":"256,-1536r469,1109r0,-1109r214,0r0,1536r-256,0r-470,-1109r0,1109r-213,0r0,-1536r256,0","w":1109},"O":{"d":"811,-1237v0,-100,-100,-150,-299,-150v-199,0,-299,50,-299,150r0,938v0,100,100,150,299,150v199,0,299,-50,299,-150r0,-938xm1024,-256v0,185,-171,277,-512,277v-341,0,-512,-92,-512,-277r0,-1024v0,-185,171,-277,512,-277v341,0,512,92,512,277r0,1024"},"P":{"d":"-2,-1536r642,0v256,0,384,100,384,299r0,341v0,199,-128,299,-384,299r-427,0r0,597r-214,0xm555,-768v171,0,256,-57,256,-171r0,-256v0,-114,-85,-170,-256,-170r-342,0r0,597r342,0"},"Q":{"d":"811,-299v1,34,-13,64,-40,89r-232,-235r-165,51r240,240v-37,4,-71,6,-102,5v-199,0,-299,-50,-299,-150r0,-938v0,-100,100,-150,299,-150v199,0,299,50,299,150r0,938xm1024,-1280v0,-185,-171,-277,-512,-277v-341,0,-512,92,-512,277r0,1024v0,185,171,277,512,277v97,0,182,-6,256,-19r90,88r170,-47r-107,-106v71,-50,105,-114,103,-193r0,-1024"},"R":{"d":"0,0r213,0r0,-683r427,0v114,0,171,43,171,128r0,470v0,57,28,85,85,85r213,0v-57,0,-85,-28,-85,-85r0,-427v0,-171,-71,-256,-213,-256v142,0,213,-85,213,-256r0,-256v0,-171,-113,-256,-341,-256r-683,0r0,1536xm213,-853r0,-512r427,0v114,0,171,43,171,128r0,256v0,85,-57,128,-171,128r-427,0"},"S":{"d":"213,-1109r0,-128v0,-100,100,-150,299,-150v199,0,299,50,299,150r0,170r213,0r0,-213v0,-185,-171,-277,-512,-277v-341,0,-512,92,-512,277r0,256v0,142,137,234,410,277r204,32v134,22,200,75,197,160r0,256v0,100,-100,150,-299,150v-199,0,-299,-50,-299,-150r0,-170r-213,0r0,213v0,185,171,277,512,277v341,0,512,-92,512,-277r0,-341v0,-171,-137,-277,-410,-320r-204,-32v-131,-22,-197,-75,-197,-160"},"T":{"d":"640,0r0,-1365r427,0r0,-171r-1067,0r0,171r427,0r0,1365r213,0","w":1237},"U":{"d":"1024,-256v0,185,-171,277,-512,277v-341,0,-512,-92,-512,-277r0,-1280r213,0r0,1237v0,100,100,150,299,150v199,0,299,-50,299,-150r0,-1237r213,0r0,1280"},"V":{"d":"1280,-1536r-256,0r-384,1212r-384,-1212r-256,0r521,1536r238,0","w":1382},"W":{"d":"708,0r171,-870r171,870r256,0r452,-1536r-239,0r-341,1212r-171,-1212r-256,0r-171,1212r-341,-1212r-239,0r452,1536r256,0","w":1860},"X":{"d":"0,0r247,0r384,-627r384,627r248,0r-482,-768r482,-768r-248,0r-384,627r-384,-627r-247,0r482,768","w":1364},"Y":{"d":"1237,-1536r-256,0r-362,768r-363,-768r-256,0r512,981r0,555r213,0r0,-555","w":1339},"Z":{"d":"896,-1365r0,-171r-896,0r0,171r661,0r-661,1194r0,171r896,0r0,-171r-661,0","w":1066},"[":{"d":"427,-1536r0,-171r-427,0r0,1878r427,0r0,-171r-214,0r0,-1536r214,0","w":597},"\\":{"d":"-3,-1575r867,1630r227,0r-879,-1630r-215,0","w":1088},"]":{"d":"0,0r0,171r427,0r0,-1878r-427,0r0,171r213,0r0,1536r-213,0","w":597},"^":{"d":"320,-1536r277,469r-85,0r-213,-213r-214,213r-83,0r275,-469r43,0","w":768},"_":{"d":"1195,213r0,-85r-1195,0r0,85r1195,0"},"`":{"d":"213,-1429v0,-71,-35,-107,-106,-107v-71,0,-107,36,-107,107v0,156,71,234,213,234r0,-64v-71,0,-106,-21,-106,-64v71,0,106,-35,106,-106","w":384},"a":{"d":"375,21v-250,0,-375,-92,-375,-277r0,-145v0,-176,143,-265,427,-265v142,0,213,-34,213,-102r0,-43v0,-100,-71,-149,-213,-149v-122,0,-184,49,-184,149r0,86r-213,0r0,-128v0,-185,132,-278,397,-278v284,0,426,93,426,278r0,704v0,100,29,149,86,149r-214,0v-57,0,-85,-49,-85,-149v0,114,-89,170,-265,170xm427,-495v-142,0,-214,46,-214,137r0,59v0,100,72,150,214,150v142,0,213,-68,213,-202r0,-221v0,51,-71,77,-213,77","w":1024},"b":{"d":"0,0r0,-1579r213,0r0,619v0,-114,121,-171,363,-171v242,0,363,93,363,278r0,597v0,185,-121,277,-363,277v-242,0,-363,-56,-363,-170r0,149r-213,0xm213,-811r0,512v0,100,85,150,256,150v171,0,256,-50,256,-150r0,-512v0,-100,-85,-149,-256,-149v-171,0,-256,49,-256,149","w":1109},"c":{"d":"939,-427r-214,0r0,128v0,100,-85,150,-256,150v-171,0,-256,-50,-256,-150r0,-512v0,-100,85,-149,256,-149v171,0,256,49,256,149r0,128r214,0r0,-170v0,-185,-157,-278,-470,-278v-313,0,-469,93,-469,278r0,597v0,185,156,277,469,277v313,0,470,-92,470,-277r0,-171","w":1109},"d":{"d":"939,0r0,-1579r-214,0r0,619v0,-114,-120,-171,-362,-171v-242,0,-363,93,-363,278r0,597v0,185,121,277,363,277v242,0,362,-56,362,-170r0,149r214,0xm725,-811r0,512v0,100,-85,150,-256,150v-171,0,-256,-50,-256,-150r0,-512v0,-100,85,-149,256,-149v171,0,256,49,256,149","w":1109},"e":{"d":"0,-853r0,597v0,185,156,277,469,277v313,0,470,-92,470,-277r0,-128r-214,0r0,85v0,100,-85,150,-256,150v-171,0,-256,-50,-256,-150r0,-170r726,0r0,-384v0,-185,-157,-278,-470,-278v-313,0,-469,93,-469,278xm213,-640r0,-171v0,-100,85,-149,256,-149v171,0,256,49,256,149r0,171r-512,0","w":1109},"f":{"d":"333,0r0,-939r213,0r0,-170r-213,0r0,-171v0,-85,71,-128,213,-128r0,-171r-201,0v-150,0,-226,85,-226,256r0,214r-119,0r0,170r119,0r0,939r214,0","w":716},"g":{"d":"939,-1109r0,1280v0,156,-157,234,-470,234v-313,0,-469,-78,-469,-234r0,-107r213,0r0,64v0,71,85,107,256,107v171,0,256,-36,256,-107r0,-277v0,114,-120,170,-362,170v-242,0,-363,-92,-363,-277r0,-597v0,-185,121,-278,363,-278v242,0,362,57,362,171r0,-149r214,0xm725,-299r0,-512v0,-100,-85,-149,-256,-149v-171,0,-256,49,-256,149r0,512v0,100,85,150,256,150v171,0,256,-50,256,-150","w":1109},"h":{"d":"0,0r213,0r0,-811v0,-100,85,-149,256,-149v171,0,256,49,256,149r0,811r214,0r0,-853v0,-185,-121,-278,-363,-278v-242,0,-363,57,-363,171r0,-619r-213,0r0,1579","w":1109},"i":{"d":"0,-1109r0,1109r213,0r0,-1109r-213,0xm107,-1557v-82,0,-124,39,-124,117v0,78,42,117,124,117v82,0,123,-39,123,-117v0,-78,-41,-117,-123,-117","w":384},"j":{"d":"0,-1109r0,1194v0,100,-51,150,-153,150r-1,170r153,0v143,0,214,-74,214,-222r0,-1292r-213,0xm107,-1557v-82,0,-124,39,-124,117v0,78,42,117,124,117v82,0,123,-39,123,-117v0,-78,-41,-117,-123,-117","w":384},"k":{"d":"213,0r0,-187r161,-226r250,413r245,0r-360,-608r345,-501r-246,0r-395,558r0,-1028r-213,0r0,1579r213,0","w":1024},"l":{"d":"213,0r0,-1579r-213,0r0,1579r213,0","w":384},"m":{"d":"0,0r213,0r0,-811v0,-100,68,-149,205,-149v137,0,205,49,205,149r0,811r213,0r0,-811v0,-100,68,-149,205,-149v137,0,205,49,205,149r0,811r213,0r0,-853v0,-185,-97,-278,-292,-278v-195,0,-312,46,-352,137v-31,-91,-139,-137,-324,-137v-185,0,-278,57,-278,171r0,-149r-213,0r0,1109","w":1629},"n":{"d":"0,0r213,0r0,-811v0,-100,85,-149,256,-149v171,0,256,49,256,149r0,811r214,0r0,-853v0,-185,-121,-278,-363,-278v-242,0,-363,57,-363,171r0,-149r-213,0r0,1109","w":1109},"o":{"d":"725,-299v0,100,-85,150,-256,150v-171,0,-256,-50,-256,-150r0,-512v0,-100,85,-149,256,-149v171,0,256,49,256,149r0,512xm939,-853v0,-185,-157,-278,-470,-278v-313,0,-469,93,-469,278r0,597v0,185,156,277,469,277v313,0,470,-92,470,-277r0,-597","w":1109},"p":{"d":"0,-1109r0,1514r213,0r0,-554v0,114,121,170,363,170v242,0,363,-92,363,-277r0,-597v0,-185,-121,-278,-363,-278v-242,0,-363,57,-363,171r0,-149r-213,0xm213,-299r0,-512v0,-100,85,-149,256,-149v171,0,256,49,256,149r0,512v0,100,-85,150,-256,150v-171,0,-256,-50,-256,-150","w":1109},"q":{"d":"939,-1109r0,1514r-214,0r0,-554v0,114,-118,170,-354,170v-236,0,-360,-92,-371,-277r0,-597v14,-185,138,-278,373,-278v235,0,352,57,352,171r0,-149r214,0xm725,-299r0,-512v0,-100,-85,-149,-256,-149v-171,0,-256,49,-256,149r0,512v0,100,85,150,256,150v171,0,256,-50,256,-150","w":1109},"r":{"d":"0,0r213,0r0,-811v0,-100,63,-149,188,-149v125,0,188,49,188,149r0,86r213,0r0,-128v0,-185,-98,-278,-294,-278v-196,0,-295,57,-295,171r0,-149r-213,0r0,1109","w":972},"s":{"d":"235,-761r0,-50v0,-100,78,-149,234,-149v156,0,235,49,235,149r0,86r213,0r0,-128v0,-185,-149,-278,-448,-278v-299,0,-448,93,-448,278r0,106v0,173,149,266,448,278v171,10,256,45,256,106r0,64v0,100,-85,150,-256,150v-171,0,-256,-50,-256,-150r0,-85r-213,0r0,128v0,185,156,277,469,277v313,0,470,-92,470,-277r0,-149v0,-158,-157,-243,-470,-256v-156,-7,-234,-40,-234,-100","w":1109},"t":{"d":"333,-1451r0,342r213,0r0,170r-213,0r0,598v0,114,71,170,213,170r0,171r-213,0v-142,0,-214,-85,-214,-256r0,-683r-119,0r0,-170r119,0r0,-342r214,0","w":716},"u":{"d":"939,-1109r-214,0r0,810v0,100,-85,150,-256,150v-171,0,-256,-50,-256,-150r0,-810r-213,0r0,853v0,185,121,277,363,277v242,0,362,-56,362,-170r0,149r214,0r0,-1109","w":1109},"v":{"d":"1075,-1109r-256,0r-281,862r-282,-862r-256,0r410,1109r256,0","w":1177},"w":{"d":"461,0r136,-623r137,623r213,0r248,-1109r-214,0r-153,716r-124,-716r-213,0r-133,716r-145,-716r-213,0r247,1109r214,0","w":1297},"x":{"d":"247,0r252,-397r252,397r247,0r-396,-542r396,-567r-247,0r-252,439r-252,-439r-247,0r397,567r-397,542r247,0","w":1100},"y":{"d":"590,184v-47,147,-129,221,-244,221r-158,0r0,-170r131,0v49,0,84,-35,103,-106r41,-129r-463,-1109r256,0r299,860r281,-860r256,0"},"z":{"d":"853,-939r0,-170r-853,0r0,170r606,0r-606,768r0,171r853,0r0,-171r-606,0","w":1024},"{":{"d":"469,-1707v-228,0,-341,100,-341,299r0,427v0,85,-43,128,-128,128r0,170v85,0,128,43,128,128r0,427v0,199,113,299,341,299r43,0r0,-171r-43,0v-85,0,-128,-28,-128,-85r0,-512v0,-114,-43,-171,-128,-171v85,0,128,-57,128,-171r0,-512v0,-57,43,-85,128,-85r43,0r0,-171r-43,0","w":682},"|":{"d":"128,-1877r0,2261r-130,0r0,-2261r130,0","w":298},"}":{"d":"43,171v228,0,341,-100,341,-299r0,-427v0,-85,43,-128,128,-128r0,-170v-85,0,-128,-43,-128,-128r0,-427v0,-199,-113,-299,-341,-299r-43,0r0,171r43,0v85,0,128,28,128,85r0,512v0,114,43,171,128,171v-85,0,-128,57,-128,171r0,512v0,57,-43,85,-128,85r-43,0r0,171r43,0","w":682},"~":{"d":"299,-768v-71,0,-107,28,-107,85r0,43r-192,0r0,-43v0,-171,113,-256,341,-256v114,0,182,29,203,86v21,57,68,85,139,85v71,0,106,-28,106,-85r0,-43r192,0r0,43v0,171,-113,256,-341,256v-114,0,-182,-29,-203,-86v-21,-57,-67,-85,-138,-85","w":1152},"\u00c1":{"d":"576,-1621r107,-256r234,0r-213,256r-128,0xm521,-1536r238,0r521,1536r-256,0r-137,-427r-494,0r-137,427r-256,0xm832,-597r-192,-615r-192,615r384,0","w":1382},"\u00c9":{"d":"341,-1621r107,-256r235,0r-214,256r-128,0xm213,-1365r0,490r534,0r0,171r-534,0r0,533r640,0r0,171r-853,0r0,-1536r853,0r0,171r-640,0","w":1024},"\u00cd":{"d":"128,-1621r107,-256r234,0r-213,256r-128,0xm0,0r0,-171r85,0r0,-1194r-85,0r0,-171r384,0r0,171r-85,0r0,1194r85,0r0,171r-384,0","w":554},"\u00d3":{"d":"427,-1621r106,-256r235,0r-213,256r-128,0xm811,-1237v0,-100,-100,-150,-299,-150v-199,0,-299,50,-299,150r0,938v0,100,100,150,299,150v199,0,299,-50,299,-150r0,-938xm1024,-256v0,185,-171,277,-512,277v-341,0,-512,-92,-512,-277r0,-1024v0,-185,171,-277,512,-277v341,0,512,92,512,277r0,1024"},"\u00d6":{"d":"192,-1771v0,-71,36,-106,107,-106v71,0,106,35,106,106v0,71,-35,107,-106,107v-71,0,-107,-36,-107,-107xm619,-1771v0,-71,35,-106,106,-106v71,0,107,35,107,106v0,71,-36,107,-107,107v-71,0,-106,-36,-106,-107xm811,-1237v0,-100,-100,-150,-299,-150v-199,0,-299,50,-299,150r0,938v0,100,100,150,299,150v199,0,299,-50,299,-150r0,-938xm1024,-256v0,185,-171,277,-512,277v-341,0,-512,-92,-512,-277r0,-1024v0,-185,171,-277,512,-277v341,0,512,92,512,277r0,1024"},"\u00da":{"d":"427,-1621r106,-256r235,0r-213,256r-128,0xm1024,-256v0,185,-171,277,-512,277v-341,0,-512,-92,-512,-277r0,-1280r213,0r0,1237v0,100,100,150,299,150v199,0,299,-50,299,-150r0,-1237r213,0r0,1280"},"\u00dc":{"d":"213,-1771v0,-71,36,-106,107,-106v71,0,107,35,107,106v0,71,-36,107,-107,107v-71,0,-107,-36,-107,-107xm640,-1771v0,-71,36,-106,107,-106v71,0,106,35,106,106v0,71,-35,107,-106,107v-71,0,-107,-36,-107,-107xm1024,-256v0,185,-171,277,-512,277v-341,0,-512,-92,-512,-277r0,-1280r213,0r0,1237v0,100,100,150,299,150v199,0,299,-50,299,-150r0,-1237r213,0r0,1280"},"\u00e1":{"d":"341,-1195r107,-256r235,0r-214,256r-128,0xm375,21v-250,0,-375,-92,-375,-277r0,-145v0,-176,143,-265,427,-265v142,0,213,-34,213,-102r0,-43v0,-100,-71,-149,-213,-149v-122,0,-184,49,-184,149r0,86r-213,0r0,-128v0,-185,132,-278,397,-278v284,0,426,93,426,278r0,704v0,100,29,149,86,149r-214,0v-57,0,-85,-49,-85,-149v0,114,-89,170,-265,170xm427,-495v-142,0,-214,46,-214,137r0,59v0,100,72,150,214,150v142,0,213,-68,213,-202r0,-221v0,51,-71,77,-213,77","w":1024},"\u00e9":{"d":"341,-1195r107,-256r235,0r-214,256r-128,0xm0,-853r0,597v0,185,156,277,469,277v313,0,470,-92,470,-277r0,-128r-214,0r0,85v0,100,-85,150,-256,150v-171,0,-256,-50,-256,-150r0,-170r726,0r0,-384v0,-185,-157,-278,-470,-278v-313,0,-469,93,-469,278xm213,-640r0,-171v0,-100,85,-149,256,-149v171,0,256,49,256,149r0,171r-512,0","w":1109},"\u00ed":{"d":"0,-1109r0,1109r213,0r0,-1109r-213,0xm43,-1195r106,-256r235,0r-213,256r-128,0","w":384},"\u00f3":{"d":"427,-1195r106,-256r235,0r-213,256r-128,0xm725,-299v0,100,-85,150,-256,150v-171,0,-256,-50,-256,-150r0,-512v0,-100,85,-149,256,-149v171,0,256,49,256,149r0,512xm939,-853v0,-185,-157,-278,-470,-278v-313,0,-469,93,-469,278r0,597v0,185,156,277,469,277v313,0,470,-92,470,-277r0,-597","w":1109},"\u00f6":{"d":"149,-1344v0,-71,36,-107,107,-107v71,0,107,36,107,107v0,71,-36,107,-107,107v-71,0,-107,-36,-107,-107xm576,-1344v0,-71,36,-107,107,-107v71,0,106,36,106,107v0,71,-35,107,-106,107v-71,0,-107,-36,-107,-107xm725,-299v0,100,-85,150,-256,150v-171,0,-256,-50,-256,-150r0,-512v0,-100,85,-149,256,-149v171,0,256,49,256,149r0,512xm939,-853v0,-185,-157,-278,-470,-278v-313,0,-469,93,-469,278r0,597v0,185,156,277,469,277v313,0,470,-92,470,-277r0,-597","w":1109},"\u00fa":{"d":"341,-1195r107,-256r235,0r-214,256r-128,0xm939,-1109r-214,0r0,810v0,100,-85,150,-256,150v-171,0,-256,-50,-256,-150r0,-810r-213,0r0,853v0,185,121,277,363,277v242,0,362,-56,362,-170r0,149r214,0r0,-1109","w":1109},"\u00fc":{"d":"149,-1344v0,-71,36,-107,107,-107v71,0,107,36,107,107v0,71,-36,107,-107,107v-71,0,-107,-36,-107,-107xm576,-1344v0,-71,36,-107,107,-107v71,0,106,36,106,107v0,71,-35,107,-106,107v-71,0,-107,-36,-107,-107xm939,-1109r-214,0r0,810v0,100,-85,150,-256,150v-171,0,-256,-50,-256,-150r0,-810r-213,0r0,853v0,185,121,277,363,277v242,0,362,-56,362,-170r0,149r214,0r0,-1109","w":1109},"\u00a0":{"w":512}}});
