/*!
 * The following copyright notice may not be removed under any circumstances.
 * 
 * Copyright:
 * Copyright (c) 2012, Agustina Mingote (agustinamingote@gmail.com), with Reserved
 * Font Names "Gudea"
 * 
 * Trademark:
 * Gudea is a trademark of Agustina Mingote.
 * 
 * Manufacturer:
 * Agustina Mingote
 * 
 * Designer:
 * Agustina Mingote
 * 
 * License information:
 * http://scripts.sil.org/OFL
 */
Cufon.registerFont({"w":1110,"face":{"font-family":"Gudea","font-weight":400,"font-stretch":"normal","units-per-em":"2048","panose-1":"2 0 0 0 0 0 0 0 0 0","ascent":"1638","descent":"-410","x-height":"12","bbox":"0 -1796 1700 492","underline-thickness":"102.4","underline-position":"-102.4","unicode-range":"U+0020-U+00FC"},"glyphs":{" ":{"w":512},"!":{"d":"350,-389r-153,0r0,-1047r153,0r0,1047xm348,0r-153,0r0,-190r153,0r0,190","w":544},"\"":{"d":"659,-905r-153,0r0,-531r153,0r0,531xm266,-905r-153,0r0,-531r153,0r0,531","w":774},"#":{"d":"1204,-952r-213,0r-43,428r201,0r0,133r-215,0r-39,391r-156,0r41,-391r-325,0r-41,391r-156,0r41,-391r-238,0r0,-133r250,0r47,-428r-243,0r0,-133r254,0r37,-349r155,0r-37,349r326,0r37,-349r153,0r-32,349r196,0r0,133xm840,-952r-326,0r-47,428r326,0","w":1267},"$":{"d":"571,-1352v81,10,155,25,222,45r36,11r-28,122r-113,-32v-72,-18,-135,-27,-188,-27v-141,0,-211,65,-211,193v0,96,74,169,223,221v63,20,125,42,186,67v61,25,114,63,158,115v44,52,66,117,66,195v0,106,-31,192,-92,258v-61,66,-147,104,-259,118r0,189r-133,0r0,-184v-111,-7,-214,-41,-311,-101r45,-102v109,51,213,76,312,76v99,0,175,-21,226,-61v51,-40,76,-93,76,-158v0,-65,-21,-115,-65,-152v-44,-37,-97,-66,-159,-89v-62,-23,-124,-47,-186,-74v-62,-27,-115,-66,-159,-118v-44,-52,-65,-121,-65,-208v0,-87,25,-156,78,-210v53,-54,122,-86,208,-94r0,-178r133,0r0,178","w":1040},"%":{"d":"1223,-1409r-836,1407r-160,0r836,-1407r160,0xm1229,-516v-25,-46,-62,-70,-110,-70v-48,0,-84,24,-109,70v-25,46,-37,106,-37,180v0,164,47,246,143,246v100,0,150,-82,150,-246v0,-74,-12,-134,-37,-180xm1116,-688v182,0,273,117,273,350v0,233,-93,350,-277,350v-89,0,-155,-31,-198,-93v-43,-62,-64,-145,-64,-248v0,-103,21,-189,65,-257v44,-68,111,-102,201,-102xm471,-1253v-25,-46,-62,-70,-110,-70v-48,0,-84,24,-109,70v-25,46,-37,106,-37,180v0,164,47,246,143,246v100,0,150,-82,150,-246v0,-74,-12,-134,-37,-180xm358,-1425v182,0,273,117,273,350v0,233,-93,350,-277,350v-89,0,-154,-31,-197,-93v-43,-62,-65,-145,-65,-248v0,-103,22,-189,66,-257v44,-68,110,-102,200,-102","w":1509},"&":{"d":"1079,-739r148,0v-10,154,-29,268,-56,340v-8,25,-22,57,-41,98r293,299r-204,0r-168,-182v-46,56,-112,103,-195,141v-83,38,-168,57,-254,57v-156,0,-274,-36,-357,-110v-83,-74,-124,-173,-124,-299v0,-90,25,-161,74,-213v49,-52,128,-105,237,-158v-81,-72,-140,-133,-178,-184v-38,-51,-57,-102,-57,-154v0,-102,36,-186,110,-252v74,-66,169,-98,285,-98v116,0,208,30,277,91v69,61,104,135,104,222v0,87,-25,160,-73,219v-48,59,-126,117,-232,174r346,336v44,-90,65,-199,65,-327xm954,-283r-419,-401v-173,79,-261,179,-261,301v0,79,31,144,90,192v59,48,132,72,217,72v85,0,161,-17,227,-50v66,-33,115,-72,146,-114xm387,-1024r55,66v29,31,70,71,125,120v172,-86,258,-186,258,-299v0,-61,-23,-107,-69,-138v-46,-31,-104,-46,-172,-46v-68,0,-124,16,-168,49v-44,33,-66,75,-66,126v0,51,12,92,37,122","w":1548},"'":{"d":"266,-752r-153,0r0,-530r153,0r0,530","w":378},"(":{"d":"401,266v-161,-281,-241,-586,-241,-914v0,-328,84,-634,252,-917r135,27v-156,288,-234,585,-234,890v0,305,77,602,230,890","w":577},")":{"d":"180,-1565v168,283,252,589,252,917v0,328,-81,633,-242,914r-141,-24v153,-288,230,-585,230,-890v0,-305,-78,-602,-234,-890","w":577},"*":{"d":"784,-1004r-63,119r-244,-166r27,293r-133,0r20,-293r-244,166r-63,-108r266,-129r-264,-129r72,-113r233,168r-20,-293r133,0r-27,293r244,-166r63,117r-266,119","w":880,"k":{"A":72}},"+":{"d":"901,-537r-354,0r0,396r-154,0r0,-396r-336,0r0,-133r336,0r0,-409r154,0r0,409r354,0r0,133","w":960},",":{"d":"383,-178r-231,530r-101,-33r178,-546","w":499},"-":{"d":"489,-520r-391,0r0,-154r391,0r0,154","w":587},".":{"d":"264,0r-153,0r0,-217r153,0r0,217","w":374},"\/":{"d":"924,-1638r-664,1935r-164,0r666,-1935r162,0","w":1005},"0":{"d":"1077,-721v0,367,-98,598,-293,692v-59,27,-126,41,-202,41v-313,0,-469,-244,-469,-733v0,-198,33,-365,100,-502v35,-72,87,-129,154,-170v67,-41,146,-61,239,-61v314,0,471,244,471,733xm924,-717r0,-8v0,-397,-110,-596,-328,-596v-81,0,-146,29,-197,87v-51,58,-85,130,-104,215v-19,85,-29,185,-29,298v0,400,110,600,329,600v219,0,329,-199,329,-596","w":1187},"1":{"d":"86,0r0,-133r399,0r0,-1149r-352,227r-76,-114r428,-265r154,0r0,1301r313,0r0,133r-866,0","w":1062},"2":{"d":"963,-133r-2,133r-844,0r0,-147v229,-233,396,-422,500,-564v104,-142,157,-264,157,-368v0,-161,-89,-242,-268,-242v-97,0,-193,11,-289,33r-45,10r-29,-119v104,-38,225,-57,363,-57v138,0,243,31,315,93v72,62,109,153,109,272v0,119,-51,255,-153,406v-102,151,-258,334,-468,550r654,0","w":1073},"3":{"d":"279,-801r194,0v93,0,165,-26,218,-78v53,-52,79,-116,79,-194v0,-165,-91,-248,-274,-248v-46,0,-97,8,-152,22v-55,14,-98,28,-131,42r-47,20r-29,-119v48,-27,104,-50,169,-69v65,-19,126,-29,183,-29v146,0,255,32,327,98v72,66,108,149,108,249v0,100,-26,184,-77,250v-51,66,-117,107,-198,122v94,14,172,49,232,108v60,59,90,134,90,224v0,131,-44,233,-131,306v-87,73,-210,109,-367,109v-66,0,-129,-8,-191,-24v-62,-16,-109,-33,-139,-49r-43,-23r52,-115v112,52,222,78,332,78v110,0,193,-23,248,-70v55,-47,83,-113,83,-196v0,-83,-30,-151,-89,-203v-59,-52,-144,-78,-253,-78r-194,0r0,-133","w":1081},"4":{"d":"678,2r0,-270r-647,0r0,-101r448,-1065r154,0r-434,1033r479,0r0,-381r147,0r0,381r170,0r0,133r-170,0r0,270r-147,0","w":1105},"5":{"d":"790,-210v59,-58,89,-136,89,-236v0,-100,-36,-174,-107,-221v-71,-47,-170,-70,-297,-70r-270,-2r49,-695r731,0r-10,134r-590,0r-23,432v44,-1,88,-2,130,-2v164,0,295,35,393,105v98,70,147,168,147,294v0,147,-44,265,-131,352v-87,87,-213,131,-375,131v-67,0,-133,-8,-199,-26v-66,-18,-116,-37,-149,-56r-49,-26r47,-109v123,55,241,82,354,82v113,0,201,-29,260,-87","w":1142},"6":{"d":"623,-866v142,0,251,35,329,106v78,71,117,174,117,311v0,137,-40,248,-121,333v-81,85,-188,128,-325,128v-317,0,-476,-216,-476,-647v0,-399,93,-651,277,-756v74,-42,163,-63,268,-63v53,0,106,5,158,16v52,11,90,22,115,33r36,19r-36,122v-96,-37,-193,-55,-291,-55v-122,0,-210,47,-267,141v-57,94,-91,223,-102,387v115,-51,221,-75,318,-75xm633,-121v86,0,155,-30,206,-89v51,-59,76,-135,76,-226v0,-198,-100,-297,-301,-297v-104,0,-208,32,-313,96v0,169,26,298,78,385v52,87,137,131,254,131","w":1179},"7":{"d":"53,-1280r0,-154r924,0r0,154r-635,1280r-170,0r633,-1280r-752,0","w":1038},"8":{"d":"918,-1355v75,66,112,147,112,243v0,96,-21,178,-64,247v-43,69,-90,122,-139,160v75,40,135,84,177,131v42,47,63,106,63,177v0,130,-43,230,-128,302v-85,72,-204,107,-356,107v-152,0,-266,-37,-342,-112v-76,-75,-114,-168,-114,-279v0,-49,10,-96,29,-140v19,-44,44,-82,75,-112v56,-53,108,-91,154,-114v-141,-78,-211,-182,-211,-311v0,-129,40,-228,119,-296v79,-68,184,-102,315,-102v131,0,235,33,310,99xm758,-586v-48,-25,-125,-56,-230,-94v-48,20,-91,48,-131,82v-78,64,-116,135,-116,213v0,78,25,141,77,192v52,51,128,76,227,76v99,0,178,-23,238,-71v60,-48,90,-113,90,-195v0,-82,-51,-150,-155,-203xm881,-1085v0,-68,-25,-125,-74,-169v-49,-44,-115,-67,-198,-67v-83,0,-151,23,-205,67v-54,44,-80,101,-80,171v0,57,24,110,73,161v37,40,136,92,297,156v124,-93,187,-199,187,-319","w":1177},"9":{"d":"555,-575v-142,0,-252,-36,-330,-107v-78,-71,-116,-174,-116,-311v0,-137,39,-248,120,-333v81,-85,189,-128,326,-128v317,0,475,216,475,647v0,399,-92,651,-276,756v-74,42,-164,63,-269,63v-53,0,-105,-5,-157,-16v-52,-11,-90,-22,-115,-33r-37,-18r37,-123v96,37,193,55,291,55v223,0,344,-176,366,-528v-101,51,-206,76,-315,76xm545,-1321v-86,0,-155,30,-206,89v-51,59,-77,135,-77,226v0,198,100,297,301,297v101,0,206,-31,314,-94r0,-8v0,-167,-26,-293,-78,-380v-52,-87,-137,-130,-254,-130","w":1140},":":{"d":"299,0r-154,0r0,-217r154,0r0,217xm299,-807r-154,0r0,-217r154,0r0,217","w":444},";":{"d":"420,-807r-154,0r0,-217r154,0r0,217xm420,-182r-232,530r-100,-33r184,-546","w":565},"<":{"d":"928,-92r-803,-459r0,-117r803,-460r0,163r-654,355r654,358r0,160","w":1081},"=":{"d":"1034,-739r-880,0r0,-133r880,0r0,133xm1034,-334r-880,0r0,-133r880,0r0,133","w":1187},">":{"d":"956,-553r-802,459r0,-158r653,-358r-653,-355r0,-163r802,460r0,115","w":1081},"?":{"d":"700,-872r-98,94v-78,74,-117,158,-117,252r0,129r-151,0r0,-119v0,-60,11,-115,34,-165v23,-50,50,-91,82,-124r95,-96v78,-74,117,-149,117,-227v0,-127,-76,-191,-228,-191v-89,0,-172,13,-248,39r-22,-119v111,-37,215,-55,314,-55v99,0,180,28,243,83v63,55,94,133,94,233v0,100,-39,190,-115,266xm483,0r-153,0r0,-201r153,0r0,201","w":948},"@":{"d":"1085,-442r78,-396v-3,-1,-8,-6,-17,-16v-9,-10,-18,-18,-26,-24v-8,-6,-19,-13,-33,-21v-27,-16,-62,-25,-104,-25v-93,0,-166,48,-221,143v-55,95,-82,202,-82,323v0,121,46,182,139,182v48,0,89,-12,124,-36v35,-24,82,-67,142,-130xm1096,-166r-17,-135v-29,29,-52,51,-71,67v-19,16,-49,33,-90,51v-41,18,-82,27,-123,27v-79,0,-140,-27,-181,-80v-41,-53,-61,-126,-61,-220v0,-94,14,-181,41,-263v27,-82,62,-146,106,-192v87,-96,178,-144,271,-144v52,0,91,8,118,22v27,14,44,25,54,32v19,14,39,31,59,51r33,-82r94,0r-149,756v115,0,207,-41,279,-123v72,-82,108,-221,108,-416v0,-336,-197,-504,-592,-504v-233,0,-404,70,-513,210v-109,140,-163,351,-163,634v0,206,41,356,124,450v83,94,216,142,400,142r355,0r4,110v-116,11,-239,17,-367,17v-440,0,-659,-224,-659,-672v0,-683,274,-1024,821,-1024v482,0,723,215,723,645v0,246,-55,416,-166,512v-55,46,-117,79,-187,99v-70,20,-154,30,-251,30","w":1857},"A":{"d":"1159,0r-172,0r-143,-453r-514,0r-142,453r-161,0r471,-1434r186,0xm809,-586r-219,-692r-221,692r440,0","w":1185,"k":{"Y":102,"V":82,"T":82,"*":72}},"B":{"d":"186,0r0,-1434r410,0v146,0,256,33,328,96v72,63,108,154,108,271v0,79,-26,145,-78,197v-52,52,-122,83,-211,94v109,16,194,56,255,117v61,61,92,138,92,229v0,130,-46,233,-135,312v-89,79,-213,118,-373,118r-396,0xm346,-133r285,0v90,0,162,-27,217,-82v55,-55,82,-123,82,-205v0,-82,-29,-150,-87,-203v-58,-53,-143,-79,-255,-79r-242,0r0,569xm606,-1300r-260,0r0,466r240,0v75,0,141,-20,199,-62v58,-42,87,-99,87,-173v0,-149,-89,-226,-266,-231","w":1202},"C":{"d":"709,12v-195,0,-346,-65,-450,-197v-104,-132,-157,-311,-157,-536v0,-225,55,-403,166,-534v111,-131,265,-197,463,-197v109,0,217,19,322,59r-37,127v-83,-35,-182,-53,-295,-53v-143,0,-257,53,-340,157v-83,104,-125,248,-125,430v0,182,39,329,118,442v79,113,187,169,328,169v93,0,210,-27,351,-80r41,107v-117,71,-246,106,-385,106","w":1196},"D":{"d":"1223,-768v0,231,-67,416,-201,557v-134,141,-313,211,-537,211r-299,0r0,-1434r363,0v203,0,366,63,489,187v123,124,185,284,185,479xm1057,-784v0,-161,-50,-288,-148,-379v-98,-91,-215,-137,-352,-137r-205,0r0,1167r152,0v154,0,285,-58,392,-174v107,-116,161,-275,161,-477","w":1325},"E":{"d":"958,0r-772,0r0,-1434r772,0r0,134r-618,0r0,454r567,0r0,137r-567,0r0,576r618,0r0,133"},"F":{"d":"961,-1434r0,134r-621,0r0,454r571,0r0,137r-571,0r0,709r-154,0r0,-1434r775,0","w":1044,"k":{"o":31,"A":72}},"G":{"d":"741,12v-198,0,-355,-66,-472,-200v-117,-134,-175,-313,-175,-536v0,-223,55,-400,166,-532v111,-132,265,-198,463,-198v126,0,253,25,383,74r-37,127v-46,-19,-107,-36,-182,-49v-75,-13,-133,-19,-174,-19v-143,0,-257,53,-340,158v-83,105,-125,247,-125,426v0,179,44,326,132,442v88,116,201,174,339,174v97,0,188,-14,274,-41r0,-432r-299,0r0,-133r453,0r0,629v-128,74,-264,110,-406,110","w":1323},"H":{"d":"1174,0r-154,0r0,-678r-680,0r0,678r-154,0r0,-1434r154,0r0,623r680,0r0,-623r154,0r0,1434","w":1359},"I":{"d":"340,0r-154,0r0,-1434r154,0r0,1434","w":526},"J":{"d":"516,-432v0,298,-103,446,-309,446v-72,0,-141,-7,-205,-22r0,-129v74,12,134,18,182,18v68,0,116,-31,141,-94v25,-63,37,-148,37,-254r0,-846r-296,0r0,-121r450,0r0,1002","w":702},"K":{"d":"1137,0r-193,0r-420,-784r-184,194r0,590r-154,0r0,-1432r152,0r0,646r598,-648r188,0r-495,545","w":1173},"L":{"d":"954,0r-768,0r0,-1434r154,0r0,1301r614,0r0,133","w":968,"k":{"V":72,"T":113}},"M":{"d":"1395,0r-154,0r0,-1176r-461,799r-53,-2r-461,-795r0,1174r-151,0r0,-1434r172,0r469,789r485,-789r154,0r0,1434","w":1509},"N":{"d":"1204,2r-168,0r-690,-1149r0,1147r-160,0r0,-1434r160,0r705,1192r0,-1192r153,0r0,1436","w":1390},"O":{"d":"662,10v-187,0,-328,-69,-424,-208v-96,-139,-144,-315,-144,-529v0,-214,49,-389,145,-524v96,-135,238,-203,424,-203v186,0,327,68,424,203v97,135,146,310,146,524v0,294,-83,505,-250,635v-89,68,-195,102,-321,102xm666,-1321v-139,0,-244,58,-313,174v-69,116,-103,258,-103,426v0,168,35,309,105,424v70,115,174,172,311,172v137,0,239,-58,309,-174v70,-116,104,-262,104,-438v0,-221,-62,-387,-186,-496v-64,-59,-140,-88,-227,-88","w":1327},"P":{"d":"549,-602r-209,0r0,602r-154,0r0,-1434r410,0v153,0,264,34,333,101v69,67,103,171,103,312v0,141,-42,246,-127,315v-85,69,-203,104,-356,104xm526,-1303r-186,0r0,570r135,0v141,0,243,-22,307,-64v64,-42,97,-115,97,-218v0,-103,-28,-177,-84,-221v-56,-44,-146,-67,-269,-67","w":1107,"k":{"o":20}},"Q":{"d":"1092,-197r200,207r-100,101r-195,-207v-91,74,-201,110,-330,110v-129,0,-238,-34,-325,-104v-165,-130,-248,-342,-248,-637v0,-214,49,-389,145,-524v96,-135,238,-203,424,-203v186,0,327,68,424,203v97,135,146,312,146,530v0,218,-47,393,-141,524xm817,-487r168,182v63,-104,94,-242,94,-413v0,-171,-36,-315,-109,-431v-73,-116,-175,-174,-306,-174v-72,0,-137,17,-192,51v-55,34,-99,80,-130,137v-61,115,-92,254,-92,419v0,165,35,305,105,421v70,116,174,174,309,174v90,0,167,-26,231,-78r-180,-188","w":1333},"R":{"d":"467,-674r-127,0r0,672r-154,0r0,-1434r414,0v139,0,244,33,314,96v70,63,106,154,106,271v0,82,-28,157,-85,225v-57,68,-127,108,-210,119v67,15,114,37,142,65v28,28,62,88,100,179r202,479r-161,0r-199,-459v-37,-86,-78,-143,-124,-171v-46,-28,-118,-42,-218,-42xm592,-1305r-252,0r0,500r231,0v85,0,152,-25,202,-75v50,-50,75,-113,75,-189v0,-76,-23,-135,-68,-175v-45,-40,-107,-61,-188,-61","w":1234},"S":{"d":"907,-1382r-33,137r-118,-35v-85,-20,-158,-31,-219,-31v-161,0,-242,72,-242,215v0,63,25,115,74,155v49,40,109,72,179,96v70,24,141,50,211,78v70,28,130,71,179,129v49,58,74,131,74,220v0,135,-42,241,-125,317v-83,76,-202,113,-355,113v-76,0,-153,-11,-230,-34v-77,-23,-140,-48,-189,-78r51,-117v124,57,242,86,353,86v111,0,196,-23,254,-68v58,-45,87,-110,87,-196v0,-87,-47,-156,-141,-205v-42,-22,-89,-43,-140,-62v-51,-19,-103,-39,-154,-62v-51,-23,-97,-48,-139,-77v-42,-29,-76,-68,-103,-117v-27,-49,-40,-106,-40,-172v0,-117,36,-207,106,-270v70,-63,164,-94,283,-94v119,0,245,24,377,72","w":1128},"T":{"d":"442,0r0,-1296r-401,0r0,-138r950,0r0,138r-397,0r0,1296r-152,0","w":1032,"k":{"o":133,"A":82}},"U":{"d":"680,12v-161,0,-284,-45,-368,-136v-84,-91,-126,-225,-126,-404r0,-906r156,0r0,930v0,122,29,216,87,283v58,67,141,100,248,100v107,0,191,-33,251,-99v60,-66,90,-161,90,-284r0,-930r156,0r0,906v0,179,-42,313,-126,404v-84,91,-207,136,-368,136","w":1359},"V":{"d":"1092,-1434r-443,1434r-215,0r-407,-1434r172,0r350,1260r375,-1260r168,0","w":1118,"k":{"o":92,"A":82}},"W":{"d":"1511,-1432r-340,1432r-178,0r-209,-831r-256,831r-168,0r-333,-1432r176,0r250,1258r272,-870r115,0r252,870r258,-1258r161,0","w":1538},"X":{"d":"1155,0r-188,0r-365,-645r-375,645r-186,0r475,-754r-432,-682r195,0r329,568r340,-568r185,0r-439,682","w":1196},"Y":{"d":"1104,-1434r-471,789r0,645r-154,0r0,-645r-452,-789r170,0r362,664r379,-664r166,0","w":1130,"k":{"o":113,"A":102}},"Z":{"d":"981,0r-899,0r0,-127r655,-1173r-657,0r0,-134r838,0r0,117r-650,1182r713,0r0,135","w":1040},"[":{"d":"616,410r-430,0r0,-2048r424,0r0,133r-270,0r0,1784r276,0r0,131","w":696},"\\":{"d":"743,297r-663,-1935r162,0r665,1935r-164,0","w":991},"]":{"d":"510,410r-430,0r0,-131r276,0r0,-1784r-270,0r0,-133r424,0r0,2048","w":696},"^":{"d":"711,-1366r458,803r-157,0r-359,-654r-354,654r-164,0r461,-803r115,0","w":1308},"_":{"d":"881,483r-881,0r0,-133r881,0r0,133","w":880},"`":{"d":"541,-1212r-119,43r-266,-271r153,-61","w":800},"a":{"d":"629,-612r84,0v0,-124,-16,-205,-47,-243v-31,-38,-101,-56,-209,-56v-108,0,-200,14,-275,43r-28,-119v115,-38,233,-57,356,-57v240,0,360,120,360,360r0,684r-90,0r-53,-121v-63,52,-117,88,-163,106v-46,18,-98,27,-158,27v-96,0,-171,-28,-224,-85v-53,-57,-80,-131,-80,-224v0,-210,176,-315,527,-315xm715,-483r-92,0v-139,0,-235,14,-288,41v-53,27,-79,70,-79,128v0,58,15,105,45,142v30,37,70,55,118,55v48,0,95,-11,139,-34v44,-23,97,-61,157,-117r0,-215","w":1056},"b":{"d":"186,-1434r154,0r0,512v117,-83,222,-125,315,-125v246,0,369,177,369,531v0,201,-44,341,-131,422v-78,71,-170,106,-275,106v-53,0,-106,-12,-161,-36v-55,-24,-100,-49,-135,-76r-46,100r-90,0r0,-1434xm340,-776r0,557v27,31,64,56,110,74v46,18,90,26,134,26v106,0,181,-31,223,-94v42,-63,63,-161,63,-295v0,-134,-21,-235,-63,-303v-42,-68,-96,-102,-162,-102v-98,0,-200,46,-305,137","w":1118},"c":{"d":"788,-160r31,121v-109,33,-206,49,-289,49v-146,0,-255,-47,-329,-143v-74,-96,-111,-227,-111,-395v0,-168,39,-296,115,-384v76,-88,189,-132,338,-132v64,0,154,16,270,49r-61,118v-75,-22,-143,-32,-203,-32v-104,0,-178,31,-224,92v-46,61,-69,159,-69,291v0,269,96,403,289,403v76,0,157,-12,243,-37","w":886},"d":{"d":"770,-1434r154,0r0,1434r-90,0r-52,-117v-126,89,-234,133,-327,133v-246,0,-369,-176,-369,-530v0,-201,44,-341,131,-420v78,-72,166,-108,264,-108v98,0,195,33,289,100r0,-492xm770,-254r0,-532v-29,-34,-67,-63,-114,-88v-47,-25,-90,-37,-130,-37v-106,0,-181,31,-223,94v-42,63,-63,161,-63,295v0,134,21,235,63,303v42,68,96,102,162,102v98,0,200,-46,305,-137"},"e":{"d":"897,-479r-653,0v0,131,31,223,93,278v62,55,140,82,234,82v48,0,82,-2,101,-7v19,-5,37,-9,54,-14v17,-5,29,-9,36,-12v34,-10,63,-18,88,-26r24,119v-137,48,-243,71,-319,71v-141,0,-253,-43,-338,-128v-85,-85,-127,-214,-127,-385v0,-171,40,-304,120,-400v80,-96,181,-143,303,-143v122,0,218,39,286,118v68,79,102,187,102,322v0,37,-1,79,-4,125xm254,-596r500,0v0,-101,-19,-178,-54,-233v-35,-55,-97,-82,-185,-82v-88,0,-152,29,-193,88v-41,59,-64,134,-68,227","w":1001},"f":{"d":"231,-1024r0,-197v0,-83,26,-143,77,-179v51,-36,107,-54,166,-54v59,0,117,9,173,27r-22,110v-45,-8,-79,-12,-101,-12v-94,0,-141,46,-141,137r0,168r209,0r0,123r-209,0r0,901r-154,0r0,-901r-157,0r0,-123r159,0","w":595,"k":{"*":-92}},"g":{"d":"768,-109v-115,82,-219,123,-313,123v-246,0,-369,-176,-369,-530v0,-201,44,-341,131,-422v78,-71,173,-106,284,-106v111,0,204,50,279,151r54,-133r90,0r0,1077v0,149,-37,260,-111,332v-74,72,-173,109,-299,109v-64,0,-121,-9,-172,-25v-51,-16,-103,-35,-158,-55r29,-109v115,37,211,55,288,55v77,0,140,-23,191,-71v51,-48,76,-120,76,-217r0,-179xm768,-256r0,-383v0,-81,-27,-146,-80,-197v-53,-51,-108,-75,-164,-75v-106,0,-181,31,-223,93v-42,62,-63,161,-63,298v0,268,75,401,225,401v98,0,200,-46,305,-137"},"h":{"d":"952,0r-153,0r0,-674v0,-165,-69,-248,-207,-248v-102,0,-186,33,-252,99r0,823r-154,0r0,-1434r152,0r0,486v30,-25,54,-42,71,-53v17,-11,45,-22,84,-33v39,-11,83,-17,132,-17v94,0,172,29,234,86v62,57,93,140,93,246r0,719","w":1138},"i":{"d":"158,0r0,-1024r153,0r0,1024r-153,0xm311,-1434r0,183r-153,0r0,-183r153,0","w":466},"j":{"d":"299,-1434r0,181r-154,0r0,-181r154,0xm61,418v56,-72,84,-188,84,-348r0,-1094r154,0r0,1044v0,117,-11,211,-34,281v-23,70,-60,132,-113,188","w":454},"k":{"d":"186,-1434r154,0r0,844r438,-434r195,0r-434,416r456,608r-174,0r-372,-512r-109,111r0,401r-154,0r0,-1434","w":1042},"l":{"d":"186,0r0,-1434r154,0r0,1434r-154,0","w":526},"m":{"d":"618,-1047v131,0,225,47,281,140v116,-93,224,-140,322,-140v98,0,178,28,240,83v62,55,93,136,93,241r0,723r-149,0r0,-659v0,-83,-18,-147,-56,-190v-38,-43,-88,-64,-151,-64v-86,0,-173,34,-260,102v7,30,10,59,10,88r0,723r-149,0r0,-659v0,-83,-19,-147,-57,-190v-38,-43,-87,-64,-150,-64v-41,0,-79,5,-113,16v-34,11,-60,22,-76,33v-16,11,-37,27,-63,49r0,815r-154,0r0,-1024r99,0r26,104v34,-29,61,-49,79,-62v18,-13,49,-27,91,-42v42,-15,88,-23,137,-23","w":1740},"n":{"d":"340,-813r0,813r-154,0r0,-1024r99,0r24,100v31,-25,57,-43,77,-57v20,-14,51,-28,95,-42v44,-14,91,-21,140,-21v94,0,172,29,234,87v62,58,93,140,93,246r0,711r-153,0r0,-666v0,-165,-69,-247,-207,-247v-98,0,-181,33,-248,100","w":1134},"o":{"d":"741,-807v-52,-70,-127,-104,-227,-104v-100,0,-170,33,-212,99v-42,66,-62,167,-62,304v0,258,94,387,284,387v100,0,174,-31,222,-93v48,-62,73,-159,73,-291v0,-132,-26,-232,-78,-302xm526,12v-142,0,-250,-46,-326,-138v-76,-92,-114,-221,-114,-387v0,-166,37,-296,110,-390v73,-94,180,-141,321,-141v141,0,253,47,334,143v81,96,122,225,122,389v0,164,-39,292,-117,385v-78,93,-188,139,-330,139","w":1060},"p":{"d":"340,487r-154,0r0,-1509r90,0r54,115v57,-44,110,-78,160,-102v50,-24,105,-35,165,-35v246,0,369,176,369,530v0,201,-44,341,-131,420v-78,72,-166,108,-265,108v-99,0,-195,-32,-288,-98r0,571xm340,-770r0,547v27,33,65,59,111,78v46,19,91,28,133,28v106,0,181,-31,223,-94v42,-63,63,-161,63,-295v0,-134,-21,-235,-63,-303v-42,-68,-96,-102,-162,-102v-44,0,-87,8,-130,26v-43,18,-75,34,-96,50v-21,16,-48,38,-79,65","w":1118},"q":{"d":"770,-283r0,-473v-27,-42,-71,-78,-131,-109v-60,-31,-115,-46,-166,-46v-81,0,-139,31,-177,92v-38,61,-56,160,-56,297v0,269,89,403,266,403v53,0,104,-15,152,-45v48,-30,86,-70,112,-119xm924,492r-154,0r0,-607r-33,33v-22,20,-40,36,-55,46v-15,10,-41,21,-77,33v-36,12,-76,17,-120,17v-113,0,-208,-39,-284,-120v-76,-81,-115,-206,-115,-377v0,-171,31,-307,94,-409v63,-102,163,-152,301,-152v97,0,197,46,299,137r54,-117r90,0r0,1516"},"r":{"d":"340,-782r0,782r-154,0r0,-1024r99,0r24,121v66,-52,120,-89,164,-110v44,-21,94,-31,150,-31v27,0,47,1,61,4r29,8r-25,141v-25,-8,-58,-12,-100,-12v-82,0,-165,40,-248,121","w":759},"s":{"d":"147,-182v89,41,173,61,254,61v81,0,142,-16,184,-48v42,-32,62,-75,62,-128v0,-53,-18,-95,-53,-124v-35,-29,-79,-52,-130,-68v-51,-16,-103,-35,-154,-54v-51,-19,-95,-48,-130,-86v-35,-38,-53,-86,-53,-145v0,-86,28,-153,84,-200v56,-47,131,-70,227,-70v96,0,185,14,267,43r14,6r-27,131v-82,-31,-158,-47,-228,-47v-70,0,-119,10,-145,32v-26,22,-38,59,-38,111v0,33,18,61,53,84v35,23,79,43,130,60v51,17,102,37,153,60v51,23,96,56,131,101v35,45,53,100,53,166v0,96,-34,171,-101,226v-67,55,-159,83,-276,83v-117,0,-222,-27,-313,-80","w":892},"t":{"d":"211,-221r0,-680r-139,0r0,-123r141,0r0,-293r154,0r0,293r249,0r0,123r-251,0r0,651v0,91,46,137,139,137v22,0,55,-4,100,-12r23,111v-56,18,-114,26,-173,26v-59,0,-115,-18,-166,-54v-51,-36,-77,-96,-77,-179","w":708},"u":{"d":"772,-260r0,-764r156,0r0,1024r-90,0r-52,-121v-109,89,-213,133,-313,133v-100,0,-175,-29,-228,-87v-53,-58,-79,-141,-79,-247r0,-702r153,0r0,678v0,81,12,139,36,174v24,35,64,53,119,53v55,0,112,-15,169,-45v57,-30,100,-62,129,-96","w":1114},"v":{"d":"889,-1026r-346,1026r-176,0r-344,-1026r174,0r260,862r262,-862r170,0","w":911},"w":{"d":"322,0r-299,-1024r159,0r228,862r211,-862r151,0r227,870r209,-870r160,0r-281,1024r-180,0r-211,-809r-198,809r-176,0","w":1390},"x":{"d":"231,-1026r215,362r216,-362r169,0r-301,504r314,522r-170,0r-228,-406r-227,406r-170,0r313,-522r-301,-504r170,0","w":892},"y":{"d":"369,20r-346,-1044r174,0r260,860r262,-860r170,0r-352,1024v-45,132,-95,235,-150,307v-55,72,-125,131,-211,176r-57,-106v55,-31,105,-78,153,-139v48,-61,81,-135,97,-218","w":911},"z":{"d":"100,-1024r629,0r0,123r-450,768r475,0r0,133r-654,0r0,-123r451,-768r-451,0r0,-133","w":862},"{":{"d":"254,-297v0,-182,-65,-272,-193,-272r0,-95v74,0,125,-20,152,-62v27,-42,41,-108,41,-198r0,-307v0,-273,124,-409,371,-409r43,0r0,131r-41,0v-85,0,-142,21,-173,65v-31,44,-46,122,-46,234r0,313v0,94,-10,160,-29,195v-19,35,-61,61,-127,79v60,12,101,39,123,80v22,41,33,105,33,191r0,309v0,127,16,213,49,257v33,44,91,67,176,67r35,0r0,131r-47,0v-117,0,-209,-32,-272,-93v-63,-61,-95,-164,-95,-309r0,-307","w":729},"|":{"d":"375,416r-154,0r0,-2054r154,0r0,2054","w":595},"}":{"d":"475,-297r0,307v0,145,-32,248,-95,309v-63,61,-154,93,-271,93r-48,0r0,-131r35,0v85,0,143,-23,176,-67v33,-44,50,-130,50,-257r0,-309v0,-86,10,-150,32,-191v22,-41,63,-68,123,-80v-66,-18,-108,-44,-127,-79v-19,-35,-28,-101,-28,-195r0,-313v0,-112,-16,-190,-47,-234v-31,-44,-88,-65,-173,-65r-41,0r0,-131r43,0v247,0,371,136,371,409r0,307v0,90,14,156,41,198v27,42,78,62,152,62r0,95v-128,0,-193,90,-193,272","w":729},"~":{"d":"969,-631v-25,53,-59,95,-101,124v-42,29,-91,44,-148,44v-57,0,-122,-20,-196,-60v-74,-40,-137,-61,-190,-61v-53,0,-111,31,-172,92r-51,-96v26,-38,60,-69,103,-94v43,-25,92,-37,147,-37v55,0,120,21,194,62v74,41,136,61,189,61v53,0,111,-31,174,-94","w":1079},"\u00c1":{"d":"1159,0r-172,0r-143,-453r-514,0r-142,453r-161,0r471,-1434r186,0xm809,-586r-219,-692r-221,692r440,0xm520,-1540r154,-254r172,0r-201,254r-125,0","w":1185},"\u00c9":{"d":"958,0r-772,0r0,-1434r772,0r0,134r-618,0r0,454r567,0r0,137r-567,0r0,576r618,0r0,133xm440,-1540r154,-254r172,0r-201,254r-125,0"},"\u00cd":{"d":"283,0r-154,0r0,-1434r154,0r0,1434xm143,-1542r154,-254r172,0r-201,254r-125,0","w":520},"\u00d3":{"d":"662,10v-187,0,-328,-69,-424,-208v-96,-139,-144,-315,-144,-529v0,-214,49,-389,145,-524v96,-135,238,-203,424,-203v186,0,327,68,424,203v97,135,146,310,146,524v0,294,-83,505,-250,635v-89,68,-195,102,-321,102xm666,-1321v-139,0,-244,58,-313,174v-69,116,-103,258,-103,426v0,168,35,309,105,424v70,115,174,172,311,172v137,0,239,-58,309,-174v70,-116,104,-262,104,-438v0,-221,-62,-387,-186,-496v-64,-59,-140,-88,-227,-88xm565,-1542r154,-254r172,0r-201,254r-125,0","w":1327},"\u00d6":{"d":"662,10v-187,0,-328,-69,-424,-208v-96,-139,-144,-315,-144,-529v0,-214,49,-389,145,-524v96,-135,238,-203,424,-203v186,0,327,68,424,203v97,135,146,310,146,524v0,294,-83,505,-250,635v-89,68,-195,102,-321,102xm666,-1321v-139,0,-244,58,-313,174v-69,116,-103,258,-103,426v0,168,35,309,105,424v70,115,174,172,311,172v137,0,239,-58,309,-174v70,-116,104,-262,104,-438v0,-221,-62,-387,-186,-496v-64,-59,-140,-88,-227,-88xm408,-1544r0,-217r145,0r0,217r-145,0xm774,-1544r0,-217r146,0r0,217r-146,0","w":1327},"\u00da":{"d":"680,12v-161,0,-284,-45,-368,-136v-84,-91,-126,-225,-126,-404r0,-906r156,0r0,930v0,122,29,216,87,283v58,67,141,100,248,100v107,0,191,-33,251,-99v60,-66,90,-161,90,-284r0,-930r156,0r0,906v0,179,-42,313,-126,404v-84,91,-207,136,-368,136xm610,-1542r154,-254r172,0r-201,254r-125,0","w":1359},"\u00dc":{"d":"426,-1544r0,-217r145,0r0,217r-145,0xm793,-1544r0,-217r145,0r0,217r-145,0xm680,12v-161,0,-284,-45,-368,-136v-84,-91,-126,-225,-126,-404r0,-906r156,0r0,930v0,122,29,216,87,283v58,67,141,100,248,100v107,0,191,-33,251,-99v60,-66,90,-161,90,-284r0,-930r156,0r0,906v0,179,-42,313,-126,404v-84,91,-207,136,-368,136","w":1359},"\u00e1":{"d":"608,-1169r-119,-43r232,-289r153,61xm629,-612r84,0v0,-124,-16,-205,-47,-243v-31,-38,-101,-56,-209,-56v-108,0,-200,14,-275,43r-28,-119v115,-38,233,-57,356,-57v240,0,360,120,360,360r0,684r-90,0r-53,-121v-63,52,-117,88,-163,106v-46,18,-98,27,-158,27v-96,0,-171,-28,-224,-85v-53,-57,-80,-131,-80,-224v0,-210,176,-315,527,-315xm715,-483r-92,0v-139,0,-235,14,-288,41v-53,27,-79,70,-79,128v0,58,15,105,45,142v30,37,70,55,118,55v48,0,95,-11,139,-34v44,-23,97,-61,157,-117r0,-215","w":1056},"\u00e9":{"d":"897,-479r-653,0v0,131,31,223,93,278v62,55,140,82,234,82v48,0,82,-2,101,-7v19,-5,37,-9,54,-14v17,-5,29,-9,36,-12v34,-10,63,-18,88,-26r24,119v-137,48,-243,71,-319,71v-141,0,-253,-43,-338,-128v-85,-85,-127,-214,-127,-385v0,-171,40,-304,120,-400v80,-96,181,-143,303,-143v122,0,218,39,286,118v68,79,102,187,102,322v0,37,-1,79,-4,125xm254,-596r500,0v0,-101,-19,-178,-54,-233v-35,-55,-97,-82,-185,-82v-88,0,-152,29,-193,88v-41,59,-64,134,-68,227xm492,-1169r-119,-43r231,-289r154,61","w":1001},"\u00ed":{"d":"158,0r0,-1024r149,0r0,1024r-149,0xm285,-1169r-119,-43r231,-289r154,61","w":462},"\u00f3":{"d":"520,-1169r-119,-43r232,-289r153,61xm741,-807v-52,-70,-127,-104,-227,-104v-100,0,-170,33,-212,99v-42,66,-62,167,-62,304v0,258,94,387,284,387v100,0,174,-31,222,-93v48,-62,73,-159,73,-291v0,-132,-26,-232,-78,-302xm526,12v-142,0,-250,-46,-326,-138v-76,-92,-114,-221,-114,-387v0,-166,37,-296,110,-390v73,-94,180,-141,321,-141v141,0,253,47,334,143v81,96,122,225,122,389v0,164,-39,292,-117,385v-78,93,-188,139,-330,139","w":1060},"\u00f6":{"d":"272,-1217r0,-217r146,0r0,217r-146,0xm639,-1217r0,-217r145,0r0,217r-145,0xm741,-807v-52,-70,-127,-104,-227,-104v-100,0,-170,33,-212,99v-42,66,-62,167,-62,304v0,258,94,387,284,387v100,0,174,-31,222,-93v48,-62,73,-159,73,-291v0,-132,-26,-232,-78,-302xm526,12v-142,0,-250,-46,-326,-138v-76,-92,-114,-221,-114,-387v0,-166,37,-296,110,-390v73,-94,180,-141,321,-141v141,0,253,47,334,143v81,96,122,225,122,389v0,164,-39,292,-117,385v-78,93,-188,139,-330,139","w":1060},"\u00fa":{"d":"793,-260r0,-764r155,0r0,1024r-90,0r-51,-121v-109,89,-213,133,-313,133v-100,0,-176,-29,-229,-87v-53,-58,-79,-141,-79,-247r0,-702r154,0r0,678v0,81,12,139,36,174v24,35,64,53,119,53v55,0,112,-15,169,-45v57,-30,100,-62,129,-96xm555,-1169r-119,-43r232,-289r153,61","w":1134},"\u00fc":{"d":"793,-1024r155,0r0,1024r-90,0r-51,-121v-109,89,-213,133,-313,133v-100,0,-176,-29,-229,-87v-53,-58,-79,-141,-79,-247r0,-702r154,0r0,678v0,81,12,139,36,174v24,35,64,53,119,53v55,0,112,-15,169,-45v57,-30,100,-62,129,-96r0,-764xm311,-1217r0,-217r146,0r0,217r-146,0xm678,-1217r0,-217r145,0r0,217r-145,0","w":1134},"\u00a0":{"w":512}}});
