/*!
 * The following copyright notice may not be removed under any circumstances.
 * 
 * Copyright:
 * Copyright (c) 2008, 2009, 2010, Accademia di Belle Arti di Urbino. Licensed
 * under the SIL Open Font License, Version 1.1
 * 
 * 
 * Designer:
 * Paolo Mazzetti, Luciano Perondi, Raffaele Flaùto, Elena Papassissa, Emilio
 * Macchia, Michela Povoleri, Tobias Seemiller, Riccardo Lorusso, Sabrina Campagna,
 * Elisa Ansuini, Mariangela Di Pinto, Antonio Cavedoni, Marco Comastri, Luna
 * Castroni, Stefano Faoro, Daniele Capo, Jan Henrik Arnold
 * 
 * License information:
 * http://scripts.sil.org/OFL
 */
Cufon.registerFont({"w":1024,"face":{"font-family":"Lekton","font-weight":400,"font-stretch":"normal","units-per-em":"2048","panose-1":"2 0 0 0 0 0 0 0 0 0","ascent":"1536","descent":"-512","x-height":"18","bbox":"0 -1806 1024 500","underline-thickness":"102.4","underline-position":"-102.4","unicode-range":"U+0020-U+0171"},"glyphs":{" ":{},"!":{"d":"399,12r0,-176r156,0r0,176r-156,0xm428,-385r-18,-1024r135,0r-19,1024r-98,0"},"\"":{"d":"293,-948r0,-445r108,0r0,445r-108,0xm621,-948r0,-445r108,0r0,445r-108,0"},"#":{"d":"639,-483r45,-414r-295,0r-45,414r295,0xm977,-393r-242,0r-43,393r-108,0r45,-393r-295,0r-45,393r-107,0r45,-393r-227,0r0,-90r238,0r45,-414r-236,0r0,-88r244,0r39,-356r106,0r-39,356r297,0r37,-356r107,0r-37,356r223,0r0,88r-233,0r-46,414r232,0r0,90"},"$":{"d":"516,-1212v-187,0,-280,75,-280,225v0,74,20,129,61,166v41,37,122,69,243,98v121,29,209,70,264,124v55,54,83,135,83,242v0,107,-34,193,-100,259v-66,66,-153,102,-259,112r0,174r-102,0r0,-172v-93,-5,-197,-25,-313,-59r26,-102v132,40,242,59,329,59v87,0,158,-25,214,-73v56,-48,84,-114,84,-197v0,-83,-20,-142,-60,-176v-40,-34,-122,-67,-246,-97v-124,-30,-212,-71,-266,-123v-54,-52,-81,-128,-81,-228v0,-100,31,-178,94,-234v63,-56,141,-89,235,-99r0,-172r105,0r0,170v108,4,215,26,321,64r-28,102v-117,-42,-226,-63,-324,-63"},"%":{"d":"735,-1362r115,0r-567,1362r-115,0xm0,-1075v0,-82,24,-147,72,-195v48,-48,108,-71,180,-71v72,0,132,23,180,71v48,48,72,113,72,195v0,82,-24,146,-72,194v-48,48,-108,72,-180,72v-72,0,-132,-24,-180,-72v-48,-48,-72,-112,-72,-194xm98,-1075v0,55,15,97,44,127v29,30,66,45,110,45v44,0,80,-15,109,-45v29,-30,45,-72,45,-127v0,-55,-16,-97,-45,-127v-29,-30,-65,-45,-109,-45v-44,0,-81,15,-110,45v-29,30,-44,72,-44,127xm518,-266v0,-82,24,-147,72,-195v48,-48,108,-71,180,-71v72,0,132,23,180,71v48,48,72,113,72,195v0,82,-24,146,-72,194v-48,48,-108,72,-180,72v-72,0,-132,-24,-180,-72v-48,-48,-72,-112,-72,-194xm616,-266v0,55,15,97,44,127v29,30,66,45,110,45v44,0,81,-15,110,-45v29,-30,44,-72,44,-127v0,-55,-15,-97,-44,-127v-29,-30,-66,-45,-110,-45v-44,0,-81,15,-110,45v-29,30,-44,72,-44,127"},"&":{"d":"10,-403v0,-195,107,-335,320,-418v-67,-108,-101,-200,-101,-276v0,-76,27,-138,80,-189v53,-51,123,-76,208,-76v85,0,154,25,206,75v52,50,78,113,78,192v0,79,-22,143,-66,193v-44,50,-122,100,-237,152r272,424v49,-102,93,-243,131,-422r100,17v-33,180,-87,344,-163,491v18,29,40,62,67,97r96,120r-79,66v-66,-76,-117,-143,-154,-199v-104,117,-219,176,-345,176v-126,0,-227,-37,-301,-111v-74,-74,-112,-178,-112,-312xm632,-941v36,-40,54,-89,54,-146v0,-57,-15,-102,-45,-131v-30,-29,-71,-44,-123,-44v-52,0,-94,16,-126,47v-32,31,-48,69,-48,117v0,48,8,90,24,128v16,38,43,84,81,139v86,-33,147,-70,183,-110xm127,-403v0,101,26,180,78,237v52,57,124,86,215,86v51,0,102,-14,155,-43v53,-29,99,-67,134,-113r-332,-505v-167,70,-250,182,-250,338"},"'":{"d":"453,-948r0,-445r108,0r0,445r-108,0"},"(":{"d":"450,-118v-54,-152,-81,-330,-81,-534v0,-204,27,-383,81,-535v54,-152,130,-300,230,-443r86,55v-90,132,-160,270,-210,412v-50,142,-75,312,-75,511v0,199,25,370,76,513v51,143,120,279,209,409r-86,58v-100,-145,-176,-294,-230,-446"},")":{"d":"467,-139v51,-143,76,-314,76,-513v0,-199,-25,-369,-75,-511v-50,-142,-120,-280,-210,-412r86,-55v100,143,176,291,230,443v54,152,81,331,81,535v0,204,-27,382,-81,534v-54,152,-130,301,-230,446r-86,-58v89,-130,158,-266,209,-409"},"*":{"d":"143,-1034r0,-92r303,0r-92,-287r92,-31r91,291r243,-178r56,74r-246,180r246,174r-58,80r-243,-181r-95,287r-92,-33r96,-284r-301,0"},"+":{"d":"973,-532r-412,0r0,407r-102,0r0,-407r-410,0r0,-95r410,0r0,-405r102,0r0,405r412,0r0,95"},",":{"d":"354,0r0,-229r195,0r0,168v0,123,-53,241,-158,354r-55,-49v61,-90,95,-172,100,-244r-82,0"},"-":{"d":"225,-436r0,-111r588,0r0,111r-588,0"},".":{"d":"358,0r0,-248r226,0r0,248r-226,0"},"\/":{"d":"51,51r846,-1493r76,45r-848,1493"},"0":{"d":"211,-1165v61,-102,161,-154,300,-154v139,0,239,52,300,154v61,102,92,273,92,513v0,240,-31,411,-92,515v-61,104,-161,155,-300,155v-139,0,-239,-51,-300,-155v-61,-104,-92,-275,-92,-515v0,-240,31,-411,92,-513xm510,-88v98,0,167,-44,205,-131v38,-87,57,-232,57,-435v0,-203,-18,-346,-55,-431v-37,-85,-105,-127,-205,-127v-100,0,-168,43,-206,128v-38,85,-56,229,-56,431v0,202,18,347,56,434v38,87,106,131,204,131"},"1":{"d":"930,0r-768,0r0,-104r350,0r0,-1065r-338,155r-47,-108r397,-178r109,0r0,1196r297,0r0,104"},"2":{"d":"696,-567r-155,141v-134,115,-219,218,-256,309r633,0r0,117r-768,0r0,-100v25,-70,62,-137,113,-201v51,-64,104,-120,157,-166r155,-139v115,-106,173,-218,173,-334v0,-81,-24,-146,-72,-196v-48,-50,-107,-74,-179,-74v-72,0,-175,46,-307,137r-57,-86v143,-105,268,-158,372,-158v104,0,191,33,260,99v69,66,103,163,103,291v0,128,-57,248,-172,360"},"3":{"d":"279,-600r-15,-92r148,-23v111,-16,192,-46,246,-89v54,-43,81,-103,81,-181v0,-78,-24,-135,-72,-171v-48,-36,-112,-54,-188,-54v-76,0,-182,30,-319,90r-39,-97v53,-26,116,-49,188,-69v72,-20,132,-31,180,-31v112,0,202,27,268,80v66,53,99,135,99,244v0,76,-15,136,-46,179v-31,43,-82,83,-153,118r0,4v168,35,252,147,252,334v0,253,-141,378,-424,378v-113,0,-244,-26,-391,-81r37,-105v138,53,254,80,350,80v96,0,171,-23,226,-68v55,-45,81,-113,81,-204v0,-91,-23,-159,-69,-202v-46,-43,-119,-65,-217,-65"},"4":{"d":"940,-367r0,107r-184,0r0,280r-113,0r0,-280r-555,0r0,-96r336,-942r117,0r-326,931r428,0r0,-430r113,0r0,430r184,0"},"5":{"d":"812,-723v68,71,101,173,101,305v0,132,-37,239,-111,319v-74,80,-180,119,-315,119v-108,0,-231,-29,-370,-86r39,-104v126,56,236,84,333,84v97,0,173,-31,226,-93v53,-62,80,-143,80,-241v0,-98,-25,-173,-73,-225v-48,-52,-118,-78,-207,-78v-89,0,-180,40,-273,119r-76,-23r20,-671r684,0r0,112r-581,0r-15,445v82,-59,166,-88,252,-88v123,0,218,35,286,106"},"6":{"d":"825,-723v70,70,105,172,105,306v0,134,-36,241,-107,320v-71,79,-171,117,-300,117v-129,0,-230,-38,-303,-116v-73,-78,-109,-192,-109,-342v0,-150,21,-279,64,-387v43,-108,109,-201,196,-278v87,-77,208,-154,364,-230r45,100v-177,89,-303,172,-376,249v-73,77,-124,173,-154,288v87,-87,178,-131,272,-131v132,0,233,34,303,104xm811,-420v0,-201,-96,-301,-289,-301v-81,0,-150,28,-207,85v-57,57,-86,127,-86,210v0,227,98,340,293,340v94,0,166,-29,215,-88v49,-59,74,-141,74,-246"},"7":{"d":"115,-1083r39,-215r727,0r0,114v-8,82,-86,253,-232,514v-53,96,-102,206,-146,331v-44,125,-67,238,-67,339r-121,0v0,-105,22,-222,66,-352v44,-128,92,-242,147,-340r156,-291v49,-96,76,-165,80,-209r-520,0r-29,117"},"8":{"d":"102,-340v0,-161,72,-269,217,-324v-127,-63,-190,-164,-190,-303v0,-104,33,-188,101,-253v68,-65,163,-97,287,-97v124,0,219,32,286,97v67,65,100,149,100,253v0,146,-64,246,-192,299v147,55,221,164,221,328v0,111,-36,198,-108,263v-72,65,-174,97,-308,97v-134,0,-236,-32,-307,-97v-71,-65,-107,-152,-107,-263xm298,-541v-51,48,-77,114,-77,197v0,83,25,147,76,192v51,45,123,68,219,68v96,0,169,-23,220,-69v51,-46,77,-109,77,-192v0,-83,-25,-148,-76,-196v-51,-48,-123,-71,-219,-71v-96,0,-169,23,-220,71xm312,-1147v-44,44,-66,103,-66,178v0,75,22,137,66,184v44,47,113,70,205,70v92,0,160,-22,204,-67v44,-45,65,-107,65,-184v0,-77,-22,-137,-66,-181v-44,-44,-113,-65,-204,-65v-91,0,-160,21,-204,65"},"9":{"d":"233,-595v-70,-70,-104,-169,-104,-297v0,-128,37,-230,111,-308v74,-78,172,-117,296,-117v124,0,219,38,289,113v70,75,105,179,105,313v0,184,-32,344,-96,481v-64,137,-169,285,-314,445r-137,-23v128,-139,220,-254,277,-344v57,-90,101,-187,131,-289v-87,87,-176,132,-263,132v-127,0,-225,-36,-295,-106xm248,-897v0,201,93,301,280,301v81,0,148,-28,202,-84v54,-56,81,-126,81,-211v0,-213,-94,-319,-281,-319v-89,0,-157,29,-207,86v-50,57,-75,133,-75,227"},":":{"d":"356,0r0,-248r226,0r0,248r-226,0xm356,-594r0,-248r226,0r0,248r-226,0"},";":{"d":"354,-621r0,-208r189,0r0,208r-189,0xm354,0r0,-229r195,0r0,168v0,123,-53,241,-158,354r-55,-49v61,-90,95,-172,100,-244r-82,0"},"<":{"d":"922,-1028r-709,430r707,451r-54,84r-776,-502r0,-66r776,-481"},"=":{"d":"51,-424r920,0r0,90r-920,0r0,-90xm51,-768r920,0r0,90r-920,0r0,-90"},">":{"d":"799,-598r-709,-430r55,-84r777,481r0,66r-777,502r-53,-84"},"?":{"d":"399,12r0,-190r174,0r0,190r-174,0xm773,-1318v66,54,99,125,99,213v0,88,-11,157,-36,205v-25,48,-74,106,-146,174v-72,68,-118,116,-136,146v-18,30,-28,67,-28,111v0,44,1,90,4,139r-106,4v-11,-44,-16,-94,-16,-152v0,-58,11,-106,34,-144v23,-38,72,-90,144,-158v72,-68,118,-122,138,-160v20,-38,30,-89,30,-150v0,-61,-21,-110,-63,-147v-42,-37,-93,-55,-154,-55v-61,0,-116,13,-164,38v-48,25,-105,63,-172,115r-62,-84v76,-60,144,-104,201,-133v57,-29,118,-43,184,-43v100,0,183,27,249,81"},"@":{"d":"237,59v-83,-109,-124,-270,-124,-482v0,-212,42,-374,126,-485v84,-111,203,-167,359,-167v64,0,123,6,177,19v54,13,92,26,114,40r35,19r0,886v-78,37,-174,56,-287,56v-180,0,-269,-129,-266,-387v1,-87,18,-166,51,-234v40,-82,111,-122,215,-121v56,0,115,9,176,25r0,-166v-52,-26,-124,-39,-215,-39v-116,0,-207,46,-275,140v-68,94,-102,231,-102,413v0,182,34,319,102,410v68,91,148,137,242,137v94,0,201,-18,320,-55r26,98v-112,38,-224,57,-336,57v-143,0,-255,-55,-338,-164xm481,-442v0,93,11,164,34,213v23,49,67,73,134,73v40,0,87,-5,142,-16r22,-6r0,-488v-34,-19,-91,-28,-172,-28v-106,0,-160,84,-160,252"},"A":{"d":"35,0r385,-1341r196,0r371,1341r-121,0r-84,-309r-542,0r-86,309r-119,0xm756,-412r-221,-827r-35,0r-232,827r488,0"},"B":{"d":"137,0r0,-1341r316,0v150,0,261,26,334,80v73,54,110,144,110,268v0,156,-75,257,-227,303v90,20,156,54,199,102v43,48,65,118,65,209v0,145,-41,244,-123,298v-82,54,-208,81,-377,81r-297,0xm815,-379v0,-167,-113,-250,-340,-250r-225,0r0,529r184,0v127,0,223,-21,286,-61v63,-40,95,-113,95,-218xm672,-1204v-59,-25,-132,-37,-219,-37r-203,0r0,512r219,0v86,0,159,-19,219,-58v60,-39,91,-110,92,-214v1,-104,-34,-172,-108,-203"},"C":{"d":"227,-143v-76,-109,-114,-285,-114,-527v0,-242,36,-417,110,-527v74,-110,193,-165,355,-165v106,0,213,17,321,51r0,271r-113,0r0,-183v-60,-22,-129,-32,-208,-32v-123,0,-212,46,-265,137v-53,91,-80,239,-80,444v0,205,29,354,86,447v57,93,144,139,259,139v86,0,188,-18,307,-55r26,106v-112,38,-224,57,-336,57v-156,0,-272,-54,-348,-163"},"D":{"d":"123,0r0,-1341r274,0v101,0,184,9,249,29v65,20,120,55,165,106v45,51,77,119,97,206v20,87,30,196,30,329v0,133,-11,244,-33,332v-22,88,-56,157,-104,206v-48,49,-104,83,-168,103v-64,20,-144,30,-240,30r-270,0xm771,-316v31,-83,46,-201,46,-355v0,-154,-15,-271,-45,-354v-30,-83,-74,-139,-131,-169v-57,-30,-139,-45,-244,-45r-161,0r0,1137r157,0v105,0,187,-15,245,-45v58,-30,102,-86,133,-169"},"E":{"d":"168,0r0,-1341r698,0r0,100r-585,0r0,508r530,0r0,100r-530,0r0,533r591,0r0,100r-704,0"},"F":{"d":"176,0r0,-1341r701,0r0,104r-588,0r0,586r504,0r0,102r-504,0r0,549r-113,0"},"G":{"d":"193,-143v-76,-109,-115,-286,-115,-528v0,-242,37,-418,112,-527v75,-109,198,-164,367,-164v111,0,226,22,348,66r-28,104v-124,-42,-231,-63,-320,-63v-128,0,-220,45,-275,136v-55,91,-83,239,-83,444v0,205,29,355,86,449v57,94,144,140,260,140v70,0,154,-16,252,-49r0,-410r-232,0r0,-100r344,0r0,590v-141,51,-262,75,-364,75v-158,0,-276,-54,-352,-163"},"H":{"d":"111,0r0,-1341r112,0r0,622r578,0r0,-622r112,0r0,1341r-112,0r0,-614r-578,0r0,614r-112,0"},"I":{"d":"227,0r0,-102r232,0r0,-1137r-232,0r0,-102r572,0r0,102r-228,0r0,1137r228,0r0,102r-572,0"},"J":{"d":"639,-1239r0,799v0,186,-16,308,-48,369v-32,61,-107,93,-226,94v-23,0,-64,-5,-121,-13v-57,-8,-99,-15,-125,-22r22,-107v93,23,171,35,234,35v63,0,104,-20,123,-62v19,-42,28,-142,28,-300r0,-793r-329,0r0,-102r546,0r0,102r-104,0"},"K":{"d":"799,-1341r129,0v-137,273,-259,490,-367,651v41,61,93,149,156,264r225,426r-137,0v-153,-299,-266,-508,-340,-625r-207,21r0,604r-113,0r0,-1341r113,0r0,632r199,-20v97,-147,192,-317,288,-508"},"L":{"d":"858,-104r0,104r-672,0r0,-1341r113,0r0,1237r559,0"},"M":{"d":"98,0r0,-1341r109,0r289,751r30,0r289,-751r109,0r0,1341r-111,0r0,-1040r-8,0r-215,555r-158,0r-215,-557r-8,0r0,1042r-111,0"},"N":{"d":"807,0r0,-211r-584,-917r-6,0r0,1128r-113,0r0,-1341r111,0r586,927r6,0r0,-927r113,0r0,1341r-113,0"},"O":{"d":"82,-684v0,-106,6,-199,20,-277v14,-78,36,-147,66,-210v61,-127,176,-191,344,-191v191,1,317,91,377,268v35,102,53,223,53,362v0,139,-6,249,-20,331v-14,82,-36,155,-66,221v-63,134,-177,200,-344,200v-164,0,-278,-66,-342,-200v-59,-122,-88,-290,-88,-504xm821,-668v0,-74,-2,-133,-5,-178v-3,-45,-11,-94,-23,-149v-12,-55,-30,-100,-51,-135v-21,-35,-51,-66,-90,-90v-39,-24,-85,-35,-140,-35v-55,0,-101,11,-140,35v-39,24,-69,55,-90,90v-21,35,-39,80,-51,135v-19,85,-28,178,-28,281v0,103,3,187,11,250v8,63,22,127,42,188v42,127,128,190,256,190v131,0,217,-65,258,-193v35,-109,52,-239,51,-389"},"P":{"d":"442,-492r-188,0r0,492r-113,0r0,-1341r301,0v164,0,285,31,364,93v79,62,118,169,118,322v0,153,-40,264,-119,332v-79,68,-201,102,-363,102xm442,-1239r-188,0r0,645r188,0v126,0,218,-25,276,-76v58,-51,87,-135,87,-254v0,-119,-29,-200,-86,-246v-57,-46,-150,-69,-277,-69"},"Q":{"d":"870,150r-133,-191v-60,41,-133,61,-219,61v-86,0,-158,-17,-215,-51v-57,-34,-102,-83,-133,-149v-59,-123,-88,-292,-88,-508v0,-336,72,-545,217,-627v57,-33,124,-49,200,-48v76,1,138,12,189,34v51,22,92,52,123,90v33,40,59,88,78,145v35,102,53,238,53,406v0,268,-42,457,-127,569r121,180xm206,-819v-2,38,-3,91,-3,159v0,68,3,133,11,196v8,63,22,127,42,190v42,127,128,190,256,190v60,0,111,-15,152,-45r-115,-113r51,-106r137,139v56,-94,84,-254,84,-479v1,-177,-14,-305,-47,-381v-35,-85,-82,-139,-141,-164v-35,-16,-76,-24,-121,-24v-45,0,-86,7,-121,23v-35,16,-64,39,-86,69v-22,30,-40,62,-54,96v-14,34,-25,75,-32,122v-7,47,-11,90,-13,128"},"R":{"d":"549,-551v-74,4,-121,6,-143,6r-168,0r0,545r-113,0r0,-1341r301,0v167,0,289,29,367,86v78,57,116,158,116,303v0,97,-19,174,-58,233v-39,59,-101,107,-187,144v93,176,178,367,254,575r-123,0v-75,-199,-157,-383,-246,-551xm422,-1239r-184,0r0,592r163,0v126,0,222,-23,289,-69v67,-46,101,-124,101,-236v0,-112,-31,-188,-90,-228v-59,-40,-152,-59,-279,-59"},"S":{"d":"196,-773v-57,-57,-85,-139,-85,-247v0,-108,37,-192,111,-252v74,-60,171,-90,288,-90v117,0,236,22,358,64r-28,104v-113,-41,-218,-61,-313,-61v-95,0,-167,20,-218,60v-51,40,-76,99,-76,175v0,76,21,134,62,174v41,40,123,76,245,108v122,32,210,74,265,127v55,53,82,137,82,254v0,117,-39,208,-118,276v-79,68,-180,101,-304,101v-93,0,-210,-19,-352,-59r26,-104v139,38,251,57,336,57v85,0,154,-24,209,-71v55,-47,82,-112,82,-197v0,-85,-19,-147,-59,-187v-40,-40,-121,-74,-243,-103v-122,-29,-211,-72,-268,-129"},"T":{"d":"98,-1237r0,-104r824,0r0,104r-357,0r0,1237r-112,0r0,-1237r-355,0"},"U":{"d":"111,-387r0,-954r112,0r0,940v0,210,96,315,289,315v97,0,169,-29,217,-87v48,-58,72,-134,72,-228r0,-940r112,0r0,954v0,132,-34,233,-103,303v-69,70,-170,104,-302,104v-132,0,-232,-36,-298,-108v-66,-72,-99,-172,-99,-299"},"V":{"d":"88,-1341r121,0r297,1241r20,0r295,-1241r119,0r-330,1341r-192,0"},"W":{"d":"154,0r-150,-1341r117,0r137,1239r23,0r180,-648r108,0r172,648r25,0r137,-1239r117,0r-150,1341r-206,0r-148,-578r-6,0r-154,578r-202,0"},"X":{"d":"489,-588r-260,588r-139,0r330,-688r-314,-653r144,0r250,553r4,0r248,-553r137,0r-316,653r349,688r-148,0r-280,-588r-5,0"},"Y":{"d":"565,-580r0,580r-110,0r0,-580r-396,-761r136,0r313,645r4,0r313,-645r136,0"},"Z":{"d":"143,-1239r0,-102r738,0r0,81r-605,1158r637,0r0,102r-770,0r0,-82r602,-1157r-602,0"},"[":{"d":"356,319r0,-1943r422,0r0,102r-305,0r0,1739r305,0r0,102r-422,0"},"\\":{"d":"33,-1409r76,-45r845,1493r-73,45"},"]":{"d":"246,319r0,-102r305,0r0,-1739r-305,0r0,-102r422,0r0,1943r-422,0"},"_":{"d":"0,262r0,-88r1024,0r0,88r-1024,0"},"a":{"d":"446,-88v51,0,106,-16,165,-48v59,-32,103,-62,130,-89r0,-244v-90,-7,-176,-10,-258,-10v-82,0,-143,17,-184,52v-41,35,-61,81,-61,140v0,132,69,199,208,199xm444,18v-100,0,-178,-25,-235,-76v-57,-51,-86,-124,-86,-218v0,-94,31,-168,94,-220v63,-53,146,-79,250,-79v104,0,195,4,274,12v0,-122,-15,-205,-45,-249v-30,-44,-91,-67,-182,-67v-91,0,-200,22,-324,66r-30,-102v127,-46,242,-70,344,-70v135,0,226,30,274,90v48,60,72,165,72,315r0,430r16,156r-104,10r-21,-122v-31,27,-76,54,-133,82v-57,28,-112,42,-164,42"},"b":{"d":"158,0r0,-1360r108,0r0,481v102,-71,196,-106,279,-106v123,0,217,42,284,126v67,84,101,203,101,359v0,156,-38,281,-113,376v-75,95,-177,142,-307,142v-79,0,-161,-19,-246,-59r-4,41r-102,0xm742,-778v-47,-67,-114,-101,-203,-101v-89,0,-180,39,-273,117r0,615v29,14,68,26,118,39v50,13,91,20,122,20v96,0,170,-39,225,-115v55,-76,82,-175,82,-295v0,-120,-24,-213,-71,-280"},"c":{"d":"735,-655r0,-203v-67,-15,-120,-23,-160,-23v-98,0,-172,35,-220,105v-48,70,-72,166,-72,289v0,123,24,219,73,291v49,72,122,108,219,108v61,0,147,-19,256,-57r31,102v-108,41,-202,61,-284,61v-134,0,-237,-45,-307,-134v-70,-89,-105,-213,-105,-373v0,-160,34,-283,104,-368v70,-85,173,-128,308,-128v90,0,179,14,268,43r0,287r-111,0"},"d":{"d":"877,-1360r0,1190r20,178r-104,12r-21,-108v-102,71,-197,106,-283,106v-122,0,-215,-45,-283,-135v-68,-90,-102,-212,-102,-367v0,-155,38,-278,113,-367v75,-89,177,-134,307,-134v76,0,158,18,244,55r0,-430r109,0xm292,-198v47,73,115,110,204,110v89,0,179,-39,272,-117r0,-614v-29,-14,-68,-27,-118,-40v-50,-13,-91,-20,-122,-20v-97,0,-172,36,-226,106v-54,70,-81,166,-81,286v0,120,24,216,71,289"},"e":{"d":"234,-853v65,-88,160,-132,284,-132v124,0,217,41,278,123v61,82,91,190,91,327r-6,103r-627,0v7,102,34,186,82,249v48,63,114,95,198,95v84,0,182,-19,295,-59r31,102v-111,42,-214,63,-311,63v-134,0,-236,-45,-306,-134v-70,-89,-106,-212,-106,-369v0,-157,32,-280,97,-368xm526,-881v-172,0,-262,115,-272,346r516,0v0,-231,-82,-346,-244,-346"},"f":{"d":"369,-870r-195,0r0,-103r195,0v0,-270,100,-405,301,-405v66,0,138,12,217,35r-25,104v-76,-22,-139,-33,-188,-33v-71,0,-122,24,-152,72v-30,48,-45,123,-45,227r371,0r0,103r-371,0r0,768r375,0r0,102r-686,0r0,-102r203,0r0,-768"},"g":{"d":"877,-236r6,283v0,122,-37,212,-110,272v-73,60,-163,91,-271,91v-108,0,-231,-27,-369,-82r37,-103v135,52,243,78,323,78v80,0,146,-20,200,-62v54,-42,81,-106,81,-192v0,-11,-1,-35,-3,-73v-2,-38,-3,-64,-3,-82v-100,70,-193,104,-279,104v-123,0,-217,-42,-283,-126v-66,-84,-100,-203,-100,-358v0,-155,37,-277,111,-366v74,-89,176,-133,307,-133v72,0,154,24,244,72r4,-60r105,0r0,737xm293,-209v46,67,114,100,203,100v89,0,179,-38,272,-116r0,-574v-85,-53,-165,-80,-240,-80v-97,0,-172,36,-225,106v-53,70,-80,166,-80,285v0,119,24,212,70,279"},"h":{"d":"268,-795r0,795r-108,0r0,-1360r108,0r0,461v128,-57,235,-86,318,-86v195,0,293,112,293,336r0,649r-109,0r0,-649v0,-70,-15,-125,-45,-167v-30,-42,-82,-63,-156,-63v-74,0,-174,28,-301,84"},"i":{"d":"252,-870r0,-103r346,0r0,871r238,0r0,102r-600,0r0,-102r253,0r0,-768r-237,0xm472,-1195v-17,-17,-26,-39,-26,-66v0,-27,9,-47,26,-63v17,-16,38,-24,63,-24v25,0,44,8,60,23v16,15,23,36,23,63v0,27,-7,50,-23,67v-16,17,-35,26,-60,26v-25,0,-46,-9,-63,-26"},"j":{"d":"680,-973r0,993v0,128,-32,217,-97,263v-65,46,-179,80,-343,102r-13,-106v135,-19,227,-45,274,-77v47,-32,70,-93,70,-182r0,-892r-260,0r0,-101r369,0xm516,-1262v0,-59,30,-88,90,-88v57,1,86,33,86,93v0,60,-29,90,-86,90v-29,0,-50,-9,-66,-26v-16,-17,-24,-40,-24,-69"},"k":{"d":"735,-973r123,0v-96,154,-206,306,-330,455v85,120,199,293,342,518r-122,0v-109,-177,-208,-329,-297,-453r-144,19r0,434r-108,0r0,-1360r108,0r0,828r133,-21v97,-126,195,-266,295,-420"},"l":{"d":"223,-1257r-2,-101r354,-2r0,1258r250,0r0,102r-610,0r0,-102r252,0r0,-1158"},"m":{"d":"174,-973r6,62v68,-49,121,-74,158,-74v90,0,152,29,186,88v76,-59,144,-88,201,-88v89,0,149,27,182,82v33,55,49,139,49,252r0,651r-108,0r0,-651v0,-78,-9,-135,-25,-173v-16,-38,-48,-57,-94,-57v-46,0,-104,22,-172,66v8,46,12,101,12,164r0,340r-108,0r0,-340v0,-78,-9,-135,-25,-172v-18,-38,-50,-58,-96,-58v-46,0,-100,22,-160,66r0,815r-108,0r0,-973r102,0"},"n":{"d":"260,-973r4,82v132,-63,243,-94,330,-94v87,0,156,30,206,90v50,60,74,142,74,246r0,649r-108,0r0,-649v0,-67,-16,-122,-49,-166v-33,-42,-82,-64,-148,-64v-66,0,-167,31,-305,91r0,788r-108,0r0,-973r104,0"},"o":{"d":"512,-985v261,0,391,167,391,502v0,335,-130,501,-391,501v-261,0,-391,-166,-391,-501v0,-335,130,-502,391,-502xm238,-483v0,264,91,395,274,395v183,0,274,-131,274,-395v0,-264,-91,-396,-274,-396v-183,0,-274,132,-274,396"},"p":{"d":"158,393r0,-1190r-19,-178r103,-12r18,110v100,-72,195,-108,285,-108v122,0,215,44,282,133v67,89,101,211,101,367v0,156,-37,278,-111,368v-74,90,-176,135,-307,135v-76,0,-158,-18,-244,-55r0,430r-108,0xm741,-771v-46,-72,-112,-108,-199,-108v-87,0,-179,39,-276,117r0,615v29,14,68,26,118,39v50,13,91,20,122,20v97,0,172,-36,225,-107v53,-71,80,-166,80,-287v0,-121,-24,-217,-70,-289"},"q":{"d":"877,-973r0,1362r-109,0r0,-475v-100,70,-193,104,-279,104v-122,0,-215,-45,-282,-135v-67,-90,-101,-212,-101,-368v0,-156,37,-278,111,-367v74,-89,176,-133,307,-133v72,0,154,24,244,72r4,-60r105,0xm294,-197v47,72,115,109,203,109v88,0,178,-39,271,-117r0,-594v-85,-53,-165,-80,-240,-80v-97,0,-172,36,-225,106v-53,70,-80,166,-80,287v0,121,24,217,71,289"},"r":{"d":"186,-870r0,-103r301,0r5,119v44,-27,105,-55,184,-82v79,-27,149,-44,209,-49r0,121v-56,4,-125,18,-208,41v-83,23,-144,46,-185,71r0,650r327,0r0,102r-633,0r0,-102r193,0r0,-768r-193,0"},"s":{"d":"160,-47r26,-107v135,45,240,68,314,68v74,0,131,-16,171,-48v40,-32,60,-75,60,-128v0,-53,-16,-93,-48,-118v-32,-25,-99,-50,-200,-73v-101,-23,-176,-56,-227,-100v-51,-41,-76,-102,-76,-184v0,-82,31,-145,93,-188v62,-43,143,-64,241,-64v98,0,205,21,320,65r-29,97v-116,-38,-210,-58,-281,-58v-71,0,-127,12,-168,37v-41,27,-61,65,-61,111v0,46,18,82,54,108v36,26,106,52,210,78v104,26,177,59,221,99v44,40,66,104,66,190v0,86,-29,154,-88,205v-57,51,-140,75,-246,75v-106,0,-224,-21,-352,-65"},"t":{"d":"328,-856r-172,0r0,-102r172,0r0,-236r108,-20r0,256r389,0r0,102r-389,0r0,479v0,106,11,181,32,225v21,44,64,66,130,66v66,0,138,-13,217,-39r25,102v-79,29,-154,43,-222,43v-68,0,-121,-8,-160,-26v-39,-18,-68,-46,-86,-85v-18,-39,-31,-79,-36,-120v-5,-41,-8,-95,-8,-162r0,-483"},"u":{"d":"766,0r-4,-84v-131,68,-241,102,-328,102v-87,0,-156,-30,-207,-90v-51,-60,-75,-141,-75,-245r0,-656r108,0r0,656v0,67,16,121,48,164v32,43,81,65,147,65v66,0,168,-34,307,-102r0,-783r108,0r0,973r-104,0"},"v":{"d":"109,-973r122,0r269,875r37,0r258,-875r123,0r-297,973r-205,0"},"w":{"d":"846,-973r106,0r-116,973r-218,0r-104,-424r-8,0r-107,424r-215,0r-112,-973r106,0r107,875r37,0r137,-494r106,0r137,494r37,0"},"x":{"d":"123,-973r141,0r248,402r246,-402r137,0r-307,479r325,494r-139,0r-262,-416r-260,416r-139,0r329,-494"},"y":{"d":"109,-973r122,0r289,828r17,0r258,-828r123,0r-377,1139v-35,108,-73,177,-112,207v-39,30,-117,46,-236,49r0,-105v76,-1,127,-12,153,-32v26,-20,50,-63,72,-129r47,-142"},"z":{"d":"178,-870r0,-103r668,0r10,84r-551,787r557,0r0,102r-686,0r-16,-84r549,-786r-531,0"},"{":{"d":"213,-614r0,-107r184,-94v0,-115,-3,-235,-10,-359v-7,-124,-10,-206,-10,-247v0,-135,67,-203,201,-203r221,0r0,102r-211,0v-63,0,-94,38,-94,113v0,45,3,138,10,279v7,141,10,267,10,380r-184,74r0,17r184,75v0,101,-3,226,-10,376v-7,150,-10,253,-10,312v0,75,31,113,94,113r211,0r0,102r-221,0v-134,0,-201,-67,-201,-202v0,-55,3,-149,10,-283v7,-134,10,-251,10,-352"},"|":{"d":"567,-1522r0,2022r-108,0r0,-2022r108,0"},"}":{"d":"193,319r0,-102r210,0v63,0,95,-38,95,-113v0,-59,-4,-162,-11,-312v-7,-150,-10,-275,-10,-376r185,-75r0,-15r-185,-76v0,-113,3,-239,10,-380v7,-141,11,-234,11,-279v0,-75,-32,-113,-95,-113r-210,0r0,-102r221,0v134,0,200,68,200,203v0,41,-3,123,-10,247v-7,124,-10,244,-10,359r184,96r0,105r-184,96v0,101,3,218,10,352v7,134,10,228,10,283v0,135,-66,202,-200,202r-221,0"},"~":{"d":"899,-647r72,61v-51,55,-94,95,-132,121v-38,26,-78,39,-122,39v-44,0,-92,-13,-144,-40v-52,-27,-100,-53,-145,-80v-45,-27,-84,-40,-117,-40v-44,-1,-105,41,-184,127r-74,-63v100,-106,186,-160,258,-160v55,0,127,27,217,80v90,53,155,80,193,80v38,0,97,-42,178,-125"},"\u00c1":{"d":"336,-1626r418,-180r39,94r-422,172xm35,0r385,-1341r196,0r371,1341r-121,0r-84,-309r-542,0r-86,309r-119,0xm756,-412r-221,-827r-35,0r-232,827r488,0"},"\u00c9":{"d":"303,-1626r418,-180r39,94r-422,172xm168,0r0,-1341r698,0r0,100r-585,0r0,508r530,0r0,100r-530,0r0,533r591,0r0,100r-704,0"},"\u00cd":{"d":"289,-1626r418,-180r38,94r-421,172xm227,0r0,-102r232,0r0,-1137r-232,0r0,-102r572,0r0,102r-228,0r0,1137r228,0r0,102r-572,0"},"\u00d3":{"d":"317,-1626r418,-180r39,94r-422,172xm82,-684v0,-106,6,-199,20,-277v14,-78,36,-147,66,-210v61,-127,176,-191,344,-191v191,1,317,91,377,268v35,102,53,223,53,362v0,139,-6,249,-20,331v-14,82,-36,155,-66,221v-63,134,-177,200,-344,200v-164,0,-278,-66,-342,-200v-59,-122,-88,-290,-88,-504xm821,-668v0,-74,-2,-133,-5,-178v-3,-45,-11,-94,-23,-149v-12,-55,-30,-100,-51,-135v-21,-35,-51,-66,-90,-90v-39,-24,-85,-35,-140,-35v-55,0,-101,11,-140,35v-39,24,-69,55,-90,90v-21,35,-39,80,-51,135v-19,85,-28,178,-28,281v0,103,3,187,11,250v8,63,22,127,42,188v42,127,128,190,256,190v131,0,217,-65,258,-193v35,-109,52,-239,51,-389"},"\u00d6":{"d":"240,-1663v0,-20,6,-38,20,-53v14,-15,31,-23,53,-23v22,0,40,8,54,23v14,15,20,33,20,53v0,20,-6,38,-20,53v-14,15,-32,23,-54,23v-22,0,-39,-8,-53,-23v-14,-15,-20,-33,-20,-53xm635,-1663v0,-20,7,-38,21,-53v14,-15,33,-23,54,-23v21,0,39,8,53,23v14,15,21,33,21,53v0,20,-7,38,-21,53v-14,15,-32,23,-53,23v-21,0,-40,-8,-54,-23v-14,-15,-21,-33,-21,-53xm82,-684v0,-106,6,-199,20,-277v14,-78,36,-147,66,-210v61,-127,176,-191,344,-191v191,1,317,91,377,268v35,102,53,223,53,362v0,139,-6,249,-20,331v-14,82,-36,155,-66,221v-63,134,-177,200,-344,200v-164,0,-278,-66,-342,-200v-59,-122,-88,-290,-88,-504xm821,-668v0,-74,-2,-133,-5,-178v-3,-45,-11,-94,-23,-149v-12,-55,-30,-100,-51,-135v-21,-35,-51,-66,-90,-90v-39,-24,-85,-35,-140,-35v-55,0,-101,11,-140,35v-39,24,-69,55,-90,90v-21,35,-39,80,-51,135v-19,85,-28,178,-28,281v0,103,3,187,11,250v8,63,22,127,42,188v42,127,128,190,256,190v131,0,217,-65,258,-193v35,-109,52,-239,51,-389"},"\u00da":{"d":"326,-1626r417,-180r39,94r-422,172xm111,-387r0,-954r112,0r0,940v0,210,96,315,289,315v97,0,169,-29,217,-87v48,-58,72,-134,72,-228r0,-940r112,0r0,954v0,132,-34,233,-103,303v-69,70,-170,104,-302,104v-132,0,-232,-36,-298,-108v-66,-72,-99,-172,-99,-299"},"\u00dc":{"d":"240,-1663v0,-20,6,-38,20,-53v14,-15,31,-23,53,-23v22,0,40,8,54,23v14,15,20,33,20,53v0,20,-6,38,-20,53v-14,15,-32,23,-54,23v-22,0,-39,-8,-53,-23v-14,-15,-20,-33,-20,-53xm635,-1663v0,-20,6,-38,20,-53v14,-15,32,-23,54,-23v22,0,40,8,54,23v14,15,21,33,21,53v0,20,-7,38,-21,53v-14,15,-32,23,-54,23v-22,0,-40,-8,-54,-23v-14,-15,-20,-33,-20,-53xm111,-387r0,-954r112,0r0,940v0,210,96,315,289,315v97,0,169,-29,217,-87v48,-58,72,-134,72,-228r0,-940r112,0r0,954v0,132,-34,233,-103,303v-69,70,-170,104,-302,104v-132,0,-232,-36,-298,-108v-66,-72,-99,-172,-99,-299"},"\u00e1":{"d":"446,-88v51,0,106,-16,165,-48v59,-32,103,-62,130,-89r0,-244v-90,-7,-176,-10,-258,-10v-82,0,-143,17,-184,52v-41,35,-61,81,-61,140v0,132,69,199,208,199xm444,18v-100,0,-178,-25,-235,-76v-57,-51,-86,-124,-86,-218v0,-94,31,-168,94,-220v63,-53,146,-79,250,-79v104,0,195,4,274,12v0,-122,-15,-205,-45,-249v-30,-44,-91,-67,-182,-67v-91,0,-200,22,-324,66r-30,-102v127,-46,242,-70,344,-70v135,0,226,30,274,90v48,60,72,165,72,315r0,430r16,156r-104,10r-21,-122v-31,27,-76,54,-133,82v-57,28,-112,42,-164,42xm276,-1264r371,-204r47,100r-375,184"},"\u00e9":{"d":"234,-853v65,-88,160,-132,284,-132v124,0,217,41,278,123v61,82,91,190,91,327r-6,103r-627,0v7,102,34,186,82,249v48,63,114,95,198,95v84,0,182,-19,295,-59r31,102v-111,42,-214,63,-311,63v-134,0,-236,-45,-306,-134v-70,-89,-106,-212,-106,-369v0,-157,32,-280,97,-368xm526,-881v-172,0,-262,115,-272,346r516,0v0,-231,-82,-346,-244,-346xm293,-1264r371,-204r47,100r-375,184"},"\u00ed":{"d":"252,-870r0,-103r346,0r0,871r238,0r0,102r-600,0r0,-102r253,0r0,-768r-237,0xm303,-1264r371,-204r47,100r-375,184"},"\u00f3":{"d":"512,-985v261,0,391,167,391,502v0,335,-130,501,-391,501v-261,0,-391,-166,-391,-501v0,-335,130,-502,391,-502xm238,-483v0,264,91,395,274,395v183,0,274,-131,274,-395v0,-264,-91,-396,-274,-396v-183,0,-274,132,-274,396xm309,-1264r371,-204r47,100r-375,184"},"\u00f6":{"d":"512,-985v261,0,391,167,391,502v0,335,-130,501,-391,501v-261,0,-391,-166,-391,-501v0,-335,130,-502,391,-502xm238,-483v0,264,91,395,274,395v183,0,274,-131,274,-395v0,-264,-91,-396,-274,-396v-183,0,-274,132,-274,396xm240,-1325v0,-20,6,-38,20,-53v14,-15,31,-23,53,-23v22,0,40,8,54,23v14,15,20,33,20,53v0,20,-6,38,-20,53v-14,15,-32,23,-54,23v-22,0,-39,-8,-53,-23v-14,-15,-20,-33,-20,-53xm635,-1325v0,-20,6,-38,20,-53v14,-15,32,-23,54,-23v22,0,40,8,54,23v14,15,21,33,21,53v0,20,-7,38,-21,53v-14,15,-32,23,-54,23v-22,0,-40,-8,-54,-23v-14,-15,-20,-33,-20,-53"},"\u00fa":{"d":"766,0r-4,-84v-131,68,-241,102,-328,102v-87,0,-156,-30,-207,-90v-51,-60,-75,-141,-75,-245r0,-656r108,0r0,656v0,67,16,121,48,164v32,43,81,65,147,65v66,0,168,-34,307,-102r0,-783r108,0r0,973r-104,0xm322,-1264r370,-204r47,100r-374,184"},"\u00fc":{"d":"766,0r-4,-84v-131,68,-241,102,-328,102v-87,0,-156,-30,-207,-90v-51,-60,-75,-141,-75,-245r0,-656r108,0r0,656v0,67,16,121,48,164v32,43,81,65,147,65v66,0,168,-34,307,-102r0,-783r108,0r0,973r-104,0xm240,-1325v0,-20,6,-38,20,-53v14,-15,31,-23,53,-23v22,0,40,8,54,23v14,15,20,33,20,53v0,20,-6,38,-20,53v-14,15,-32,23,-54,23v-22,0,-39,-8,-53,-23v-14,-15,-20,-33,-20,-53xm635,-1325v0,-20,6,-38,20,-53v14,-15,32,-23,54,-23v22,0,40,8,54,23v14,15,21,33,21,53v0,20,-7,38,-21,53v-14,15,-32,23,-54,23v-22,0,-40,-8,-54,-23v-14,-15,-20,-33,-20,-53"},"\u0150":{"d":"215,-1518r307,-254r68,84r-322,238xm537,-1518r309,-251r65,81r-321,238xm82,-684v0,-106,6,-199,20,-277v14,-78,36,-147,66,-210v61,-127,176,-191,344,-191v191,1,317,91,377,268v35,102,53,223,53,362v0,139,-6,249,-20,331v-14,82,-36,155,-66,221v-63,134,-177,200,-344,200v-164,0,-278,-66,-342,-200v-59,-122,-88,-290,-88,-504xm821,-668v0,-74,-2,-133,-5,-178v-3,-45,-11,-94,-23,-149v-12,-55,-30,-100,-51,-135v-21,-35,-51,-66,-90,-90v-39,-24,-85,-35,-140,-35v-55,0,-101,11,-140,35v-39,24,-69,55,-90,90v-21,35,-39,80,-51,135v-19,85,-28,178,-28,281v0,103,3,187,11,250v8,63,22,127,42,188v42,127,128,190,256,190v131,0,217,-65,258,-193v35,-109,52,-239,51,-389"},"\u0151":{"d":"512,-985v261,0,391,167,391,502v0,335,-130,501,-391,501v-261,0,-391,-166,-391,-501v0,-335,130,-502,391,-502xm238,-483v0,264,91,395,274,395v183,0,274,-131,274,-395v0,-264,-91,-396,-274,-396v-183,0,-274,132,-274,396xm215,-1231r307,-254r68,84r-322,238xm537,-1231r309,-252r65,82r-321,238"},"\u0170":{"d":"229,-1518r308,-254r67,84r-321,238xm551,-1518r309,-251r66,81r-322,238xm111,-387r0,-954r112,0r0,940v0,210,96,315,289,315v97,0,169,-29,217,-87v48,-58,72,-134,72,-228r0,-940r112,0r0,954v0,132,-34,233,-103,303v-69,70,-170,104,-302,104v-132,0,-232,-36,-298,-108v-66,-72,-99,-172,-99,-299"},"\u0171":{"d":"766,0r-4,-84v-131,68,-241,102,-328,102v-87,0,-156,-30,-207,-90v-51,-60,-75,-141,-75,-245r0,-656r108,0r0,656v0,67,16,121,48,164v32,43,81,65,147,65v66,0,168,-34,307,-102r0,-783r108,0r0,973r-104,0xm215,-1231r307,-254r68,84r-322,238xm537,-1231r309,-252r65,82r-321,238"},"\u00a0":{}}});
