/*!
 * The following copyright notice may not be removed under any circumstances.
 * 
 * Copyright:
 * Generated in 2010 by FontLab Studio. Copyright info pending.
 * 
 * Full name:
 * TitilliumText22L Light
 * 
 * Manufacturer:
 * Campivisivi
 * 
 * Designer:
 * Campivisivi
 * 
 * License information:
 * http://scripts.sil.org/OFL
 */
Cufon.registerFont({"w":1085,"face":{"font-family":"Titillium_Light","font-weight":300,"font-stretch":"normal","units-per-em":"2048","panose-1":"0 0 0 0 0 0 0 0 0 0","ascent":"1536","descent":"-512","x-height":"20","bbox":"-68 -1931 1905 489","underline-thickness":"102.4","underline-position":"-102.4","unicode-range":"U+0020-U+0171"},"glyphs":{" ":{"w":481},"C":{"d":"1004,-139r6,114v0,0,-223,45,-385,45v-424,0,-516,-266,-516,-729v0,-469,90,-739,516,-739v190,0,387,43,387,43r-8,117v0,0,-217,-39,-369,-39v-342,0,-395,219,-395,618v0,393,55,607,397,607v135,0,367,-37,367,-37","w":1097},"c":{"d":"532,-1042v88,0,267,24,267,24r-4,109v0,0,-164,-19,-242,-19v-246,0,-317,105,-317,398v0,317,51,436,317,436v78,0,244,-19,244,-19r6,109v0,0,-185,24,-273,24v-332,0,-419,-147,-419,-550v0,-375,116,-512,421,-512","w":894},"d":{"d":"920,-1434r0,1434r-123,0r0,-74v0,0,-162,94,-328,94v-172,0,-358,-61,-358,-524v0,-356,106,-538,428,-538v90,0,219,18,258,24r0,-416r123,0xm481,-92v152,-2,316,-88,316,-88r0,-729v-41,-4,-172,-23,-254,-23v-244,0,-310,149,-310,432v0,358,129,406,248,408","w":1107},"e":{"d":"520,-92v150,0,375,-19,375,-19r4,103v0,0,-231,28,-391,28v-305,-2,-397,-186,-397,-528v0,-395,171,-534,421,-534v264,0,404,139,404,483r-4,98r-696,0v0,242,69,369,284,369xm236,-563r577,0v0,-270,-88,-371,-281,-371v-186,0,-296,105,-296,371","w":1038},"f":{"d":"317,-911r0,911r-120,0r0,-911r-136,0r0,-113r136,0r0,-104v0,-295,73,-371,268,-371v72,0,201,12,201,12r-2,103v0,0,-122,-5,-181,-5v-123,0,-166,52,-166,263r0,102r312,0r0,113r-312,0","w":679},"g":{"d":"530,489v-330,0,-428,-75,-428,-319v0,-125,57,-178,166,-258v-35,-23,-51,-76,-51,-139v0,-35,66,-160,66,-160v-88,-37,-166,-116,-166,-309v0,-250,145,-348,368,-348v106,0,215,26,215,26r295,-6r0,109r-198,0v43,43,69,98,69,219v0,262,-125,342,-387,342v-18,0,-81,-4,-104,-8v0,0,-41,99,-41,126v0,88,16,101,260,101v279,0,385,49,385,297v0,231,-154,327,-449,327xm586,-27v-78,0,-232,-8,-232,-8v-98,70,-129,109,-129,197v0,160,55,217,307,217v223,0,320,-61,320,-213v0,-174,-73,-193,-266,-193xm479,-461v186,0,262,-57,262,-235v0,-197,-68,-240,-258,-240v-162,0,-243,58,-243,240v0,160,55,235,239,235","w":1048},"h":{"d":"311,0r-123,0r0,-1509r123,0r0,538v0,0,174,-71,332,-71v281,0,342,129,342,510r0,532r-123,0r0,-530v0,-299,-32,-400,-233,-400v-154,0,-318,68,-318,68r0,862","w":1157},"i":{"d":"172,0r0,-1024r123,0r0,1024r-123,0xm172,-1280r0,-154r123,0r0,154r-123,0","w":466},"j":{"d":"201,-12r0,-1012r123,0r0,1014v0,244,-66,336,-336,473r-51,-105v217,-123,264,-180,264,-370xm201,-1284r0,-154r123,0r0,154r-123,0","w":495},"k":{"d":"311,0r-123,0r0,-1479r123,0r0,873r170,-6r332,-412r139,0r-360,469r364,555r-141,0r-332,-492r-172,7r0,485","w":1007},"l":{"d":"180,0r0,-1479r123,0r0,1479r-123,0","w":483},"m":{"d":"311,0r-123,0r0,-1024r123,0r0,74v0,0,137,-82,287,-88v43,-2,82,-2,115,2v80,10,135,39,172,88v49,-18,227,-94,377,-94v279,0,342,125,342,510r0,532r-123,0r0,-502v0,-326,-27,-428,-234,-428v-154,0,-305,80,-311,84v20,59,29,179,29,314r0,532r-121,0r0,-528v0,-307,-33,-402,-236,-402v-154,0,-297,86,-297,86r0,844","w":1777},"A":{"d":"63,0r410,-1427r297,0r404,1425r-127,0r-119,-387r-623,0r-115,389r-127,0xm565,-1311r-229,801r563,0r-227,-801r-107,0","w":1236},"p":{"d":"188,461r0,-1485r123,0r0,78v0,0,160,-96,324,-96v256,0,364,158,364,518v0,393,-127,544,-442,544v-102,0,-211,-18,-246,-26r0,467r-123,0xm623,-932v-150,0,-312,92,-312,92r0,725v35,6,144,25,240,25v240,0,321,-121,321,-438v0,-297,-91,-404,-249,-404","w":1107},"q":{"d":"504,20v-293,0,-393,-182,-393,-512v0,-369,109,-550,467,-550v102,0,333,18,333,18r0,1485r-123,0r0,-506v0,0,-124,65,-284,65xm578,-932v-272,0,-342,143,-342,436v0,260,63,406,268,406v154,0,284,-72,284,-72r0,-760v0,0,-142,-10,-210,-10","w":1099},"r":{"d":"188,0r0,-1024r123,0r0,145v0,0,166,-126,375,-165r0,124v-195,39,-375,156,-375,156r0,764r-123,0","w":727},"s":{"d":"842,-1008r-4,109v0,0,-222,-33,-355,-33v-129,0,-241,35,-241,174v0,106,51,139,266,172v268,43,369,92,369,289v0,240,-150,317,-396,317v-125,0,-352,-36,-352,-36r8,-109v0,0,230,35,334,35v178,0,281,-41,281,-201v0,-123,-62,-147,-281,-182v-246,-39,-354,-84,-354,-281v0,-223,182,-288,360,-288v156,0,365,34,365,34","w":995},"u":{"d":"831,-1024r121,0r0,1024r-121,0r0,-72v0,0,-159,92,-315,92v-285,0,-342,-124,-342,-509r0,-535r121,0r0,530v0,307,30,404,235,404v154,0,301,-86,301,-86r0,-848","w":1142},"w":{"d":"63,-1024r125,0r228,913r28,0r267,-893r131,0r264,893r31,0r227,-913r125,0r-258,1024r-215,0r-242,-844r-242,844r-213,0","w":1552},"y":{"d":"57,-1024r125,0r273,907r73,0r275,-907r125,0r-443,1485r-123,0r136,-461r-140,0","w":985},"z":{"d":"111,-913r0,-111r759,0r0,111r-610,802r610,0r0,111r-759,0r0,-111r612,-802r-612,0","w":983},"Z":{"d":"123,-1309r0,-118r921,0r0,174r-774,1093r0,41r774,0r0,121r-921,0r0,-174r774,-1092r0,-45r-774,0","w":1167},"0":{"d":"541,-1372v313,0,485,154,485,721v0,518,-182,671,-483,671v-303,0,-488,-147,-488,-671v0,-567,181,-721,486,-721xm541,-1253v-236,0,-351,121,-351,604v0,446,128,549,353,549v225,0,350,-105,350,-551v0,-477,-110,-602,-352,-602"},"1":{"d":"152,-1069r423,-283r121,0r0,1352r-125,0r0,-1208r-360,239"},"2":{"d":"981,0r-862,0r0,-117r420,-436v160,-166,272,-285,272,-453v0,-182,-106,-245,-313,-245v-152,0,-355,49,-355,49r-12,-117v0,0,197,-53,387,-53v279,0,424,100,424,356v0,201,-94,320,-272,500r-381,395r692,0r0,121"},"3":{"d":"127,-1325v0,0,204,-47,399,-47v311,0,422,108,422,346v0,227,-186,289,-213,305v143,47,250,111,250,340v0,268,-137,401,-436,401v-215,0,-447,-47,-447,-47r17,-116v0,0,219,43,420,43v217,-2,315,-95,315,-275v0,-209,-135,-264,-299,-270r-274,0r0,-117r272,0v106,0,264,-88,264,-254v0,-172,-84,-235,-295,-235v-190,0,-379,39,-379,39"},"5":{"d":"162,-1352r778,0r0,121r-661,0r-37,471v0,0,165,-88,325,-88v264,0,430,106,430,399v0,311,-169,465,-450,465v-205,0,-441,-53,-441,-53r17,-115v0,0,236,50,420,50v195,0,323,-119,323,-342v0,-217,-131,-285,-309,-285v-168,0,-328,92,-328,92r-106,-18"},"7":{"d":"115,-1231r0,-121r833,0r0,181r-532,1194r-119,-39r520,-1168r0,-47r-702,0"},"8":{"d":"549,-1372v291,0,487,108,487,346v0,176,-77,254,-245,317v156,59,266,141,266,342v0,301,-227,387,-508,387v-270,0,-504,-85,-504,-364v0,-217,105,-293,250,-365v-147,-66,-227,-145,-227,-319v0,-233,186,-344,481,-344xm549,-100v215,0,375,-64,375,-275v0,-182,-121,-231,-271,-272r-225,0v-154,41,-246,115,-246,285v0,197,162,262,367,262xm549,-1253v-215,0,-346,59,-346,237v0,141,75,209,225,256r225,0v158,-45,248,-115,248,-254v0,-176,-133,-239,-352,-239"},"E":{"d":"195,0r0,-1427r852,0r0,118r-728,0r0,523r605,0r0,118r-605,0r0,549r728,0r0,119r-852,0","w":1161},"F":{"d":"195,0r0,-1427r854,0r0,118r-730,0r0,588r607,0r0,119r-607,0r0,602r-124,0","w":1140},"G":{"d":"727,-604r0,-117r387,0r0,690v0,0,-291,51,-457,51v-428,0,-544,-270,-544,-731v0,-461,112,-737,542,-737v215,0,459,53,459,53r-6,115v0,0,-256,-47,-442,-47v-348,0,-422,219,-422,616v0,395,74,611,420,611v131,0,315,-33,325,-33r0,-471r-262,0","w":1251},"H":{"d":"1092,0r0,-659r-773,0r0,659r-124,0r0,-1427r124,0r0,649r773,0r0,-649r125,0r0,1427r-125,0","w":1411},"K":{"d":"981,0r-414,-643r-248,4r0,639r-124,0r0,-1427r124,0r0,667r244,-4r395,-663r148,0r-430,714r457,713r-152,0","w":1220},"Q":{"d":"1040,293r-180,-295v-55,14,-118,22,-192,22v-440,0,-555,-252,-555,-727v0,-469,117,-741,555,-741v438,0,557,268,557,741v0,342,-56,558,-240,660r174,283xm668,-100v354,0,426,-193,426,-607v0,-395,-80,-620,-426,-620v-348,0,-424,223,-424,620v0,399,72,607,424,607","w":1337},"R":{"d":"1034,0r-280,-559r-435,0r0,559r-124,0r0,-1427r520,0v297,0,442,124,442,423v0,223,-77,365,-274,416r293,588r-142,0xm1026,-1004v0,-211,-98,-305,-311,-305r-396,0r0,631r396,0v238,0,311,-129,311,-326","w":1282},"S":{"d":"967,-1413r-11,117v0,0,-282,-35,-401,-35v-213,0,-330,74,-330,250v0,209,109,241,361,290v279,55,411,123,411,377v0,313,-165,430,-448,430v-156,0,-436,-39,-436,-39r12,-116v0,0,277,35,422,35v213,0,321,-85,321,-304v0,-178,-91,-223,-329,-266v-289,-55,-443,-116,-443,-403v0,-266,176,-375,459,-375v158,0,412,39,412,39","w":1093},"T":{"d":"-6,-1309r0,-118r1024,0r0,118r-447,0r0,1309r-125,0r0,-1309r-452,0","w":1013},"V":{"d":"1010,-1427r129,0r-379,1427r-309,0r-388,-1427r130,0r356,1308r113,0","w":1202},"N":{"d":"195,0r0,-1427r241,0r608,1286r50,0r0,-1286r127,0r0,1427r-240,0r-614,-1286r-48,0r0,1286r-124,0","w":1413},"$":{"d":"950,-1360r-10,113v0,0,-139,-19,-260,-29r-68,520v248,53,369,123,369,359v0,301,-160,413,-432,413r-35,0r-31,236v0,0,-92,-6,-92,-14r29,-228v-139,-10,-291,-33,-291,-33r12,-110v0,0,158,21,293,29r72,-551v-258,-51,-393,-117,-393,-381v0,-256,170,-361,442,-361v14,0,31,0,47,2r31,-227r92,0r-31,233v129,10,256,29,256,29xm238,-1040v0,182,85,225,284,266r66,-508r-33,0v-205,0,-317,72,-317,242xm856,-393v0,-154,-74,-203,-258,-244r-70,537r19,0v205,0,309,-82,309,-293"},"!":{"d":"485,0r0,-207r136,0r0,207r-136,0xm492,-461r-5,-971r131,0r-4,971r-122,0"},"a":{"d":"874,-715r0,535v6,63,66,84,134,92r-7,106v-111,0,-180,-20,-231,-77v0,0,-184,79,-393,79v-172,0,-273,-108,-273,-309v0,-188,93,-281,302,-299r348,-35r0,-92v0,-147,-70,-211,-197,-211v-150,0,-389,31,-389,31r-8,-109v0,0,241,-38,401,-38v213,0,313,102,313,327xm754,-520r-334,31v-137,12,-189,85,-189,198v0,131,60,203,160,203v174,0,363,-70,363,-70r0,-362","w":1064},"o":{"d":"543,-1042v297,0,426,158,426,516v0,367,-84,546,-426,546v-344,0,-432,-161,-432,-548v0,-362,115,-514,432,-514xm543,-90v264,0,299,-143,299,-436v0,-293,-90,-406,-299,-406v-236,0,-307,99,-307,404v0,311,43,438,307,438","w":1079},"J":{"d":"444,-1430v0,434,2,773,2,1211v0,348,-116,366,-376,366r0,-116v203,0,247,-9,247,-271r0,-1190r127,0","w":626},"t":{"d":"678,-911r-342,0r0,497v0,256,17,322,162,322v57,0,190,-14,190,-14r6,108v0,0,-135,21,-207,21v-201,0,-274,-76,-274,-371r0,-563r-152,0r0,-113r152,0r0,-322r123,0r0,322r342,0r0,113","w":749},"n":{"d":"311,0r-123,0r0,-1024r123,0r0,74v0,0,176,-92,332,-92v281,0,342,129,342,510r0,532r-121,0r0,-530v0,-299,-32,-400,-235,-400v-154,0,-318,86,-318,86r0,844","w":1167},"#":{"d":"1059,-377r-234,0r0,377r-114,0r0,-377r-342,0r0,377r-115,0r0,-377r-234,0r0,-106r234,0r0,-402r-234,0r0,-106r234,0r0,-375r115,0r0,375r342,0r0,-375r114,0r0,375r234,0r0,106r-234,0r0,402r234,0r0,106xm711,-483r0,-402r-342,0r0,402r342,0"},"W":{"d":"82,-1427r127,0r272,1302r68,0r291,-1288r141,0r299,1288r66,0r266,-1302r127,0r-299,1427r-252,0r-279,-1237r-268,1237r-252,0","w":1820},"@":{"d":"1905,-625r0,35v0,557,-140,610,-351,610v-117,0,-188,-12,-229,-118v-74,39,-236,116,-371,116v-158,0,-356,-49,-356,-516v0,-346,90,-544,420,-544v102,0,252,53,252,53r0,-35r121,0r0,410v0,502,26,522,163,522v139,0,224,-29,224,-498r0,-37v0,-514,-205,-735,-746,-735v-537,0,-794,225,-794,827v0,635,245,832,794,832v82,0,293,-21,293,-21r6,117v0,0,-201,21,-299,21v-606,0,-919,-210,-919,-949v0,-682,323,-942,919,-942v618,0,873,277,873,852xm958,-98v123,0,258,-62,332,-101v-16,-86,-20,-207,-20,-385r0,-297v0,0,-136,-47,-236,-47v-256,0,-313,145,-313,436v0,350,131,394,237,394","w":2017},"`":{"d":"51,-1522r426,195r-41,96r-430,-182","w":466},"M":{"d":"195,0r0,-1427r229,0r446,1243r449,-1243r227,0r0,1427r-125,0r0,-1286r-28,0r-451,1239r-147,0r-447,-1239r-29,0r0,1286r-124,0","w":1740},"U":{"d":"295,-418v0,233,137,316,354,316v229,0,369,-80,369,-316r0,-1009r125,0r0,1009v0,317,-177,436,-494,436v-303,0,-481,-119,-481,-436r0,-1009r127,0r0,1009","w":1312},"X":{"d":"213,-1427r383,622r381,-622r143,0r-436,718r436,709r-143,0r-379,-616r-385,616r-143,0r442,-709r-442,-718r143,0","w":1189},"Y":{"d":"627,-612r0,612r-127,0r0,-612r-457,-815r141,0r379,673r373,-673r141,0","w":1122},"\u00e1":{"d":"864,-715r0,535v6,63,65,84,133,92r-6,106v-111,0,-180,-20,-231,-77v0,0,-184,79,-393,79v-172,0,-273,-108,-273,-309v0,-188,92,-281,301,-299r348,-35r0,-92v0,-147,-69,-211,-196,-211v-150,0,-389,31,-389,31r-8,-109v0,0,241,-38,401,-38v213,0,313,102,313,327xm743,-520r-333,31v-137,12,-189,85,-189,198v0,131,60,203,160,203v174,0,362,-70,362,-70r0,-362xm258,-1327r426,-195r47,113r-430,182","w":1069},"\u00e9":{"d":"518,-92v150,0,375,-19,375,-19r4,103v0,0,-231,28,-391,28v-305,-2,-397,-186,-397,-528v0,-395,171,-534,421,-534v264,0,404,139,404,483r-4,98r-697,0v0,242,70,369,285,369xm233,-563r578,0v0,-270,-88,-371,-281,-371v-186,0,-297,105,-297,371xm324,-1327r426,-195r47,113r-430,182","w":1032},"\u00f3":{"d":"543,-1042v297,0,426,158,426,516v0,367,-84,546,-426,546v-344,0,-432,-161,-432,-548v0,-362,115,-514,432,-514xm543,-90v264,0,299,-143,299,-436v0,-293,-90,-406,-299,-406v-236,0,-307,99,-307,404v0,311,43,438,307,438xm324,-1327r426,-195r47,113r-430,182","w":1079},"\u00f6":{"d":"543,-1042v297,0,426,158,426,516v0,367,-84,546,-426,546v-344,0,-432,-161,-432,-548v0,-362,115,-514,432,-514xm543,-90v264,0,299,-143,299,-436v0,-293,-90,-406,-299,-406v-236,0,-307,99,-307,404v0,311,43,438,307,438xm270,-1290r0,-162r121,0r0,162r-121,0xm674,-1290r0,-162r119,0r0,162r-119,0","w":1079},"\u00fa":{"d":"831,-1024r121,0r0,1024r-121,0r0,-72v0,0,-159,92,-315,92v-285,0,-342,-124,-342,-509r0,-535r121,0r0,530v0,307,30,404,235,404v154,0,301,-86,301,-86r0,-848xm350,-1327r426,-195r47,113r-430,182","w":1142},"\u00fc":{"d":"831,-1024r121,0r0,1024r-121,0r0,-72v0,0,-159,92,-315,92v-285,0,-342,-124,-342,-509r0,-535r121,0r0,530v0,307,30,404,235,404v154,0,301,-86,301,-86r0,-848xm322,-1290r0,-162r118,0r0,162r-118,0xm723,-1290r0,-162r119,0r0,162r-119,0","w":1142},"\u00ed":{"d":"88,-1327r426,-195r47,113r-430,182xm207,0r0,-1024r123,0r0,1024r-123,0","w":534},"\u00c1":{"d":"66,0r409,-1427r297,0r404,1425r-127,0r-119,-387r-623,0r-114,389r-127,0xm567,-1311r-229,801r563,0r-227,-801r-107,0xm397,-1737r426,-194r47,112r-430,183","w":1236},"\u00d3":{"d":"670,-100v354,0,426,-193,426,-607v0,-395,-80,-620,-426,-620v-348,0,-424,223,-424,620v0,399,72,607,424,607xm670,20v-440,0,-555,-252,-555,-727v0,-469,117,-741,555,-741v438,0,557,268,557,741v0,489,-117,727,-557,727xm428,-1737r426,-194r47,112r-430,183","w":1343},"\u00cd":{"d":"182,0r0,-1427r125,0r0,1427r-125,0xm29,-1716r426,-195r47,113r-430,182","w":489},"\u00da":{"d":"297,-418v0,233,137,316,354,316v229,0,369,-80,369,-316r0,-1009r125,0r0,1009v0,317,-177,436,-494,436v-303,0,-481,-119,-481,-436r0,-1009r127,0r0,1009xm416,-1737r426,-194r47,112r-430,183","w":1314},"\u00dc":{"d":"297,-418v0,233,137,316,354,316v229,0,369,-80,369,-316r0,-1009r127,0r0,1009v0,317,-179,436,-496,436v-303,0,-479,-119,-479,-436r0,-1009r125,0r0,1009xm430,-1700r0,-162r119,0r0,162r-119,0xm831,-1700r0,-162r121,0r0,162r-121,0","w":1314},"\u00d6":{"d":"672,-100v354,0,424,-193,424,-607v0,-395,-78,-620,-424,-620v-350,0,-426,223,-426,620v0,399,72,607,426,607xm672,20v-442,0,-557,-252,-557,-727v0,-469,119,-741,557,-741v438,0,555,268,555,741v0,489,-115,727,-555,727xm403,-1700r0,-162r121,0r0,162r-121,0xm807,-1700r0,-162r119,0r0,162r-119,0","w":1343},"\u00c9":{"d":"197,0r0,-1427r852,0r0,118r-727,0r0,523r604,0r0,118r-604,0r0,549r727,0r0,119r-852,0xm418,-1737r426,-194r47,112r-430,183","w":1171},"I":{"d":"182,0r0,-1427r125,0r0,1427r-125,0","w":489},"O":{"d":"668,-100v354,0,426,-193,426,-607v0,-395,-80,-620,-426,-620v-348,0,-424,223,-424,620v0,399,72,607,424,607xm668,20v-440,0,-555,-252,-555,-727v0,-469,117,-741,555,-741v438,0,557,268,557,741v0,489,-117,727,-557,727","w":1337},"~":{"d":"936,-766r14,121v0,0,-107,106,-213,106v-121,0,-291,-106,-385,-106v-82,0,-202,102,-202,102r-17,-119v0,0,114,-108,223,-108v123,0,291,104,383,104v78,0,197,-100,197,-100"},"L":{"d":"971,0r-776,0r0,-1427r124,0r0,1306r652,0r0,121","w":1062},"B":{"d":"195,-1427r503,0v270,0,418,104,418,350v0,199,-71,293,-186,342v127,41,235,123,235,334v0,305,-172,401,-436,401r-534,0r0,-1427xm713,-668r-394,0r0,551r406,0v186,0,311,-68,311,-289v0,-248,-217,-262,-323,-262xm694,-1311r-375,0r0,529r394,0v195,0,274,-99,274,-283v0,-176,-94,-246,-293,-246","w":1271},"D":{"d":"709,0r-514,0r0,-1427r514,0v393,0,508,305,508,692v0,389,-113,735,-508,735xm1085,-735v0,-303,-77,-574,-376,-574r-390,0r0,1190r390,0v299,0,376,-313,376,-616","w":1323},"P":{"d":"713,-496r-394,0r0,496r-124,0r0,-1427r518,0v305,0,442,141,442,446v0,305,-137,485,-442,485xm319,-616r394,0v221,0,313,-140,313,-365v0,-223,-92,-328,-313,-328r-394,0r0,693","w":1247},"b":{"d":"631,-1042v279,0,364,150,364,512v0,395,-102,550,-477,550v-129,0,-330,-20,-330,-20r0,-1479r123,0r0,508v0,0,160,-71,320,-71xm516,-90v303,0,352,-139,352,-438v0,-281,-48,-402,-245,-402v-154,0,-312,66,-312,66r0,762v0,0,144,12,205,12","w":1105},"v":{"d":"57,-1024r129,0r267,918r79,0r269,-918r127,0r-303,1024r-269,0","w":985},"x":{"d":"63,-1024r136,0r270,422r272,-422r136,0r-330,512r330,512r-138,0r-270,-420r-270,420r-136,0r330,-512","w":940},"6":{"d":"954,-1346r-12,117v0,0,-178,-24,-350,-24v-246,0,-385,171,-387,499v0,2,200,-86,360,-86v295,0,451,135,451,414v0,283,-166,446,-469,446v-330,0,-473,-262,-473,-704v0,-489,203,-688,518,-688v172,0,362,26,362,26xm557,-723v-170,6,-354,84,-354,84v4,309,96,541,344,541v219,0,338,-113,338,-328v0,-205,-125,-297,-328,-297"},"9":{"d":"133,-8r12,-115v0,0,179,25,351,25v260,0,393,-158,395,-496v0,0,-215,80,-375,80v-281,0,-436,-127,-436,-410v0,-279,182,-448,461,-448v338,0,481,266,481,704v0,520,-196,688,-526,688v-172,0,-363,-28,-363,-28xm526,-631v150,0,367,-80,367,-80v-6,-319,-102,-542,-352,-542v-203,0,-330,126,-330,329v0,207,108,293,315,293"},"<":{"d":"840,-1014r-594,373r594,391r0,135v-59,-31,-600,-388,-711,-458r0,-127r711,-445r0,131"},">":{"d":"723,-641r-594,-373r0,-131r711,445r0,127v-113,70,-652,427,-711,458r0,-135"},"[":{"d":"498,-1534r0,117r-285,0r0,1552r285,0r0,117r-408,0r0,-1786r408,0","w":614},"\\":{"d":"920,-35r-129,53r-627,-1413r131,-55","w":1093},"]":{"d":"90,-1417r0,-117r408,0r0,1786r-408,0r0,-117r285,0r0,-1552r-285,0","w":614},"|":{"d":"469,209r0,-1667r125,0r0,1667r-125,0"},"4":{"d":"739,6r0,-272r-678,0r0,-105r400,-981r137,0r-391,965r532,0r0,-438r127,0r0,438r181,0r0,121r-181,0r0,272r-127,0"},"\"":{"d":"514,-995r-117,0r-2,-435r121,0xm211,-995r-117,0r0,-435r119,0","w":612},"'":{"d":"39,-975r-4,-450r129,0r-10,450r-115,0","w":204},"(":{"d":"287,-1536r129,0v0,0,-195,533,-195,920v0,381,195,872,195,872r-129,0v0,0,-199,-462,-199,-872v0,-410,199,-920,199,-920","w":532},")":{"d":"88,-1536r129,0v0,0,199,489,199,899v0,410,-199,893,-199,893r-129,0v0,0,195,-512,195,-893v0,-387,-195,-899,-195,-899","w":532},",":{"d":"70,252r90,-455r135,0r-109,455r-116,0","w":348},"-":{"d":"127,-516r0,-119r645,0r0,119r-645,0","w":901},".":{"d":"174,0r0,-207r135,0r0,207r-135,0","w":507},":":{"d":"135,-676r0,-209r135,0r0,209r-135,0xm135,0r0,-207r135,0r0,207r-135,0","w":333},";":{"d":"59,248r95,-461r137,0r-121,461r-111,0xm143,-676r0,-209r136,0r0,209r-136,0","w":385},"=":{"d":"74,-696r0,-115r925,0r0,115r-925,0xm76,-326r0,-114r925,0r0,114r-925,0"},"?":{"d":"782,-1110v0,344,-395,426,-395,633r0,78r-129,0r0,-84v0,-260,395,-345,395,-619v0,-172,-94,-229,-297,-229v-98,0,-323,53,-323,53r-15,-121v0,0,231,-55,342,-55v274,0,422,88,422,344xm256,-2r0,-207r135,0r0,207r-135,0","w":790},"_":{"d":"55,45r877,0r0,115r-877,0r0,-115","w":1064},"{":{"d":"348,-348v-4,76,-14,161,-14,239v0,156,49,242,256,252r-4,117v-272,-10,-381,-116,-381,-360v0,-80,14,-201,14,-252v0,-121,-51,-187,-207,-232r0,-106v158,-39,207,-107,207,-230v0,-57,-14,-186,-14,-262v0,-248,109,-350,381,-360r4,117v-207,10,-256,89,-256,249v0,68,14,189,14,248v0,176,-55,240,-205,289v150,49,205,121,205,291","w":610},"}":{"d":"254,-348v0,-170,55,-242,205,-291v-150,-49,-205,-113,-205,-289v0,-59,14,-180,14,-248v0,-160,-49,-239,-256,-249r2,-117v272,10,381,112,381,360v0,76,-14,205,-14,262v0,123,51,191,209,230r0,106v-156,45,-209,111,-209,232v0,51,14,172,14,252v0,244,-109,350,-381,360r-2,-117v207,-10,256,-96,256,-252v0,-78,-12,-163,-14,-239","w":610},"&":{"d":"662,-1432v236,0,339,124,339,314v0,197,-96,291,-321,385r328,325v23,-74,47,-182,59,-284r121,2v-18,137,-49,270,-86,364r272,265r-78,86r-254,-246v-111,174,-249,248,-460,248v-344,0,-478,-168,-478,-447v0,-242,113,-342,322,-414v-92,-106,-104,-175,-104,-292v0,-182,119,-306,340,-306xm586,-90v166,0,278,-61,364,-213r-442,-445v-197,59,-279,142,-279,326v0,213,105,332,357,332xm444,-1116v0,84,17,163,93,239r63,64v199,-78,277,-143,277,-299v0,-131,-61,-205,-215,-205v-139,0,-218,66,-218,201","w":1433},"*":{"d":"899,-1053r-274,0r84,260r-86,27r-86,-262r-222,162r-53,-72r223,-162r-219,-162r53,-73r220,159r86,-258r88,29r-84,262r270,0r0,90"},"%":{"d":"846,-567v154,0,227,87,227,280v0,190,-75,287,-227,287v-154,0,-228,-96,-228,-289v0,-190,72,-278,228,-278xm297,-39r438,-1393r88,35r-436,1393xm723,-289v0,127,27,199,123,199v96,0,123,-70,123,-197v0,-129,-27,-190,-123,-190v-94,0,-123,61,-123,188xm272,-1438v154,0,226,88,226,281v0,193,-74,287,-226,287v-154,0,-227,-94,-227,-289v0,-190,71,-279,227,-279xm150,-1159v0,129,26,198,122,198v96,0,123,-67,123,-196v0,-127,-27,-191,-123,-191v-96,0,-122,64,-122,189"},"+":{"d":"-68,-477r0,-115r453,0r0,-452r119,0r0,452r457,0r0,115r-457,0r0,457r-119,0r0,-457r-453,0","w":901},"^":{"d":"834,-672r-299,-557r-287,557r-133,0r354,-680r129,0r371,680r-135,0"},"\u0150":{"d":"668,-100v354,0,426,-193,426,-607v0,-395,-80,-620,-426,-620v-348,0,-424,223,-424,620v0,399,72,607,424,607xm668,20v-440,0,-555,-252,-555,-727v0,-469,117,-741,555,-741v438,0,557,268,557,741v0,489,-117,727,-557,727xm684,-1659r328,-233r88,67r-336,234xm279,-1659r329,-235r86,69r-334,232","w":1337},"\u0170":{"d":"295,-418v0,233,137,316,354,316v229,0,369,-80,369,-316r0,-1009r125,0r0,1009v0,317,-177,436,-494,436v-303,0,-481,-119,-481,-436r0,-1009r127,0r0,1009xm715,-1616r327,-235r88,67r-335,234xm309,-1618r330,-235r86,69r-334,232","w":1316},"\u0151":{"d":"543,-1042v297,0,426,158,426,516v0,367,-84,546,-426,546v-344,0,-432,-161,-432,-548v0,-362,115,-514,432,-514xm543,-90v264,0,299,-143,299,-436v0,-293,-90,-406,-299,-406v-236,0,-307,99,-307,404v0,311,43,438,307,438xm598,-1276r311,-258r82,76r-313,256xm209,-1276r311,-258r84,76r-315,256","w":1079},"\u0171":{"d":"831,-1024r121,0r0,1024r-121,0r0,-72v0,0,-159,92,-315,92v-285,0,-342,-124,-342,-509r0,-535r121,0r0,530v0,307,30,404,235,404v154,0,301,-86,301,-86r0,-848xm647,-1276r311,-258r84,76r-315,256xm260,-1276r309,-258r84,76r-315,256","w":1142},"\/":{"d":"197,-29r569,-1417r117,43r-572,1417"},"\u00a0":{"w":481}}});
