/*!
 * The following copyright notice may not be removed under any circumstances.
 * 
 * Copyright:
 * Generated in 2010 by FontLab Studio. Copyright info pending.
 * 
 * Full name:
 * TitilliumText22L Regular
 * 
 * Manufacturer:
 * Campivisivi
 * 
 * Designer:
 * Campivisivi
 * 
 * License information:
 * http://scripts.sil.org/OFL
 */
Cufon.registerFont({"w":1085,"face":{"font-family":"Titillium_Regular","font-weight":400,"font-stretch":"normal","units-per-em":"2048","panose-1":"0 0 0 0 0 0 0 0 0 0","ascent":"1536","descent":"-512","x-height":"20","bbox":"-66 -1946 1911 489","underline-thickness":"102.4","underline-position":"-102.4","unicode-range":"U+0020-U+0171"},"glyphs":{" ":{"w":481},"C":{"d":"1006,-170r6,143v0,0,-227,47,-389,47v-424,0,-519,-260,-519,-729v0,-481,101,-737,519,-737v186,0,391,47,391,47r-8,142v0,0,-224,-35,-367,-35v-317,0,-373,190,-373,583v0,385,53,576,377,576v127,0,363,-37,363,-37","w":1097},"c":{"d":"526,-1044v94,0,279,30,279,30r-4,133v0,0,-164,-18,-242,-18v-236,0,-299,99,-299,369v0,299,47,407,299,407v78,0,244,-18,244,-18r6,133v0,0,-193,28,-285,28v-328,0,-422,-149,-422,-550v0,-371,119,-514,424,-514","w":894},"d":{"d":"934,-1434r0,1434r-154,0r0,-68v0,0,-157,88,-311,88v-199,0,-367,-86,-367,-528v0,-358,115,-536,428,-536v88,0,219,20,250,26r0,-416r154,0xm489,-121v137,0,291,-76,291,-76r0,-686v-31,-4,-159,-22,-241,-22v-215,0,-283,133,-283,401v0,328,112,381,233,383","w":1112},"e":{"d":"528,-119v154,0,375,-18,375,-18r4,125v0,0,-231,32,-397,32v-307,0,-408,-178,-408,-526v0,-389,170,-538,430,-538v270,0,412,143,412,479r-8,119r-678,0v2,215,67,327,270,327xm258,-571r533,0v0,-246,-81,-336,-259,-336v-176,0,-274,96,-274,336","w":1038},"f":{"d":"338,-885r0,885r-152,0r0,-885r-129,0r0,-139r129,0r0,-92v0,-295,74,-373,275,-373v72,0,207,14,207,14r-2,127v0,0,-115,-4,-174,-4v-115,0,-154,50,-154,238r0,90r299,0r0,139r-299,0","w":684},"g":{"d":"537,489v-324,0,-441,-71,-441,-317v0,-119,56,-174,162,-254v-37,-25,-55,-78,-55,-141v0,-39,67,-162,67,-162v-84,-39,-159,-119,-159,-309v0,-252,154,-350,381,-350v102,0,213,26,213,26r299,-6r0,131r-185,0v37,39,64,90,64,199v0,268,-132,346,-398,346v-18,0,-77,-4,-100,-8v0,0,-37,89,-37,116v0,82,19,95,248,95v293,0,397,57,397,301v0,238,-167,333,-456,333xm586,-10v-74,0,-224,-10,-224,-10v-84,63,-114,100,-114,180v0,141,60,192,291,192v207,0,299,-55,299,-190v0,-156,-68,-172,-252,-172xm485,-479v172,0,244,-53,244,-215v0,-176,-66,-217,-240,-217v-152,0,-225,55,-225,217v0,147,51,215,221,215","w":1060},"h":{"d":"332,0r-154,0r0,-1495r154,0r0,520v0,0,172,-69,315,-69v283,0,346,138,346,509r0,535r-153,0r0,-532v0,-270,-31,-371,-215,-371v-137,0,-293,59,-293,59r0,844","w":1157},"i":{"d":"166,0r0,-1024r151,0r0,1024r-151,0xm166,-1255r0,-179r151,0r0,179r-151,0","w":483},"j":{"d":"190,-12r0,-1012r152,0r0,1014v0,252,-68,342,-340,481r-68,-129v209,-119,256,-170,256,-354xm190,-1262r0,-180r152,0r0,180r-152,0","w":507},"k":{"d":"332,0r-154,0r0,-1470r154,0r0,858r157,-9r306,-403r172,0r-342,471r348,553r-174,0r-307,-469r-160,8r0,461","w":1017},"l":{"d":"172,0r0,-1470r152,0r0,1470r-152,0","w":495},"m":{"d":"332,0r-154,0r0,-1024r154,0r0,70v0,0,123,-74,256,-82v41,-4,79,-6,112,-2v86,8,148,37,189,86v59,-23,230,-92,371,-92v279,0,346,133,346,512r0,532r-154,0r0,-485v0,-313,-20,-418,-215,-418v-139,0,-283,74,-287,76v16,47,25,172,25,295r0,532r-154,0r0,-528v0,-283,-29,-375,-215,-375v-137,0,-274,76,-274,76r0,827","w":1769},"A":{"d":"59,0r390,-1425r346,0r383,1423r-156,0r-109,-356r-594,0r-102,358r-158,0xm567,-1280r-211,770r525,0r-211,-770r-103,0","w":1236},"p":{"d":"178,455r0,-1479r154,0r0,72v0,0,153,-92,305,-92v258,0,371,153,371,520v0,401,-130,544,-447,544v-96,0,-200,-16,-229,-22r0,457r-154,0xm616,-903v-135,0,-284,80,-284,80r0,684v27,6,133,22,221,22v225,0,299,-112,299,-411v0,-276,-89,-375,-236,-375","w":1110},"q":{"d":"510,20v-301,0,-408,-184,-408,-514v0,-360,111,-550,467,-550v106,0,353,20,353,20r0,1479r-154,0r0,-490v0,0,-111,55,-258,55xm571,-905v-246,0,-313,135,-313,409v0,244,64,379,252,379v137,0,258,-63,258,-63r0,-717v0,0,-134,-8,-197,-8","w":1099},"r":{"d":"178,0r0,-1024r154,0r0,135v0,0,157,-118,356,-155r0,159v-193,37,-356,142,-356,142r0,743r-154,0","w":729},"s":{"d":"852,-1006r-4,134v0,0,-228,-33,-359,-33v-127,0,-221,32,-221,153v0,96,47,125,250,156v270,43,369,98,369,297v0,240,-152,319,-400,319v-131,0,-360,-38,-360,-38r8,-134v0,0,234,35,338,35v168,0,258,-37,258,-176v0,-106,-53,-131,-258,-164v-250,-39,-360,-87,-360,-288v0,-225,182,-299,368,-299v154,0,371,38,371,38","w":1001},"u":{"d":"813,-1024r152,0r0,1024r-152,0r0,-66v0,0,-160,86,-303,86v-287,0,-346,-130,-346,-509r0,-535r151,0r0,532v0,283,24,375,217,375v135,0,281,-76,281,-76r0,-831","w":1144},"w":{"d":"57,-1024r154,0r205,885r33,0r245,-865r162,0r244,865r33,0r206,-885r154,0r-244,1024r-260,0r-215,-801r-219,801r-256,0","w":1550},"y":{"d":"49,-1024r154,0r256,877r69,0r256,-877r154,0r-426,1479r-154,0r131,-455r-149,0","w":987},"z":{"d":"111,-885r0,-139r759,0r0,139r-575,746r575,0r0,139r-759,0r0,-139r575,-746r-575,0","w":980},"Z":{"d":"123,-1274r0,-151r921,0r0,194r-731,1043r0,38r731,0r0,152r-921,0r0,-195r731,-1040r0,-41r-731,0","w":1167},"0":{"d":"541,-1374v319,0,493,162,493,719v0,518,-184,675,-491,675v-309,0,-496,-153,-496,-673v0,-557,183,-721,494,-721xm541,-1225v-221,0,-326,119,-326,572v0,424,115,524,328,524v213,0,323,-102,323,-526v0,-446,-100,-570,-325,-570"},"1":{"d":"133,-1067r428,-285r150,0r0,1352r-158,0r0,-1171r-346,231"},"2":{"d":"981,0r-864,0r0,-145r391,-406v164,-168,274,-282,274,-444v0,-166,-98,-226,-295,-226v-147,0,-348,45,-348,45r-12,-145v0,0,201,-53,391,-53v285,0,428,108,428,362v0,203,-90,322,-274,508r-344,352r653,0r0,152"},"3":{"d":"125,-1325v0,0,211,-49,399,-49v319,0,432,112,432,352v0,211,-161,276,-202,303v137,49,235,113,235,332v0,272,-135,407,-440,407v-213,0,-447,-47,-447,-47r17,-143v0,0,220,39,413,39v201,0,293,-84,293,-250v0,-186,-122,-240,-276,-246r-275,0r0,-143r273,0v104,0,246,-89,246,-236v0,-158,-84,-217,-277,-217v-184,0,-375,39,-375,39"},"5":{"d":"160,-1352r786,0r0,150r-643,0r-35,428v0,0,158,-78,299,-78v270,0,434,113,434,406v0,307,-169,464,-452,464v-207,0,-449,-57,-449,-57r19,-141v0,0,242,49,424,49v176,0,295,-108,295,-309v0,-197,-119,-265,-285,-265v-160,0,-305,80,-305,80r-129,-22"},"7":{"d":"113,-1202r0,-150r839,0r0,207r-524,1172r-147,-47r507,-1133r0,-49r-675,0"},"8":{"d":"549,-1374v291,0,489,114,489,352v0,174,-67,245,-225,315v145,66,246,145,246,340v0,297,-229,387,-510,387v-272,0,-504,-83,-504,-364v0,-211,95,-287,234,-363v-141,-70,-211,-149,-211,-317v0,-233,186,-350,481,-350xm549,-129v201,0,342,-64,342,-254v0,-158,-105,-209,-240,-246r-215,0v-141,39,-223,106,-223,258v0,178,143,242,336,242xm551,-1225v-197,0,-315,57,-315,219v0,125,67,189,200,238r215,0v139,-45,219,-111,219,-236v0,-162,-120,-221,-319,-221"},"E":{"d":"184,0r0,-1425r860,0r0,149r-704,0r0,481r582,0r0,148r-582,0r0,497r704,0r0,150r-860,0","w":1155},"F":{"d":"184,0r0,-1425r863,0r0,149r-707,0r0,551r584,0r0,150r-584,0r0,575r-156,0","w":1132},"G":{"d":"725,-584r0,-143r391,0r0,698v0,0,-291,49,-461,49v-430,0,-549,-268,-549,-731v0,-471,119,-735,545,-735v215,0,465,53,465,53r-6,142v0,0,-254,-43,-440,-43v-328,0,-400,192,-400,583v0,387,70,580,398,580v121,0,287,-27,293,-27r0,-426r-236,0","w":1245},"H":{"d":"1063,0r0,-643r-721,0r0,643r-158,0r0,-1425r158,0r0,630r721,0r0,-630r156,0r0,1425r-156,0","w":1402},"K":{"d":"954,0r-376,-627r-236,9r0,618r-158,0r0,-1425r158,0r0,657r231,-8r363,-649r182,0r-405,712r428,713r-187,0","w":1218},"Q":{"d":"1018,297r-180,-295v-49,12,-107,18,-170,18v-442,0,-562,-250,-562,-725v0,-471,124,-741,562,-741v438,0,559,268,559,741v0,334,-56,550,-234,654r172,278xm668,-129v328,0,397,-185,397,-576v0,-377,-75,-591,-397,-591v-326,0,-398,212,-398,591v0,379,68,576,398,576","w":1333},"R":{"d":"999,0r-256,-539r-401,0r0,539r-158,0r0,-1425r525,0v305,0,452,127,452,434v0,219,-78,356,-260,411r273,580r-175,0xm999,-991v0,-197,-91,-285,-290,-285r-367,0r0,588r369,0v217,0,288,-121,288,-303","w":1277},"S":{"d":"973,-1407r-15,143v0,0,-282,-32,-401,-32v-201,0,-309,65,-309,225v0,186,98,217,348,272v283,63,408,133,408,387v0,307,-174,430,-459,430v-156,0,-436,-43,-436,-43r16,-143v0,0,273,35,418,35v201,0,301,-76,301,-273v0,-160,-85,-204,-316,-249v-293,-63,-438,-133,-438,-412v0,-266,178,-381,467,-381v158,0,416,41,416,41","w":1093},"T":{"d":"-8,-1274r0,-151r1024,0r0,151r-432,0r0,1274r-156,0r0,-1274r-436,0","w":1007},"V":{"d":"991,-1425r164,0r-371,1425r-350,0r-375,-1425r164,0r332,1275r109,0","w":1214},"N":{"d":"184,0r0,-1425r283,0r565,1241r45,0r0,-1241r158,0r0,1425r-277,0r-573,-1241r-43,0r0,1241r-158,0","w":1419},"$":{"d":"961,-1364r-15,139v0,0,-141,-16,-264,-26r-61,483v256,61,368,131,368,369v0,299,-168,417,-444,417r-25,0r-31,236v0,0,-104,-6,-104,-14r29,-228v-139,-12,-293,-37,-293,-37r16,-139v0,0,160,23,295,31r66,-508v-262,-59,-394,-133,-394,-393v0,-258,172,-371,453,-371v12,0,27,0,41,2r29,-223r104,0r-31,229v131,12,261,33,261,33xm256,-1038v0,160,76,202,262,247r60,-466r-21,0v-195,0,-301,63,-301,219xm836,-393v0,-137,-66,-186,-234,-225r-63,489r4,0v195,0,293,-74,293,-264"},"!":{"d":"471,0r0,-233r168,0r0,233r-168,0xm475,-475r-4,-957r166,0r-4,957r-158,0"},"a":{"d":"887,-711r0,504v4,66,53,86,119,94r-7,133v-123,0,-188,-22,-241,-77v0,0,-184,77,-379,77v-178,0,-279,-112,-279,-313v0,-197,101,-285,312,-303r323,-31r0,-84v0,-129,-65,-186,-178,-186v-150,0,-391,27,-391,27r-6,-134v0,0,245,-40,403,-40v217,0,324,102,324,333xm735,-502r-303,25v-125,12,-176,76,-176,180v0,119,53,184,145,184v156,0,334,-61,334,-61r0,-328","w":1069},"o":{"d":"543,-1044v309,0,436,172,436,522v0,354,-90,542,-436,542v-346,0,-441,-171,-441,-546v0,-352,117,-518,441,-518xm543,-117v242,0,278,-135,278,-405v0,-272,-81,-383,-278,-383v-217,0,-283,98,-283,379v0,287,41,409,283,409","w":1081},"J":{"d":"455,-1427v0,434,2,766,2,1204v0,340,-119,370,-389,370r0,-147v182,0,231,-15,231,-242r0,-1185r156,0","w":630},"t":{"d":"678,-885r-324,0r0,477v0,223,13,285,148,285v57,0,182,-10,182,-10r8,133v0,0,-135,23,-207,23v-211,0,-284,-80,-284,-375r0,-533r-146,0r0,-139r146,0r0,-313r153,0r0,313r324,0r0,139","w":743},"n":{"d":"332,0r-154,0r0,-1024r154,0r0,68v0,0,172,-88,317,-88v281,0,344,139,344,512r0,532r-151,0r0,-530v0,-272,-31,-373,-217,-373v-135,0,-293,76,-293,76r0,827","w":1163},"#":{"d":"1063,-369r-225,0r0,369r-140,0r0,-369r-315,0r0,369r-139,0r0,-369r-228,0r0,-131r228,0r0,-364r-228,0r0,-131r228,0r0,-369r139,0r0,369r315,0r0,-369r140,0r0,369r225,0r0,131r-225,0r0,364r225,0r0,131xm698,-500r0,-364r-315,0r0,364r315,0"},"W":{"d":"76,-1425r162,0r260,1267r59,0r274,-1255r179,0r282,1255r60,0r254,-1267r161,0r-303,1425r-286,0r-256,-1190r-252,1190r-285,0","w":1843},"@":{"d":"1911,-625r0,35v0,535,-140,610,-359,610v-119,0,-192,-14,-237,-112v-74,39,-230,110,-359,110v-176,0,-360,-67,-360,-516v0,-344,86,-544,414,-544v92,0,237,51,237,51r0,-33r154,0r0,410v0,467,26,491,151,491v127,0,203,-35,203,-467r0,-37v0,-500,-203,-706,-723,-706v-518,0,-770,227,-770,798v0,606,231,803,770,803v82,0,293,-18,293,-18r8,147v0,0,-203,19,-301,19v-606,0,-926,-212,-926,-951v0,-676,336,-946,926,-946v616,0,879,283,879,856xm965,-129v111,0,233,-53,303,-86v-14,-82,-21,-192,-21,-350r0,-293v0,0,-125,-41,-213,-41v-233,0,-284,126,-284,405v0,317,111,365,215,365","w":2017},"`":{"d":"51,-1534r447,193r-49,118r-451,-176","w":483},"M":{"d":"184,0r0,-1425r275,0r411,1198r414,-1198r272,0r0,1425r-157,0r0,-1241r-29,0r-414,1190r-174,0r-411,-1190r-29,0r0,1241r-158,0","w":1740},"U":{"d":"317,-430v0,221,131,297,332,297v213,0,346,-74,346,-297r0,-995r156,0r0,995v0,324,-178,448,-502,448v-311,0,-489,-122,-489,-448r0,-995r157,0r0,995","w":1310},"X":{"d":"240,-1425r356,598r354,-598r178,0r-423,718r423,707r-178,0r-352,-590r-358,590r-179,0r431,-707r-431,-718r179,0","w":1189},"Y":{"d":"647,-610r0,610r-158,0r0,-612r-450,-813r176,0r352,639r348,-639r177,0","w":1130},"\u00e1":{"d":"870,-711r0,504v4,66,53,86,119,94r-6,133v-123,0,-189,-22,-242,-77v0,0,-184,77,-379,77v-178,0,-278,-112,-278,-313v0,-197,100,-285,311,-303r324,-31r0,-84v0,-129,-65,-186,-178,-186v-150,0,-391,27,-391,27r-7,-134v0,0,246,-40,404,-40v217,0,323,102,323,333xm719,-502r-303,25v-125,12,-176,76,-176,180v0,119,53,184,145,184v156,0,334,-61,334,-61r0,-328xm244,-1341r446,-195r55,143r-450,176","w":1075},"\u00e9":{"d":"526,-119v154,0,375,-18,375,-18r4,125v0,0,-231,32,-397,32v-307,0,-408,-178,-408,-526v0,-389,170,-538,430,-538v270,0,412,143,412,479r-8,119r-678,0v2,215,67,327,270,327xm256,-571r532,0v0,-246,-80,-336,-258,-336v-176,0,-274,96,-274,336xm305,-1341r447,-195r55,143r-451,176","w":1030},"\u00f3":{"d":"543,-1044v309,0,436,172,436,522v0,354,-90,542,-436,542v-346,0,-441,-171,-441,-546v0,-352,117,-518,441,-518xm543,-117v242,0,278,-135,278,-405v0,-272,-81,-383,-278,-383v-217,0,-283,98,-283,379v0,287,41,409,283,409xm299,-1341r446,-195r56,143r-451,176","w":1081},"\u00f6":{"d":"543,-1044v309,0,436,172,436,522v0,354,-90,542,-436,542v-346,0,-441,-171,-441,-546v0,-352,117,-518,441,-518xm543,-117v242,0,278,-135,278,-405v0,-272,-81,-383,-278,-383v-217,0,-283,98,-283,379v0,287,41,409,283,409xm254,-1280r0,-184r149,0r0,184r-149,0xm666,-1280r0,-184r147,0r0,184r-147,0","w":1081},"\u00fa":{"d":"813,-1024r152,0r0,1024r-152,0r0,-66v0,0,-160,86,-303,86v-287,0,-346,-130,-346,-509r0,-535r151,0r0,532v0,283,24,375,217,375v135,0,281,-76,281,-76r0,-831xm326,-1341r446,-195r55,143r-450,176","w":1144},"\u00fc":{"d":"813,-1024r152,0r0,1024r-152,0r0,-66v0,0,-160,86,-303,86v-287,0,-346,-130,-346,-509r0,-535r151,0r0,532v0,283,24,375,217,375v135,0,281,-76,281,-76r0,-831xm301,-1280r0,-184r148,0r0,184r-148,0xm711,-1280r0,-184r149,0r0,184r-149,0","w":1144},"\u00ed":{"d":"70,-1341r446,-195r55,143r-450,176xm195,0r0,-1024r151,0r0,1024r-151,0","w":534},"\u00c1":{"d":"63,0r390,-1425r346,0r383,1423r-156,0r-108,-356r-594,0r-103,358r-158,0xm571,-1280r-211,770r525,0r-211,-770r-103,0xm381,-1751r446,-195r56,144r-451,176","w":1236},"\u00d3":{"d":"672,-129v328,0,397,-185,397,-576v0,-377,-75,-591,-397,-591v-326,0,-398,212,-398,591v0,379,68,576,398,576xm672,20v-442,0,-561,-250,-561,-725v0,-471,123,-741,561,-741v438,0,559,268,559,741v0,487,-121,725,-559,725xm410,-1751r446,-195r55,144r-450,176","w":1343},"\u00cd":{"d":"174,0r0,-1425r158,0r0,1425r-158,0xm20,-1731r447,-194r55,143r-450,176","w":505},"\u00da":{"d":"322,-430v0,221,130,297,331,297v213,0,346,-74,346,-297r0,-995r156,0r0,995v0,324,-178,448,-502,448v-311,0,-489,-122,-489,-448r0,-995r158,0r0,995xm399,-1751r447,-195r55,144r-450,176","w":1314},"\u00dc":{"d":"322,-430v0,221,130,297,331,297v213,0,346,-74,346,-297r0,-995r156,0r0,995v0,324,-178,448,-502,448v-311,0,-489,-122,-489,-448r0,-995r158,0r0,995xm418,-1690r0,-184r147,0r0,184r-147,0xm827,-1690r0,-184r150,0r0,184r-150,0","w":1314},"\u00d6":{"d":"672,-129v330,0,397,-185,397,-576v0,-377,-73,-591,-397,-591v-326,0,-398,212,-398,591v0,379,68,576,398,576xm672,20v-440,0,-561,-250,-561,-725v0,-471,123,-741,561,-741v438,0,561,268,561,741v0,487,-121,725,-561,725xm385,-1690r0,-184r147,0r0,184r-147,0xm797,-1690r0,-184r147,0r0,184r-147,0","w":1343},"\u00c9":{"d":"188,0r0,-1425r861,0r0,149r-705,0r0,481r582,0r0,148r-582,0r0,497r705,0r0,150r-861,0xm395,-1751r447,-195r55,144r-451,176","w":1171},"I":{"d":"174,0r0,-1425r158,0r0,1425r-158,0","w":505},"O":{"d":"668,-129v328,0,397,-185,397,-576v0,-377,-75,-591,-397,-591v-326,0,-398,212,-398,591v0,379,68,576,398,576xm668,20v-442,0,-562,-250,-562,-725v0,-471,124,-741,562,-741v438,0,559,268,559,741v0,487,-121,725,-559,725","w":1333},"~":{"d":"940,-772r14,147v0,0,-106,107,-217,107v-119,0,-293,-103,-383,-103v-86,0,-207,99,-207,99r-16,-146v0,0,112,-110,229,-110v119,0,287,102,379,102v78,0,201,-96,201,-96"},"L":{"d":"965,0r-781,0r0,-1425r158,0r0,1273r623,0r0,152","w":1050},"B":{"d":"184,-1425r512,0v266,0,422,104,422,352v0,195,-67,287,-180,340v127,43,223,127,223,332v0,301,-172,401,-438,401r-539,0r0,-1425xm707,-651r-367,0r0,506r377,0v172,0,282,-64,282,-265v0,-219,-183,-241,-292,-241xm690,-1280r-350,0r0,485r365,0v178,0,251,-88,251,-258v0,-162,-86,-227,-266,-227","w":1265},"D":{"d":"690,0r-506,0r0,-1425r506,0v410,0,524,287,524,690v0,408,-108,735,-524,735xm1051,-735v0,-299,-68,-541,-361,-541r-350,0r0,1126r350,0v293,0,361,-284,361,-585","w":1314},"P":{"d":"702,-477r-360,0r0,477r-158,0r0,-1425r518,0v309,0,453,147,453,456v0,309,-144,492,-453,492xm342,-629r358,0v207,0,293,-129,293,-340v0,-209,-86,-305,-293,-305r-358,0r0,645","w":1241},"b":{"d":"631,-1044v279,0,375,147,375,514v0,406,-111,550,-484,550v-123,0,-344,-22,-344,-22r0,-1468r154,0r0,493v0,0,154,-67,299,-67xm520,-117v281,0,330,-126,330,-409v0,-266,-54,-377,-234,-377v-135,0,-284,55,-284,55r0,719v0,0,133,12,188,12","w":1107},"v":{"d":"49,-1024r160,0r246,893r75,0r250,-893r156,0r-291,1024r-307,0","w":987},"x":{"d":"55,-1024r166,0r250,401r250,-401r168,0r-322,512r322,512r-168,0r-250,-399r-248,399r-168,0r320,-512","w":942},"6":{"d":"967,-1341r-15,143v0,0,-184,-25,-356,-25v-233,0,-363,158,-365,457v0,2,193,-80,340,-80v297,0,453,135,453,420v0,287,-170,446,-473,446v-336,0,-483,-258,-483,-702v0,-498,206,-692,528,-692v172,0,371,33,371,33xm559,-700v-158,6,-330,75,-330,75v4,283,89,498,322,498v201,0,311,-100,311,-299v0,-188,-115,-274,-303,-274"},"9":{"d":"121,-10r14,-144v0,0,185,25,357,25v248,0,370,-148,372,-453v0,0,-205,74,-352,74v-283,0,-442,-131,-442,-416v0,-283,186,-450,469,-450v340,0,487,260,487,702v0,524,-200,692,-534,692v-172,0,-371,-30,-371,-30xm524,-653v141,0,342,-72,342,-72v-4,-293,-96,-500,-327,-500v-188,0,-306,113,-306,301v0,190,103,271,291,271"},"<":{"d":"840,-983r-564,344r564,358r0,166v-94,-49,-574,-360,-711,-440r0,-160r711,-430r0,162"},">":{"d":"692,-639r-563,-344r0,-162r711,430r0,160v-137,80,-617,391,-711,440r0,-166"},"[":{"d":"514,-1534r0,148r-274,0r0,1490r274,0r0,148r-430,0r0,-1786r430,0","w":614},"\\":{"d":"942,-39r-166,68r-631,-1418r166,-71","w":1099},"]":{"d":"84,-1386r0,-148r430,0r0,1786r-430,0r0,-148r274,0r0,-1490r-274,0","w":614},"|":{"d":"455,260r0,-1735r155,0r0,1735r-155,0"},"4":{"d":"717,8r0,-262r-658,0r0,-127r385,-971r172,0r-376,949r477,0r0,-433r157,0r0,433r170,0r0,149r-170,0r0,262r-157,0"},"\"":{"d":"545,-977r-144,0r-2,-450r150,0xm233,-977r-143,0r-2,-450r150,0","w":634},"'":{"d":"25,-961r-5,-462r156,0r-10,462r-141,0","w":204},"(":{"d":"272,-1536r162,0v0,0,-194,533,-194,920v0,381,194,872,194,872r-162,0v0,0,-198,-462,-198,-872v0,-410,198,-920,198,-920","w":532},")":{"d":"74,-1536r162,0v0,0,198,489,198,899v0,410,-198,893,-198,893r-162,0v0,0,194,-512,194,-893v0,-387,-194,-899,-194,-899","w":532},",":{"d":"53,252r94,-471r166,0r-112,471r-148,0","w":348},"-":{"d":"131,-500r0,-151r639,0r0,151r-639,0","w":901},".":{"d":"158,0r0,-233r166,0r0,233r-166,0","w":507},":":{"d":"123,-659r0,-234r168,0r0,234r-168,0xm123,0r0,-233r168,0r0,233r-168,0","w":362},";":{"d":"49,244r101,-480r169,0r-131,480r-139,0xm137,-659r0,-234r168,0r0,234r-168,0","w":405},"=":{"d":"68,-694r0,-142r936,0r0,142r-936,0xm70,-309r0,-142r936,0r0,142r-936,0"},"?":{"d":"791,-1100v0,350,-390,422,-390,617r0,77r-161,0r0,-83v0,-264,387,-332,387,-596v0,-158,-78,-213,-271,-213v-102,0,-321,49,-321,49r-19,-152v0,0,233,-55,344,-55v285,0,431,92,431,356xm238,-2r0,-234r168,0r0,234r-168,0","w":790},"_":{"d":"55,29r877,0r0,143r-877,0r0,-143","w":1064},"{":{"d":"387,-348v-4,72,-14,163,-14,237v0,141,43,216,233,226r-2,147v-279,-10,-393,-114,-393,-358v0,-80,14,-199,14,-250v0,-117,-49,-182,-205,-225r0,-131v158,-39,205,-105,205,-222v0,-57,-14,-186,-14,-262v0,-252,114,-350,393,-360r2,147v-190,10,-233,78,-233,221v0,68,14,193,14,252v0,174,-55,238,-205,287v150,49,205,121,205,291","w":628},"}":{"d":"240,-348v0,-170,54,-242,204,-291v-150,-49,-204,-113,-204,-287v0,-59,14,-184,14,-252v0,-143,-46,-211,-234,-221r3,-147v279,10,393,108,393,360v0,76,-15,205,-15,262v0,117,47,183,205,222r0,131v-156,43,-205,108,-205,225v0,51,15,170,15,250v0,244,-114,348,-393,358r-3,-147v188,-10,234,-85,234,-226v0,-74,-12,-165,-14,-237","w":628},"&":{"d":"662,-1438v242,0,354,123,354,322v0,195,-92,291,-309,393r292,293v20,-66,48,-183,58,-275r149,3v-18,135,-53,278,-88,372r264,254r-96,105r-246,-232v-117,162,-252,234,-465,234v-334,0,-477,-166,-477,-449v0,-233,115,-340,314,-416v-90,-104,-105,-171,-105,-292v0,-188,128,-312,355,-312xm582,-115v154,0,258,-53,344,-188r-416,-422v-174,59,-256,141,-256,305v0,195,101,305,328,305xm461,-1110v0,84,18,157,92,231r55,58v180,-78,254,-140,254,-285v0,-123,-59,-188,-200,-188v-129,0,-201,59,-201,184","w":1433},"*":{"d":"905,-1047r-268,0r82,256r-98,31r-86,-258r-220,162r-61,-82r221,-162r-219,-157r63,-86r216,155r86,-254r100,33r-82,260r266,0r0,102"},"%":{"d":"842,-573v160,0,233,94,233,282v0,188,-75,289,-233,289v-158,0,-232,-101,-232,-291v0,-186,72,-280,232,-280xm248,-55r524,-1377r96,48r-522,1376xm733,-293v0,123,23,187,109,187v86,0,110,-64,110,-185v0,-121,-24,-178,-110,-178v-84,0,-109,57,-109,176xm268,-1438v160,0,234,95,234,285v0,188,-76,289,-234,289v-158,0,-231,-101,-231,-291v0,-188,71,-283,231,-283xm160,-1155v0,121,22,186,108,186v88,0,111,-63,111,-184v0,-121,-23,-178,-111,-178v-84,0,-108,57,-108,176"},"+":{"d":"-47,-475r0,-143r440,0r0,-439r144,0r0,439r444,0r0,143r-444,0r0,442r-144,0r0,-442r-440,0","w":937},"^":{"d":"821,-666r-284,-534r-275,534r-164,0r359,-686r159,0r371,686r-166,0"},"\u0150":{"d":"668,-129v328,0,397,-185,397,-576v0,-377,-75,-591,-397,-591v-326,0,-398,212,-398,591v0,379,68,576,398,576xm668,20v-442,0,-562,-250,-562,-725v0,-471,124,-741,562,-741v438,0,559,268,559,741v0,487,-121,725,-559,725xm694,-1649r291,-268r121,74r-299,264xm283,-1649r290,-270r119,74r-297,264","w":1333},"\u0170":{"d":"317,-430v0,221,131,297,332,297v213,0,346,-74,346,-297r0,-995r156,0r0,995v0,324,-178,448,-502,448v-311,0,-489,-122,-489,-448r0,-995r157,0r0,995xm717,-1616r289,-268r122,74r-301,264xm303,-1616r291,-270r121,74r-299,264","w":1318},"\u0151":{"d":"543,-1044v309,0,436,172,436,522v0,354,-90,542,-436,542v-346,0,-441,-171,-441,-546v0,-352,117,-518,441,-518xm543,-117v242,0,278,-135,278,-405v0,-272,-81,-383,-278,-383v-217,0,-283,98,-283,379v0,287,41,409,283,409xm584,-1278r295,-285r112,88r-303,283xm188,-1278r297,-283r111,86r-303,283","w":1081},"\u0171":{"d":"813,-1024r152,0r0,1024r-152,0r0,-66v0,0,-160,86,-303,86v-287,0,-346,-130,-346,-509r0,-535r151,0r0,532v0,283,24,375,217,375v135,0,281,-76,281,-76r0,-831xm643,-1278r295,-285r113,88r-303,283xm248,-1278r297,-283r110,86r-303,283","w":1144},"\/":{"d":"180,-31r572,-1421r145,53r-571,1419"},"\u00a0":{"w":481}}});
