/*!
 * The following copyright notice may not be removed under any circumstances.
 * 
 * Copyright:
 * Generated in 2010 by FontLab Studio. Copyright info pending.
 * 
 * Full name:
 * TitilliumText22L Thin
 * 
 * Manufacturer:
 * Campivisivi
 * 
 * Designer:
 * Campivisivi
 * 
 * License information:
 * http://scripts.sil.org/OFL
 */
Cufon.registerFont({"w":1085,"face":{"font-family":"Titillium_Thin","font-weight":100,"font-stretch":"normal","units-per-em":"2048","panose-1":"0 0 0 0 0 0 0 0 0 0","ascent":"1536","descent":"-512","x-height":"18","bbox":"-100 -1909 1894 489","underline-thickness":"102.4","underline-position":"-102.4","unicode-range":"U+0020-U+0171"},"glyphs":{" ":{"w":481},"C":{"d":"1001,-92r7,69v0,0,-217,41,-379,41v-422,0,-510,-274,-510,-729v0,-446,74,-741,510,-741v195,0,379,39,379,39r-7,72v0,0,-206,-41,-372,-41v-385,0,-432,263,-432,671v0,410,55,660,432,660v145,0,372,-41,372,-41","w":1099},"c":{"d":"543,-1042v78,0,245,20,245,20r-4,66v0,0,-163,-21,-241,-21v-262,0,-344,118,-344,442v0,352,53,488,344,488v78,0,245,-19,245,-19r5,66v0,0,-172,18,-250,18v-342,0,-420,-141,-420,-553v0,-379,115,-507,420,-507","w":894},"d":{"d":"895,-1434r0,1434r-72,0r0,-86v0,0,-168,104,-354,104v-127,0,-346,-18,-346,-516v0,-352,94,-544,430,-544v96,0,219,16,270,24r0,-416r72,0xm469,-47v176,0,354,-107,354,-107r0,-798v-53,-6,-190,-25,-270,-25v-291,0,-358,174,-358,485v0,408,159,445,274,445","w":1101},"e":{"d":"510,-47v143,0,373,-19,373,-19r4,66v0,0,-229,18,-379,18v-305,-2,-385,-196,-385,-530v0,-406,181,-530,414,-530v252,0,389,137,389,491r0,68r-727,0v0,283,73,436,311,436xm199,-549r651,0v0,-313,-100,-428,-313,-428v-205,0,-338,117,-338,428","w":1038},"f":{"d":"285,-958r0,958r-72,0r0,-958r-141,0r0,-66r141,0r0,-125v0,-295,74,-364,260,-364v72,0,189,6,189,6r0,63v0,0,-132,-4,-189,-4v-139,0,-188,55,-188,301r0,123r331,0r0,66r-331,0","w":671},"g":{"d":"518,489v-340,0,-405,-83,-405,-325v0,-135,63,-182,174,-262v-33,-20,-45,-70,-45,-133v0,-31,61,-160,61,-160v-94,-31,-176,-112,-176,-311v0,-244,131,-342,350,-342v111,0,217,26,217,26r287,-6r0,72r-221,0v51,47,82,109,82,250v0,256,-117,335,-373,335v-16,0,-86,-4,-111,-8v0,0,-47,117,-47,144v0,100,13,110,281,110v254,0,362,41,362,295v0,221,-131,315,-436,315xm588,-55v-84,0,-248,-6,-248,-6v-119,82,-154,125,-154,223v0,195,51,262,334,262v254,0,359,-74,359,-250v0,-207,-84,-229,-291,-229xm469,-432v213,0,297,-65,297,-270v0,-231,-76,-277,-291,-277v-180,0,-274,66,-274,277v0,184,61,270,268,270","w":1032},"h":{"d":"279,0r-72,0r0,-1536r72,0r0,573v0,0,180,-79,356,-79v279,0,336,113,336,510r0,532r-72,0r0,-528v0,-348,-37,-449,-264,-449v-182,0,-356,82,-356,82r0,895","w":1161},"i":{"d":"184,0r0,-1024r72,0r0,1024r-72,0xm184,-1321r0,-113r72,0r0,113r-72,0","w":440},"j":{"d":"221,-12r0,-1012r72,0r0,1014v0,229,-62,321,-326,456r-28,-63v233,-127,282,-194,282,-395xm221,-1321r0,-113r72,0r0,113r-72,0","w":477},"k":{"d":"279,0r-72,0r0,-1495r72,0r0,897r192,0r373,-426r84,0r-393,463r393,561r-84,0r-373,-526r-192,0r0,526","w":989},"l":{"d":"195,0r0,-1495r71,0r0,1495r-71,0","w":460},"m":{"d":"279,0r-72,0r0,-1024r72,0r0,82v0,0,159,-100,335,-100v45,0,84,4,119,10v68,12,115,41,148,88v29,-12,221,-98,385,-98v279,0,336,113,336,510r0,532r-72,0r0,-528v0,-348,-37,-449,-264,-449v-178,0,-345,94,-353,100v29,78,37,191,37,345r0,532r-71,0r0,-528v0,-348,-38,-449,-265,-449v-182,0,-335,103,-335,103r0,874","w":1792},"A":{"d":"72,0r440,-1434r217,0r436,1430r-73,0r-138,-436r-671,0r-138,440r-73,0xm563,-1364r-260,854r631,0r-260,-854r-111,0","w":1236},"p":{"d":"207,471r0,-1495r72,0r0,86v0,0,168,-104,354,-104v250,0,350,166,350,516v0,379,-117,544,-434,544v-111,0,-223,-18,-270,-28r0,481r-72,0xm633,-977v-176,0,-354,109,-354,109r0,792v45,8,159,29,270,29v264,0,358,-133,358,-485v0,-326,-98,-445,-274,-445","w":1105},"q":{"d":"492,18v-279,0,-369,-175,-369,-507v0,-383,107,-553,467,-553v98,0,305,18,305,18r0,1495r-72,0r0,-530v0,0,-149,77,-331,77xm592,-977v-322,0,-393,157,-393,483v0,287,66,447,293,447v182,0,331,-82,331,-82r0,-836v0,0,-159,-12,-231,-12","w":1101},"r":{"d":"207,0r0,-1024r72,0r0,160v0,0,180,-137,405,-180r0,69v-201,39,-405,178,-405,178r0,797r-72,0","w":724},"s":{"d":"825,-1012r-4,68v0,0,-209,-33,-348,-33v-131,0,-274,39,-274,205v0,127,54,166,290,203v268,43,373,81,373,274v0,240,-147,313,-389,313v-117,0,-338,-32,-338,-32r8,-68v0,0,222,35,326,35v193,0,317,-45,317,-242v0,-147,-73,-176,-317,-213v-240,-37,-346,-76,-346,-266v0,-217,184,-274,350,-274v158,0,352,30,352,30","w":989},"u":{"d":"862,-1024r72,0r0,1024r-72,0r0,-82v0,0,-160,100,-336,100v-279,0,-336,-113,-336,-510r0,-532r72,0r0,528v0,348,37,449,264,449v182,0,336,-103,336,-103r0,-874","w":1140},"w":{"d":"78,-1024r76,0r260,958r22,0r303,-938r80,0r301,938r23,0r262,-958r76,0r-281,1024r-139,0r-283,-918r-284,918r-140,0","w":1558},"y":{"d":"72,-1024r75,0r302,958r83,0r304,-958r75,0r-469,1495r-75,0r147,-471r-125,0","w":983},"z":{"d":"113,-958r0,-66r759,0r0,66r-671,892r671,0r0,66r-759,0r0,-66r671,-892r-671,0","w":985},"Z":{"d":"123,-1364r0,-70r921,0r0,144r-845,1177r0,45r845,0r0,70r-921,0r0,-141r846,-1176r0,-49r-846,0","w":1167},"0":{"d":"541,-1372v307,0,473,139,473,725v0,522,-180,665,-471,665v-291,0,-473,-137,-473,-663v0,-586,176,-727,471,-727xm541,-1303v-260,0,-394,125,-394,660v0,483,150,592,396,592v246,0,393,-111,393,-596v0,-524,-129,-656,-395,-656"},"1":{"d":"184,-1073r418,-279r74,0r0,1352r-74,0r0,-1272r-383,258"},"2":{"d":"981,0r-856,0r0,-70r465,-489v154,-162,270,-287,270,-467v0,-207,-123,-277,-344,-277v-156,0,-369,54,-369,54r-10,-70v0,0,191,-53,381,-53v268,0,420,90,420,346v0,199,-102,319,-268,491r-445,463r756,0r0,72"},"3":{"d":"133,-1327v0,0,194,-45,399,-45v295,0,406,107,406,338v0,254,-229,311,-231,311v154,41,270,106,270,350v0,264,-137,391,-426,391v-221,0,-445,-47,-445,-47r13,-69v0,0,215,47,432,47v242,-2,348,-109,348,-316v0,-244,-154,-303,-332,-313r-274,0r0,-70r272,0v111,0,295,-87,295,-286v0,-193,-83,-267,-325,-267v-203,0,-390,46,-390,46"},"5":{"d":"168,-1352r762,0r0,72r-692,0r-37,541v0,0,176,-105,366,-105v256,0,426,100,426,393v0,315,-172,465,-446,465v-205,0,-428,-49,-428,-49r10,-69v0,0,226,49,416,49v221,0,370,-136,370,-396v0,-252,-151,-323,-350,-323v-184,0,-366,112,-366,112r-70,-8"},"7":{"d":"121,-1282r0,-70r823,0r0,133r-549,1237r-71,-28r542,-1225r0,-47r-745,0"},"8":{"d":"549,-1372v291,0,485,100,485,338v0,182,-94,268,-278,321v170,49,299,135,299,346v0,305,-227,385,-506,385v-264,0,-500,-86,-500,-362v0,-227,117,-303,277,-369v-158,-55,-254,-139,-254,-323v0,-233,182,-336,477,-336xm549,-51v242,0,428,-66,428,-314v0,-219,-148,-268,-320,-311r-239,0v-178,43,-289,123,-289,330v0,227,193,295,420,295xm549,-1303v-246,0,-399,66,-399,269v0,166,90,242,268,291r239,0v188,-45,297,-123,297,-289v0,-201,-155,-271,-405,-271"},"E":{"d":"211,0r0,-1434r838,0r0,70r-764,0r0,592r641,0r0,70r-641,0r0,632r764,0r0,70r-838,0","w":1171},"F":{"d":"211,0r0,-1434r840,0r0,70r-766,0r0,647r643,0r0,70r-643,0r0,647r-74,0","w":1153},"G":{"d":"729,-641r0,-70r381,0r0,678v0,0,-289,51,-451,51v-422,0,-536,-274,-536,-729v0,-446,100,-741,536,-741v215,0,451,51,451,51r-6,72v0,0,-259,-53,-445,-53v-385,0,-458,263,-458,671v0,410,81,660,458,660v145,0,365,-41,377,-41r0,-549r-307,0","w":1263},"H":{"d":"1141,0r0,-684r-856,0r0,684r-74,0r0,-1434r74,0r0,680r856,0r0,-680r73,0r0,1434r-73,0","w":1425},"K":{"d":"1026,0r-473,-674r-268,0r0,674r-74,0r0,-1434r74,0r0,691r264,0r450,-691r88,0r-473,721r506,713r-94,0","w":1222},"Q":{"d":"1075,283r-178,-293v-63,18,-137,28,-225,28v-442,0,-549,-254,-549,-729v0,-467,111,-741,549,-741v438,0,549,270,549,741v0,354,-55,574,-248,672r176,287xm672,-51v395,0,471,-209,471,-660v0,-424,-86,-671,-471,-671v-389,0,-471,243,-471,671v0,430,76,660,471,660","w":1343},"R":{"d":"1094,0r-320,-594r-489,0r0,594r-74,0r0,-1434r514,0v285,0,426,123,426,410v0,227,-78,379,-297,420r324,604r-84,0xm1073,-1024v0,-238,-108,-340,-348,-340r-440,0r0,700r440,0v268,0,348,-141,348,-360","w":1290},"S":{"d":"958,-1423r-8,71v0,0,-280,-34,-399,-34v-233,0,-365,81,-365,286v0,250,127,281,385,322v270,43,418,104,418,362v0,319,-151,430,-434,430v-154,0,-438,-32,-438,-32r8,-72v0,0,283,35,428,35v233,0,358,-99,358,-355v0,-209,-106,-256,-358,-295v-281,-43,-444,-90,-444,-391v0,-264,170,-360,442,-360v158,0,407,33,407,33","w":1097},"T":{"d":"0,-1364r0,-70r1024,0r0,70r-473,0r0,1364r-74,0r0,-1364r-477,0","w":1024},"V":{"d":"1040,-1434r74,0r-397,1434r-238,0r-407,-1434r73,0r394,1364r118,0","w":1185},"N":{"d":"211,0r0,-1434r174,0r682,1364r55,0r0,-1364r74,0r0,1434r-174,0r-684,-1364r-53,0r0,1364r-74,0","w":1406},"$":{"d":"938,-1352r-8,68v0,0,-137,-17,-256,-27r-74,578v236,41,367,102,367,338v0,303,-144,409,-414,409v-16,0,-33,0,-51,-2r-29,234v0,0,-72,-7,-72,-15r29,-223v-139,-8,-293,-26,-293,-26r8,-68v0,0,158,21,293,29r82,-617v-248,-41,-391,-94,-391,-366v0,-252,162,-342,422,-342v18,0,38,0,61,2r31,-238r72,0r-33,242v127,8,256,24,256,24xm203,-1044v0,225,106,264,325,299r76,-570v-20,-2,-39,-2,-53,-2v-223,0,-348,78,-348,273xm893,-389v0,-186,-92,-238,-303,-275r-78,611r41,0v221,0,340,-92,340,-336"},"!":{"d":"512,0r0,-164r82,0r0,164r-82,0xm516,-436r0,-996r72,0r0,996r-72,0"},"a":{"d":"856,-723r0,588v6,59,84,80,154,86r-4,65v-88,0,-166,-19,-211,-82v0,0,-191,84,-422,84v-160,0,-260,-100,-260,-299v0,-174,79,-274,282,-294r389,-41r0,-107v0,-178,-77,-250,-227,-250v-150,0,-387,35,-387,35r-6,-68v0,0,229,-36,393,-36v207,0,299,108,299,319xm784,-549r-381,37v-160,16,-215,104,-215,231v0,150,72,234,187,234v203,0,409,-82,409,-82r0,-420","w":1060},"o":{"d":"543,-1042v276,0,411,139,411,512v0,383,-73,548,-411,548v-340,0,-420,-141,-420,-553v0,-379,117,-507,420,-507xm543,-47v301,0,336,-157,336,-483v0,-328,-109,-447,-336,-447v-262,0,-344,98,-344,442v0,352,43,488,344,488","w":1077},"J":{"d":"426,-1436v0,434,2,783,2,1221v0,365,-110,365,-356,365r0,-70v240,0,280,-1,280,-316r0,-1200r74,0","w":622},"t":{"d":"678,-958r-373,0r0,536v0,305,23,377,189,377v57,0,200,-16,200,-16r6,65v0,0,-134,16,-206,16v-186,0,-261,-69,-261,-364r0,-614r-161,0r0,-66r161,0r0,-334r72,0r0,334r373,0r0,66","w":761},"n":{"d":"279,0r-72,0r0,-1024r72,0r0,82v0,0,182,-100,358,-100v279,0,336,113,336,510r0,532r-72,0r0,-528v0,-348,-37,-449,-264,-449v-182,0,-358,103,-358,103r0,874","w":1173},"#":{"d":"1051,-389r-246,0r0,389r-74,0r0,-389r-385,0r0,389r-74,0r0,-389r-245,0r0,-66r245,0r0,-463r-245,0r0,-65r245,0r0,-389r74,0r0,389r385,0r0,-389r74,0r0,389r246,0r0,65r-246,0r0,463r246,0r0,66xm731,-455r0,-463r-385,0r0,463r385,0"},"W":{"d":"92,-1434r72,0r293,1364r78,0r317,-1343r82,0r328,1343r77,0r283,-1364r72,0r-295,1434r-197,0r-309,-1317r-299,1317r-197,0","w":1785},"@":{"d":"1894,-625r0,35v0,592,-138,610,-333,610v-115,0,-183,-6,-220,-129v-70,39,-246,127,-391,127v-127,0,-346,-18,-346,-516v0,-352,94,-544,430,-544v117,0,271,55,271,55r0,-37r71,0r0,410v0,557,27,573,185,573v158,0,258,-19,258,-549r0,-37v0,-541,-209,-780,-787,-780v-567,0,-833,219,-833,872v0,680,266,877,833,877v82,0,293,-20,293,-20r6,67v0,0,-201,19,-299,19v-606,0,-909,-204,-909,-943v0,-692,303,-938,909,-938v625,0,862,266,862,848xm950,-47v141,0,299,-78,377,-123v-16,-94,-22,-233,-22,-444r0,-308v0,0,-150,-55,-271,-55v-291,0,-358,174,-358,485v0,408,159,445,274,445","w":2017},"`":{"d":"53,-1499r393,196r-30,56r-396,-189","w":440},"M":{"d":"211,0r0,-1434r158,0r501,1321r506,-1321r156,0r0,1434r-74,0r0,-1364r-28,0r-510,1321r-103,0r-504,-1321r-28,0r0,1364r-74,0","w":1742},"U":{"d":"258,-401v0,258,149,350,389,350v258,0,410,-90,410,-350r0,-1033r73,0r0,1033v0,307,-176,419,-483,419v-287,0,-463,-110,-463,-419r0,-1033r74,0r0,1033","w":1314},"X":{"d":"170,-1434r426,668r424,-668r88,0r-457,723r457,711r-88,0r-422,-659r-428,659r-88,0r463,-711r-463,-723r88,0","w":1189},"Y":{"d":"592,-616r0,616r-74,0r0,-616r-467,-818r84,0r420,736r414,-736r86,0","w":1105},"\u00e1":{"d":"856,-723r0,588v6,59,84,80,154,86r-4,65v-88,0,-166,-19,-211,-82v0,0,-191,84,-422,84v-160,0,-260,-100,-260,-299v0,-174,79,-274,282,-294r389,-41r0,-107v0,-178,-77,-250,-227,-250v-150,0,-387,35,-387,35r-6,-68v0,0,229,-36,393,-36v207,0,299,108,299,319xm784,-549r-381,37v-160,16,-215,104,-215,231v0,150,72,234,187,234v203,0,409,-82,409,-82r0,-420xm285,-1303r393,-196r33,63r-396,189","w":1060},"\u00e9":{"d":"510,-47v143,0,373,-19,373,-19r4,66v0,0,-229,18,-379,18v-305,-2,-385,-196,-385,-530v0,-406,181,-530,414,-530v252,0,389,137,389,491r0,68r-727,0v0,283,73,436,311,436xm199,-549r651,0v0,-313,-100,-428,-313,-428v-205,0,-338,117,-338,428xm354,-1303r394,-196r32,63r-395,189","w":1038},"\u00f3":{"d":"543,-1042v276,0,411,139,411,512v0,383,-73,548,-411,548v-340,0,-420,-141,-420,-553v0,-379,117,-507,420,-507xm543,-47v301,0,336,-157,336,-483v0,-328,-109,-447,-336,-447v-262,0,-344,98,-344,442v0,352,43,488,344,488xm367,-1303r393,-196r33,63r-396,189","w":1077},"\u00f6":{"d":"543,-1042v276,0,411,139,411,512v0,383,-73,548,-411,548v-340,0,-420,-141,-420,-553v0,-379,117,-507,420,-507xm543,-47v301,0,336,-157,336,-483v0,-328,-109,-447,-336,-447v-262,0,-344,98,-344,442v0,352,43,488,344,488xm299,-1307r0,-127r72,0r0,127r-72,0xm688,-1307r0,-127r72,0r0,127r-72,0","w":1077},"\u00fa":{"d":"862,-1024r72,0r0,1024r-72,0r0,-82v0,0,-160,100,-336,100v-279,0,-336,-113,-336,-510r0,-532r72,0r0,528v0,348,37,449,264,449v182,0,336,-103,336,-103r0,-874xm391,-1303r393,-196r33,63r-395,189","w":1140},"\u00fc":{"d":"862,-1024r72,0r0,1024r-72,0r0,-82v0,0,-160,100,-336,100v-279,0,-336,-113,-336,-510r0,-532r72,0r0,528v0,348,37,449,264,449v182,0,336,-103,336,-103r0,-874xm354,-1307r0,-127r72,0r0,127r-72,0xm743,-1307r0,-127r72,0r0,127r-72,0","w":1140},"\u00ed":{"d":"117,-1303r393,-196r33,63r-396,189xm231,0r0,-1024r72,0r0,1024r-72,0","w":534},"\u00c1":{"d":"72,0r440,-1434r217,0r436,1430r-73,0r-138,-436r-671,0r-138,440r-73,0xm563,-1364r-260,854r631,0r-260,-854r-111,0xm426,-1712r393,-197r33,64r-395,188","w":1236},"\u00d3":{"d":"672,-51v395,0,471,-209,471,-660v0,-424,-86,-671,-471,-671v-389,0,-471,243,-471,671v0,430,76,660,471,660xm672,18v-442,0,-549,-254,-549,-729v0,-467,111,-741,549,-741v438,0,549,270,549,741v0,496,-109,729,-549,729xm459,-1712r393,-197r33,64r-396,188","w":1343},"\u00cd":{"d":"195,0r0,-1434r73,0r0,1434r-73,0xm41,-1692r393,-196r33,63r-395,189","w":462},"\u00da":{"d":"258,-401v0,258,149,350,389,350v258,0,410,-90,410,-350r0,-1033r73,0r0,1033v0,307,-176,419,-483,419v-287,0,-463,-110,-463,-419r0,-1033r74,0r0,1033xm444,-1712r394,-197r32,64r-395,188","w":1314},"\u00dc":{"d":"258,-401v0,258,149,350,389,350v258,0,410,-90,410,-350r0,-1033r73,0r0,1033v0,307,-176,419,-483,419v-287,0,-463,-110,-463,-419r0,-1033r74,0r0,1033xm451,-1716r0,-127r71,0r0,127r-71,0xm840,-1716r0,-127r71,0r0,127r-71,0","w":1314},"\u00d6":{"d":"672,-51v395,0,471,-209,471,-660v0,-424,-86,-671,-471,-671v-389,0,-471,243,-471,671v0,430,76,660,471,660xm672,18v-442,0,-549,-254,-549,-729v0,-467,111,-741,549,-741v438,0,549,270,549,741v0,496,-109,729,-549,729xm436,-1716r0,-127r72,0r0,127r-72,0xm825,-1716r0,-127r72,0r0,127r-72,0","w":1343},"\u00c9":{"d":"211,0r0,-1434r838,0r0,70r-764,0r0,592r641,0r0,70r-641,0r0,632r764,0r0,70r-838,0xm457,-1712r393,-197r33,64r-396,188","w":1171},"I":{"d":"195,0r0,-1434r73,0r0,1434r-73,0","w":462},"O":{"d":"672,-51v395,0,471,-209,471,-660v0,-424,-86,-671,-471,-671v-389,0,-471,243,-471,671v0,430,76,660,471,660xm672,18v-442,0,-549,-254,-549,-729v0,-467,111,-741,549,-741v438,0,549,270,549,741v0,496,-109,729,-549,729","w":1343},"~":{"d":"932,-758r14,76v0,0,-111,107,-205,107v-127,0,-293,-111,-393,-111v-76,0,-194,108,-194,108r-15,-71v0,0,115,-111,209,-111v129,0,301,111,391,111v76,0,193,-109,193,-109"},"L":{"d":"983,0r-772,0r0,-1434r74,0r0,1364r698,0r0,70"},"B":{"d":"211,-1434r491,0v274,0,414,107,414,349v0,203,-81,303,-198,346v127,35,253,117,253,338v0,313,-172,401,-430,401r-530,0r0,-1434xm725,-698r-440,0r0,628r456,0v209,0,355,-75,355,-331v0,-291,-267,-297,-371,-297xm702,-1364r-417,0r0,598r440,0v223,0,315,-110,315,-319v0,-199,-109,-279,-338,-279","w":1284},"D":{"d":"743,0r-532,0r0,-1434r532,0v360,0,480,337,480,697v0,360,-120,737,-480,737xm1145,-737v0,-307,-95,-627,-402,-627r-458,0r0,1294r458,0v307,0,402,-360,402,-667","w":1337},"P":{"d":"733,-526r-448,0r0,526r-74,0r0,-1434r522,0v297,0,424,136,424,433v0,297,-127,475,-424,475xm285,-596r448,0v248,0,346,-157,346,-405v0,-248,-98,-363,-346,-363r-448,0r0,768","w":1259},"b":{"d":"631,-1042v279,0,348,155,348,507v0,383,-86,553,-467,553v-139,0,-305,-18,-305,-18r0,-1495r72,0r0,534v0,0,170,-81,352,-81xm510,-47v342,0,393,-157,393,-483v0,-307,-45,-447,-272,-447v-182,0,-352,82,-352,82r0,836v0,0,159,12,231,12","w":1101},"v":{"d":"72,-1024r75,0r299,958r89,0r301,-958r75,0r-321,1024r-201,0","w":983},"x":{"d":"78,-1024r82,0r307,457r307,-457r82,0r-346,512r346,512r-84,0r-305,-457r-305,457r-84,0r346,-512","w":933},"6":{"d":"936,-1350r-8,68v0,0,-168,-21,-340,-21v-266,0,-424,195,-426,570v0,2,213,-98,393,-98v293,0,446,135,446,405v0,276,-157,444,-458,444v-319,0,-459,-266,-459,-708v0,-473,199,-682,504,-682v172,0,348,22,348,22xm553,-762v-188,6,-393,100,-393,100v6,352,109,611,383,611v248,0,381,-131,381,-375v0,-229,-142,-336,-371,-336"},"9":{"d":"152,-4r8,-68v0,0,168,21,340,21v287,0,434,-168,438,-563v0,0,-234,90,-414,90v-279,0,-428,-121,-428,-400v0,-272,179,-448,451,-448v330,0,467,278,467,708v0,516,-188,682,-514,682v-172,0,-348,-22,-348,-22xm528,-594v162,0,412,-92,412,-92v-8,-365,-112,-617,-393,-617v-229,0,-373,150,-373,379v0,233,121,330,354,330"},"<":{"d":"840,-1065r-645,422r645,444r0,84v0,0,-641,-436,-711,-487r0,-74r711,-469r0,80"},">":{"d":"774,-643r-645,-422r0,-80r711,469r0,74v-70,51,-711,487,-711,487r0,-84"},"[":{"d":"473,-1534r0,66r-301,0r0,1654r301,0r0,66r-373,0r0,-1786r373,0","w":614},"\\":{"d":"885,-29r-72,29r-616,-1407r71,-29"},"]":{"d":"100,-1468r0,-66r373,0r0,1786r-373,0r0,-66r301,0r0,-1654r-301,0","w":614},"|":{"d":"496,121r0,-1555r71,0r0,1555r-71,0"},"4":{"d":"778,0r0,-291r-710,0r0,-61r419,-1000r80,0r-411,992r622,0r0,-449r74,0r0,449r201,0r0,69r-201,0r0,291r-74,0"},"\"":{"d":"463,-1026r-72,0r0,-410r72,0r0,410xm174,-1026r-72,0r0,-410r72,0r0,410","w":573},"'":{"d":"66,-999r-5,-431r82,0r-10,431r-67,0","w":204},"(":{"d":"313,-1536r72,0v0,0,-195,533,-195,920v0,381,195,872,195,872r-72,0v0,0,-198,-462,-198,-872v0,-410,198,-920,198,-920","w":532},")":{"d":"115,-1536r71,0v0,0,199,489,199,899v0,410,-199,893,-199,893r-71,0v0,0,194,-512,194,-893v0,-387,-194,-899,-194,-899","w":532},",":{"d":"96,252r86,-430r82,0r-104,430r-64,0","w":348},"-":{"d":"123,-541r0,-69r655,0r0,69r-655,0","w":901},".":{"d":"201,0r0,-164r82,0r0,164r-82,0","w":507},":":{"d":"158,-705r0,-163r82,0r0,163r-82,0xm158,0r0,-164r82,0r0,164r-82,0","w":288},";":{"d":"76,252r84,-430r86,0r-107,430r-63,0xm154,-705r0,-163r82,0r0,163r-82,0","w":348},"=":{"d":"84,-702r0,-70r911,0r0,70r-911,0xm86,-356r0,-70r911,0r0,70r-911,0"},"?":{"d":"770,-1128v0,334,-408,432,-408,661r0,78r-71,0r0,-84v0,-254,407,-364,407,-655v0,-197,-121,-256,-338,-256v-98,0,-329,57,-329,57r-11,-70v0,0,229,-55,340,-55v260,0,410,84,410,324xm287,-2r0,-164r82,0r0,164r-82,0","w":790},"_":{"d":"55,70r877,0r0,69r-877,0r0,-69","w":1064},"{":{"d":"285,-346v-4,80,-15,157,-15,237v0,180,60,287,293,297r-4,66v-262,-10,-360,-119,-360,-363v0,-80,14,-200,14,-251v0,-131,-57,-197,-213,-242r0,-66v158,-39,213,-112,213,-245v0,-57,-14,-187,-14,-263v0,-244,98,-352,360,-362r4,65v-233,10,-293,113,-293,297v0,68,15,185,15,244v0,180,-55,246,-205,295v150,49,205,119,205,291","w":583},"}":{"d":"279,-346v0,-172,54,-242,204,-291v-150,-49,-204,-115,-204,-295v0,-59,14,-176,14,-244v0,-184,-60,-287,-293,-297r4,-65v262,10,361,118,361,362v0,76,-15,206,-15,263v0,133,55,206,213,245r0,66v-156,45,-213,111,-213,242v0,51,15,171,15,251v0,244,-99,353,-361,363r-4,-66v233,-10,293,-117,293,-297v0,-80,-10,-157,-14,-237","w":583},"&":{"d":"662,-1421v223,0,313,123,313,297v0,203,-102,294,-338,372r383,379v29,-82,49,-180,63,-299r72,0v-18,141,-43,259,-80,353r287,280r-49,53r-269,-266v-96,193,-245,270,-454,270v-360,0,-471,-170,-471,-444v0,-254,107,-346,334,-412v-96,-104,-105,-179,-105,-288v0,-172,103,-295,314,-295xm594,-49v184,0,315,-76,397,-254r-485,-481v-231,61,-316,141,-316,356v0,244,107,379,404,379xm420,-1126v0,84,12,172,92,252r74,73v229,-78,317,-147,317,-325v0,-141,-65,-230,-241,-230v-158,0,-242,78,-242,230","w":1433},"*":{"d":"889,-1063r-281,0r86,264r-65,21r-86,-266r-226,161r-38,-55r225,-164r-223,-164r41,-55r225,166r86,-264r65,20r-86,266r277,0r0,70"},"%":{"d":"852,-557v145,0,217,77,217,274v0,197,-74,283,-217,283v-145,0,-217,-86,-217,-285v0,-195,70,-272,217,-272xm381,-12r295,-1424r74,15r-295,1423xm707,-285v0,139,32,219,145,219v113,0,145,-78,145,-217v0,-139,-32,-209,-145,-209v-111,0,-145,70,-145,207xm276,-1438v145,0,218,78,218,275v0,197,-75,282,-218,282v-145,0,-217,-85,-217,-284v0,-195,70,-273,217,-273xm131,-1165v0,139,32,219,145,219v113,0,146,-78,146,-217v0,-139,-33,-209,-146,-209v-111,0,-145,70,-145,207"},"+":{"d":"-100,-479r0,-70r475,0r0,-475r74,0r0,475r479,0r0,70r-479,0r0,479r-74,0r0,-479r-475,0","w":839},"^":{"d":"854,-682r-324,-596r-305,596r-82,0r351,-670r75,0r371,670r-86,0"},"\u0150":{"d":"672,-51v395,0,471,-209,471,-660v0,-424,-86,-671,-471,-671v-389,0,-471,243,-471,671v0,430,76,660,471,660xm672,18v-442,0,-549,-254,-549,-729v0,-467,111,-741,549,-741v438,0,549,270,549,741v0,496,-109,729,-549,729xm666,-1675r391,-178r30,59r-393,180xm274,-1675r394,-180r28,61r-391,178","w":1343},"\u0170":{"d":"258,-401v0,258,149,350,389,350v258,0,410,-90,410,-350r0,-1033r73,0r0,1033v0,307,-176,419,-483,419v-287,0,-463,-110,-463,-419r0,-1033r74,0r0,1033xm713,-1620r391,-178r31,59r-394,180xm322,-1620r393,-180r28,61r-391,178","w":1314},"\u0151":{"d":"543,-1042v276,0,411,139,411,512v0,383,-73,548,-411,548v-340,0,-420,-141,-420,-553v0,-379,117,-507,420,-507xm543,-47v301,0,336,-157,336,-483v0,-328,-109,-447,-336,-447v-262,0,-344,98,-344,442v0,352,43,488,344,488xm625,-1274r333,-213r37,55r-333,213xm246,-1274r334,-213r36,55r-333,213","w":1077},"\u0171":{"d":"862,-1024r72,0r0,1024r-72,0r0,-82v0,0,-160,100,-336,100v-279,0,-336,-113,-336,-510r0,-532r72,0r0,528v0,348,37,449,264,449v182,0,336,-103,336,-103r0,-874xm657,-1274r334,-213r37,55r-334,213xm279,-1274r333,-213r37,55r-334,213","w":1140},"\/":{"d":"223,-25r568,-1413r67,29r-567,1411"},"\u00a0":{"w":481}}});
